309 100
college -0.0005871248 0.00060796324 0.0051687034 0.0089681 -0.0091429725 -0.0076515055 0.0068316157 0.009517996 -0.005438345 -0.004059752 0.0073215677 -0.0020127436 -0.0045371307 0.0067695114 -0.0048344354 -0.0021640754 0.002842663 0.00080259657 -0.008414347 -0.010103173 0.007466866 0.005027226 0.006968035 0.00051949976 0.006129199 -0.0034906555 -0.0011571232 0.0056150774 -0.007815931 -0.0039638462 -0.00709524 -0.0010691831 0.0097814705 -0.0076797274 -0.002597796 -0.0017127009 0.00804049 -0.00604538 -5.0462993e-05 -0.005568674 -0.009492245 0.0046787425 -0.008735771 -0.0044500045 0.00022481519 -0.00037058291 -0.007791932 0.009311072 0.0050988332 0.009365207 -0.007903073 0.0041199005 -0.004099861 0.00072151574 0.008375626 -0.0042781658 0.0046809674 -0.0067264778 -0.0039113667 0.009646915 -0.0015081833 0.00036308245 -0.0038914694 -0.007833015 -0.0019763245 0.0026754623 -0.0005716384 0.005818714 -0.0033436827 0.0026571043 0.005080358 0.008517523 -0.0011071158 -0.009111854 0.0048163193 0.00076797255 0.0073493426 -0.0006769267 -0.003146297 -0.008758866 -0.0010824339 0.0030185925 0.004965239 0.007418517 -0.005980199 0.0017999829 0.0061566476 -0.004670493 -0.0026815531 0.0066112787 0.0020493544 0.00045065544 0.0034841506 0.00026308105 0.01012855 0.005294351 -0.00873319 -0.0072777267 0.0010545377 0.006309546
university -0.00865629 0.0041280882 0.005304869 0.0056349295 0.007773795 -0.0069279484 0.0016559635 0.006889636 -0.0035918327 -0.006713616 -0.00061898824 -0.009066944 -0.0056729624 0.0073196795 0.003421568 0.006799853 0.006697003 0.0070304926 -0.0040562195 -0.0015911007 0.0026920899 -0.0044339364 0.008881778 -0.010203014 0.006491078 0.0027979116 -0.005466842 0.0040301275 -0.0021851668 0.0066856355 0.010488643 -0.004540742 -0.0004204893 -0.006151661 0.003511859 0.003267598 0.006774347 0.0058020772 0.009378091 0.008216068 0.0082752835 -0.0077669704 -0.009237653 -0.00057145464 -0.002681596 0.007797042 0.005661755 -0.0020041205 0.0017086426 0.0019705594 0.008209994 -0.010180636 5.328214e-05 0.0032910162 -0.0011133845 0.008772607 0.009294953 0.006637468 -0.0013799065 0.008144111 -0.0085267825 0.0032587235 -0.004406557 -0.005279853 0.0030358066 0.0057758405 0.008246459 -0.005412711 0.0067012217 0.0071952445 -0.0043231803 -0.008607074 0.005951309 0.0065393406 -0.00032457372 -0.0064330264 -0.0070741237 -0.0023032834 0.004623465 -0.0035084365 -0.00956355 0.0040293504 0.0042635975 -0.0059120716 0.0008036713 -0.0019675968 0.0001630056 -0.009584543 0.0033748164 -0.005050698 0.0017338 -0.0010602273 0.0019837485 -0.008048418 -0.0019457613 0.0029764774 0.0055500963 -0.002785371 -0.009321764 0.0044181296
contact 5.6927736e-05 0.0032317392 -0.0067706653 -0.0014060535 0.0077521647 0.0069898614 -0.0034526663 0.0030180968 -0.0085931 0.006037903 -0.004684733 -0.003402238 0.009222666 0.00094184175 0.0074956547 -0.0063266 0.0051717367 0.009795104 -0.008544103 -0.005520624 -0.006996097 -0.004822675 -0.0036405076 -0.008698543 0.007836953 -0.004974822 0.008309423 0.005146599 -0.006700492 0.003920096 0.005727642 -0.007453364 -0.0072395527 -0.0026438504 -0.008805946 -0.0014295827 -0.00047004793 0.0031848538 0.0014287703 -0.0014088122 -0.0055048806 0.0014933748 -0.0008585123 0.006713982 0.0040962286 0.004502704 0.0013176117 -0.0028824352 -0.004313762 -0.0009629838 0.0015501061 -0.0028606502 -0.0070373295 -0.007882426 -0.009192044 -0.005809436 -0.0016987985 -0.004330878 -0.006574962 -0.0035159055 0.004413816 -0.0036504199 0.008506988 0.0014265815 -0.0075219795 0.009613365 0.007748358 0.005645449 -0.0071835723 0.006006483 0.003787101 0.005263921 0.004432145 0.0019911441 -0.0028780384 0.008435037 0.00961392 0.0038826996 -0.0031707506 -2.7667462e-05 0.0010959044 -0.008320867 -0.008416937 6.802434e-05 0.0011183907 -0.005769549 -0.0046427813 -0.0072933356 0.008552408 -6.878314e-06 -0.0042518047 0.005887372 0.009159729 -0.004082615 0.00826905 0.0055353628 0.005936896 0.00036940485 0.008243766 -0.0070444103
registrar -0.008336602 0.009473525 -0.00022754639 -0.0020173695 0.0046624704 -0.0043818746 0.0029409078 0.0072245575 0.0058749476 -0.0076871016 0.009323573 0.004441371 0.003925787 -0.006156662 0.00843087 -0.0023354592 0.008833665 -0.005473211 -0.008163512 0.006576873 0.0016991888 -0.002193364 0.009678294 0.00938422 -0.00985143 0.0024688279 0.0060190647 0.0037858477 0.0018474072 0.00039718856 0.0009458351 -0.0038807478 -0.007000755 -0.0022629255 0.0037921343 0.008935444 0.009173919 -0.0060397615 -0.00939569 0.009322606 0.0034374988 0.004989445 0.0063235187 -0.0028649315 0.0074660485 0.0027768365 0.0028060668 -0.0025354 -0.0030924238 -0.0023790812 0.004461174 -0.00018291279 -0.009556502 -0.009679294 -0.00621642 -5.015397e-05 0.002116974 0.0094640255 0.005378692 -0.0041195313 0.00033408025 0.005000171 0.007832067 -0.0012251918 0.004122668 -0.005690099 -0.0006868275 0.008202629 -0.0026486393 -0.00946521 0.005633178 -0.0038503918 -0.001021801 0.010060262 -0.0020191057 -0.004710613 -0.0054033296 0.007036607 -0.0059491154 0.0020884662 -0.005382309 0.0061697587 0.0041769696 0.002740558 -0.0015938489 -0.0028105744 0.009071638 0.0052712252 -0.0020036784 -0.0095454445 -0.0071533592 -0.00085823063 -0.00081152085 -0.0025309052 0.009996061 -0.0003588509 0.0059784185 -0.007595979 -0.0024699182 -0.0055543426
dean -0.007212737 0.0014341458 -0.0071544005 -0.0022281993 0.0037277872 0.0055361465 0.0014294703 0.0023261297 -0.0042554573 0.007082343 -0.006362889 0.004458685 -0.008215716 0.0020795611 -0.004999734 -0.0044602957 -0.0030772365 0.005535226 0.0057094423 -0.0052355397 0.00084609975 -0.008513664 0.007956293 0.00919627 -0.0027699014 0.0007776374 0.0006330463 0.0053704735 -0.008768021 0.0006612996 0.0070650503 0.0021512187 0.0012571635 -0.009469492 0.008325388 -0.006126699 -0.003006572 0.0034487993 -0.00083318126 0.00094251224 0.0018789126 -0.0069706705 -0.009698345 0.008862125 0.0063838107 -0.0069876066 0.0032928954 2.9582267e-05 0.0048782877 -0.0070938943 0.0041731414 0.0041148113 0.0100065805 -0.0044882097 -0.0015201224 -0.0072179963 -0.009624119 -0.009059453 -0.0012468023 -0.0063865483 0.004916258 -0.0062172865 0.0027210428 0.0005894386 -0.0036192338 -0.0008787831 0.010154837 0.009281238 -0.004774636 0.009244717 -0.005820424 0.006021804 -0.0029193282 0.0034672935 0.0032177453 0.00703631 -0.0024218424 0.008816439 0.0073245233 -0.009495463 -0.008143256 -0.007586972 0.0027654239 -0.002586173 -0.007079162 -0.0081735 0.008280243 0.002055079 -0.0091074575 -0.004906577 0.003401477 -0.004550081 0.005248249 -0.0042637005 0.0029207093 -0.007978551 0.006332676 0.004733315 0.0008741052 0.002947094
student -0.008987176 0.0024691792 -0.0008504195 -0.009574438 -0.009300676 -0.0019261877 0.005011596 0.0045357184 -0.0070009786 -0.0073325555 -0.0051335315 -0.002823858 -0.0074218567 -0.009503758 -0.0027597528 -0.008808216 -0.0062346994 -0.0060578804 -0.0024722496 -0.0024482259 -0.008887262 -0.00072681875 0.008594036 0.0075108446 -0.0075330306 -0.0036860898 0.002872654 -0.010015743 0.0012169285 0.006568917 0.006113677 -0.009010138 -0.0044142036 -0.008562508 -0.0001310072 0.009654863 0.0058262027 0.00482937 0.0051294505 -0.00424611 0.009740356 -0.007974312 -0.0072714756 -0.002496972 -0.000447596 -0.0033130962 -0.00081163476 0.0071751582 -0.00059298455 -0.0014923778 0.0029808825 -0.008700312 0.007996205 0.008600882 -0.009653795 0.0027420046 0.01037126 -0.007500514 -0.0074174437 -0.0073344223 0.008542481 -0.0006085472 0.009293603 -0.008544617 0.0031753774 0.0028298425 0.0011161052 0.0026339917 -0.008116692 -0.00888837 0.0021204269 0.0063134446 0.008485678 0.005958513 -0.00028221856 0.008417362 -0.009231394 0.0035446968 -0.00023435161 0.003995319 0.0071359207 -0.006550423 0.0051700254 -0.009222324 -0.0011276037 -0.008768644 -0.0051275603 0.009565161 -0.0012393483 0.0026721037 0.0095042335 0.009377301 -0.008378909 -0.0029576202 0.010546318 0.005509263 -0.0013450182 -0.009073436 0.003144964 -0.0067134104
bicol 0.008158229 -0.004293307 -0.0009791736 0.0009987932 3.441021e-05 0.0006817022 0.006505957 0.0004968844 -0.0036969723 -0.0018261251 0.005800596 0.0010782615 -0.000879195 0.009516915 -0.004820574 -0.0010961643 0.009181673 0.0063600866 0.0012706695 -0.009565841 0.0014151698 -0.002252404 0.009673725 0.0009788069 0.0013325054 0.0023366532 -0.0021504825 -0.0051933327 -8.491607e-05 -0.0020261984 0.006930168 0.008878433 -0.00051213393 0.0027259507 -0.0063538216 0.0019988716 -0.006959236 -0.008948379 -0.006008634 -0.009597052 0.007460299 -0.0062313825 0.008247821 -0.0073689306 0.0036766552 0.0096027665 -0.008002893 -0.010229285 -0.0041330364 -0.0025605091 5.8309288e-05 -0.009230328 -0.008431993 0.002667035 -0.008358341 -0.008885494 -0.00211358 -0.008571323 -0.0075185476 -0.008126308 -0.00043531426 -0.0044522523 0.0067760586 0.0013735531 -0.003742227 0.0063078017 -0.005749349 -0.004418277 -0.007699672 -0.0039692335 -0.0022164169 0.006599272 -0.0024798387 0.004957982 0.0071905255 -0.0073367623 0.0045995256 0.0062605054 -0.0033113007 0.0066899615 0.006026162 -0.0063058306 -0.0072000916 0.002864782 -0.0018134513 -0.0059480146 0.009565692 -0.0049353107 -0.0061703683 -0.00035495538 -0.0022881923 0.0008181709 -0.0036179747 -0.0005198708 -0.00027276707 0.0010283412 0.008387594 -0.0060383677 -0.0014516592 0.0055461535
library 0.008116999 -0.004115996 0.009103963 0.008238651 -0.0042308024 -0.00016394774 0.0047693234 -0.0031898613 -0.005945491 -0.006897442 -0.0007534385 -0.0008265311 0.0043759746 -0.0023282135 -8.824603e-05 0.002150795 0.004839332 -0.0003850581 -0.006408844 -0.009995395 0.00024747135 0.006747078 0.0015452805 -0.009143484 -0.008182883 0.006476081 -0.004074748 0.005938157 -0.00700769 0.008578571 -0.006276142 0.0031354607 -0.00091467844 -0.007187528 -0.0035692349 -0.0008855164 -0.005507555 -0.0013687252 -0.0076829386 0.0018793114 0.009340548 -0.0027571556 -0.0009832791 0.0032890264 0.009013447 -0.0060400898 -0.007139089 -0.003348561 0.009346282 0.0009659584 -0.008410504 -0.0018701636 0.009630648 -0.007604742 -0.0055911867 0.009651034 -0.008716731 0.0039511463 0.00026369488 0.007011523 0.008282018 -0.002751349 -0.0038035673 0.008824356 0.0016113485 0.006459655 -0.009115198 0.009857642 -0.0018862041 -0.00575393 0.002612304 -0.00040892104 0.005078326 -0.002268855 -0.0038372811 0.0025053334 0.00841375 -0.0047787665 0.0022580803 -0.007851651 -0.0069537363 -0.00030333875 -0.009164588 0.0031940679 0.0013645581 -0.002321472 0.004988145 0.010096161 0.009077536 -0.0020114295 0.0025837896 -0.0035491942 -0.008365578 0.0062399143 -0.001452135 -0.00041829402 -0.0015576185 -0.0048663095 0.004326543 -0.004234057
offense -0.00970859 0.0093497485 0.004325615 0.009148242 0.006848525 0.0024140202 0.010320549 -0.0037335928 -0.007233458 0.003791488 0.0036186792 -0.0062043592 0.009705333 -0.0034890529 0.009512985 0.00050198886 -0.0063764392 -0.00229687 -0.007560899 -0.0037164774 0.0011038193 0.009551433 0.009506305 -0.006790648 0.0031773043 0.00214806 -0.002802831 -0.009551779 0.0006693991 -0.0081303 0.00665247 -0.0060720393 0.005698439 0.009395013 -0.00049767393 0.004916155 -0.0018039878 0.0071165436 0.0038698416 -0.009940599 -0.0022840842 0.0032936616 -0.00012128793 -0.00128169 -0.0007189326 -0.0017870258 0.00043818433 0.0038706427 -0.0040630726 -0.0036731174 0.00018723222 -0.0003036912 -9.0997564e-05 -0.004863178 0.0041389465 -0.0018692493 0.0023198412 0.0007497427 0.005530155 -0.006487435 -0.006758079 -0.0043936516 0.00973533 -0.0018639852 -0.009871767 -0.00028581652 -0.0041376185 0.006272848 -0.010206924 0.0031706896 -0.009570027 0.0015316686 0.0064463695 0.007454276 -0.007208263 -0.0058337236 -0.007043087 -0.007782659 -0.010022922 -0.0020340995 -0.0010402771 -0.0070998785 0.00635558 0.0013990916 0.0055357465 0.0014913272 0.0007602452 -0.007179433 -0.0015999429 0.0042001954 -0.004537318 0.0016065221 0.002837695 -0.0014412688 0.0106094815 0.008471829 0.002559061 0.006790741 0.0061400677 -0.0056526614
campus -0.0051523545 -0.0066744015 -0.0078028385 0.008337821 -0.0019397702 -0.007013186 -0.004060573 0.0053416346 -0.0029899206 -0.0038435117 0.0016363447 -0.002901683 -0.0016168029 0.0012042285 -0.002978981 0.008462371 0.0039749183 -0.010084035 0.006221946 -0.0069448533 0.0008467227 0.0043882104 -0.0050047105 -0.0021881973 0.008150743 -0.0042515616 -0.0076989927 0.00925109 -0.002261181 -0.0047264188 0.008684464 0.0043560965 0.0043752594 0.009223549 -0.008581502 0.0053196275 0.0019742849 0.0040636803 0.001652669 0.004262293 0.0045662127 0.005989377 -0.0031754998 -0.004670623 -0.00031143875 0.0025543144 -0.003361125 0.00595996 0.0042206896 0.007791412 0.0026449857 0.008027392 -0.0014139769 0.008099275 0.0036258085 -0.00809404 -0.0039120466 -0.0024543058 0.0048003015 -0.000852365 -0.0028078286 0.007847608 0.0094685145 -0.0016323015 -0.005321949 -0.004660129 -0.0047986764 -0.009566468 0.0012166563 -0.004135252 0.0024544457 0.005692793 -0.0040253834 -0.009598535 0.0016524752 -0.006703861 0.0025150292 -0.003747144 0.0069742575 0.0006872817 0.003529925 -0.0027443867 -0.0018013463 0.00783416 0.0013870904 -0.005843795 -0.007806036 0.0012841274 0.0065334826 0.005464379 -0.008889143 0.008701629 0.0040454357 0.007475137 0.009903761 -0.0072170533 -0.008994338 0.0057066367 0.009422039 0.0035220494
medical 0.0070387763 -0.0011206893 0.007991845 -0.009517606 -0.007712946 -0.007330788 -0.0034130535 0.0059076003 -0.004403622 -0.008904295 0.008213137 -0.0043335287 0.008548757 -0.0047140922 0.0039168117 0.004419342 0.0023833695 -0.0032200336 0.0024935028 -0.009157989 -0.0026250312 -0.0027196817 0.007599008 -0.0037777296 -0.0070178006 0.004049417 -0.000878781 -0.0039114645 0.0065440973 0.003985006 -0.0033804635 0.0005222087 0.009384897 0.0072634476 0.0059687924 0.00519278 0.0022644133 -0.0021758121 -0.006502981 -0.0014134527 -0.001402374 -0.0010624408 -0.0063848915 0.0073597883 -0.006230197 -0.0074046883 -0.0029266719 -0.002138856 -0.007330716 0.0009491122 -0.0050022816 -0.0020152165 -0.0072136135 0.0019300869 0.002901167 0.00040777726 -0.005128788 -0.0016973605 0.006400094 0.0043209526 -0.008782229 -0.0032450894 0.0026720024 0.0018561349 -0.0102581205 0.0048566125 -0.008284581 -0.007056397 0.0028060034 -0.0029508162 0.0032151921 0.009128786 -0.003055888 0.0095390035 0.002222512 0.010062797 0.005589242 -0.008924395 -0.0039587067 0.0066627655 0.0053517763 0.008956143 0.006390497 0.008454443 -0.01029685 0.004284887 -0.004897021 0.0037101118 0.006764473 0.0042243423 0.008260311 0.0020379324 -0.0013475767 0.005781095 -0.004850001 0.00024443594 0.009692907 -0.0060139843 0.0039744317 -0.008100026
dental 0.009939536 0.008962997 0.0013957703 0.0050441343 0.0019252943 -0.007432389 -0.00066822284 0.007740956 -0.0053906203 -0.0047491463 0.004607705 0.0020029424 -0.0017152798 -0.002630328 0.0061527346 -0.006377104 -0.003266622 -0.007039359 -0.004829785 -0.009944952 -0.0042080823 -0.008716692 0.0018321588 -0.009018122 -0.0105615975 -0.008742548 -0.0073510907 0.0063013886 0.0033072946 0.00043951732 -0.0021629517 -0.007994097 0.00085941295 -0.00028705702 -0.00050264795 0.0016786214 0.0006390988 -0.0004989243 -0.008208332 -0.0076358533 -0.008217467 -0.0019380173 0.0015715983 0.007251525 -0.0014460069 -0.0025007261 0.009185552 -0.0007842439 -0.002087501 0.009094411 0.0030984653 -0.0064842906 0.006785086 0.004426407 -0.007563278 0.00026307077 0.0012802768 0.005951941 -0.0029113423 -0.0019915027 0.001899357 0.0010387636 0.0016359752 -0.0030577376 -0.007078244 0.007894622 0.008264045 0.008698579 -0.009579875 0.003458945 -0.004125802 0.009934275 0.0035994968 0.0049543157 0.0032168084 0.007038064 -0.0060085054 0.008286391 -0.0032838243 -0.0045172484 -0.0025061457 0.010113389 -0.007868703 -0.0016626205 0.006167528 -5.9659767e-05 -0.0060768356 -0.00614373 0.01017813 0.006217029 0.005695034 -0.002389845 -0.009429254 0.0037011427 0.008110137 -0.0054397737 -0.007647672 -0.003658256 -0.004713066 -0.0025005918
requirement -0.0020094858 -0.004949408 0.009376496 -0.009433313 0.0047102077 0.0050125658 -0.0010457985 0.009514292 0.009645839 -0.0058138394 -0.006102516 -0.0071288524 -0.0079002185 -0.002995181 -0.005574168 -0.008623003 0.0007556681 0.0027027766 0.006302859 -0.0031708924 -0.0043627257 0.001240798 0.00061360386 0.008031256 -9.319477e-05 0.007098996 -0.008446537 0.008224818 -0.0021587724 0.008830655 -0.007276468 0.0015143071 0.0012181218 -0.00025212133 -0.00536852 -0.00896902 -0.0073179374 -0.0081309145 0.0017905527 -0.00023084684 -0.0017444359 0.00685505 -0.0025352214 -0.0014765282 -0.008677252 -0.010031291 0.008751934 -0.0060892557 -0.00627596 0.005292462 0.0069049816 -0.007299486 0.0011053159 -0.0060390113 0.0014464807 -0.004015385 -0.0031755948 0.0022163144 0.008163691 0.00702692 -0.009583611 -0.005536679 0.00797209 0.0018438749 -0.0046971636 0.0008247962 0.009760362 -0.0008999098 -0.009951887 0.0019097241 0.0059670713 0.0064342357 0.0044754366 -0.0055846004 -7.088838e-05 3.1136984e-05 0.0045028874 -0.007875324 -0.008396976 0.0003628616 -0.008810876 0.0059275343 -0.0008171992 0.0102499705 -0.0056456616 -0.00051551865 0.0077239173 -0.0038557434 -0.0045604613 0.0014235676 0.003215518 -0.002149902 0.0063782586 -0.007669684 0.003777193 0.00058772636 0.008870572 0.005749803 0.0069426103 0.007814788
institute -0.009477084 0.009783246 -0.0077985013 -0.0026474302 -0.004799988 -0.005345339 -0.00775115 -0.007351454 -0.005046675 -0.0015418909 -0.0051993034 0.005774553 -0.009524623 -0.0051887836 0.009441742 0.0066921473 0.007648436 0.0040357704 0.00041711453 -0.006497201 0.0061489735 0.0026804379 0.007851097 0.0062007466 0.0077407514 0.008573359 -0.010032357 -0.006983518 0.0010513954 0.006393365 0.007766215 0.0054110093 0.0078377025 -0.0053648856 0.006356588 -0.003900409 -0.009174084 0.00907001 0.0012099588 -0.0034065295 -0.002278376 -0.0045646466 0.0048207776 0.004332634 -0.0024774405 -0.0073673236 -0.0036455048 -0.00064135774 0.006136672 -0.0028142573 0.00015843034 0.0005739753 -0.0070139244 0.0019292587 -0.0015919659 0.0029334824 0.004933316 -0.0013192322 -0.0031134933 0.007989755 0.005136744 0.0068188007 0.0045936285 0.008505986 0.007148185 -0.00088039425 0.008957009 0.00479149 0.0050527877 -0.0010526425 -0.0023633284 -0.0042965156 -0.008297386 0.0030868328 0.009251651 0.0090732165 -0.0019628243 0.0062852027 0.0034357572 -0.00422711 0.0018868754 -0.0052448665 0.007958906 0.005707001 0.0029815773 0.004102536 0.008718355 0.0073927855 -0.0004891476 -0.0072620534 0.008730049 0.007529164 0.0015977741 -0.0013459303 -0.0055008754 -0.004285408 0.008748871 -0.0033451726 -0.006288427 0.0099062
school 0.0077051716 0.009379852 0.0011827754 -0.008447548 0.008594031 -0.004023982 0.0060425512 0.0047737113 0.0093941 -0.009587377 0.0092335725 -0.009596081 -0.0069167875 -0.009027581 -0.005540614 0.007142735 0.009195578 -0.0035523772 0.0036806567 -0.004107504 0.008029064 0.005866099 0.00021073592 -0.0037705912 -0.0074184723 0.0046741846 0.0012885109 -0.002758263 0.0076644924 -0.0041142567 -0.008915676 -0.0023054087 0.00021732792 -0.006866798 -0.0055896584 -0.008338495 0.009195428 0.007263989 -0.0004046596 0.00679915 0.008099466 -0.0010808617 0.0066786385 0.0037336648 0.0052575544 0.007179557 -0.004879227 -0.002459263 0.00091419363 0.00430641 0.0035685184 0.0048034755 0.0046020104 -0.008551211 -0.0032315212 -0.007138328 0.009881722 0.0051061357 -8.143355e-05 0.0042918315 -0.00763131 -0.006282182 0.0031933903 0.006497904 0.0036409264 0.006243961 -0.0018038423 -0.003186795 -0.00015987949 -0.0029554684 -0.005859565 -0.007693713 0.006788924 -0.0010360514 -0.0015983043 -0.0076978817 0.009372144 0.0009636348 0.0014355881 0.0025397432 -0.0075579183 0.0017853131 0.0027284946 -0.0083469665 0.0047790287 0.0024525677 0.007560762 0.0051797633 -0.002694684 -0.007310089 0.007408353 0.0021188965 0.0051622125 0.0064139096 0.002316219 -0.0060096043 0.00010207391 0.0081340335 -0.006058486 0.00945239
book -0.007255192 0.0045375708 0.0022450977 0.0073519894 -0.004680902 -0.0050996523 -0.0055488455 0.0039590755 -0.0049628024 0.0082327165 -0.0043306397 -0.009513439 -0.0048948037 0.006533556 -0.0063391095 -0.0056405845 -0.0073382147 0.0057275672 0.003182799 0.0021288255 -0.0029653602 0.0061429795 -0.0059912778 -0.0022198716 -0.00632978 -0.0010714325 -0.0022392664 0.008225946 -0.00022981655 -0.008506682 -0.0051387446 -0.0070827445 0.0027939584 0.009044673 -0.006079083 0.00858532 0.008431691 -0.0073355287 -0.008960436 0.0087095555 0.008671173 -0.0050604623 -0.006762846 0.00771504 0.0040541156 0.008081589 -0.007806066 -0.00983371 0.001709436 -0.009742692 -0.0046902066 -0.0038844391 0.00974436 0.008678159 -0.0030370455 0.0061976537 0.008454034 -0.002210717 0.009174284 0.00758678 0.0020797795 -0.003742674 -0.004947958 -0.0032069045 0.00750619 -0.0059199654 -0.002678028 0.00941927 0.0028900679 0.006511524 -0.0084463535 -0.0006590196 0.005879083 -0.0047102054 0.007815877 0.009543409 -0.00042675267 -0.0018333937 -0.0010343668 -0.0057462635 -0.008655766 -0.0012942968 -0.0029645404 0.0046660723 -0.00722063 0.0054868343 -0.006723083 -0.0076687746 0.009070341 0.008717669 -0.0029335641 0.0038520494 -0.005952703 -0.008685023 -0.005086825 0.006936333 0.006667848 0.009169987 0.007223898 0.006850112
clinic 0.0013774902 -0.0094454475 0.004696073 -0.0005730365 0.0065874085 0.0012570041 -0.0026397728 0.008552866 0.001097198 -0.0003957258 -0.00473928 -0.008950026 -0.0078078075 0.008752344 -0.008960561 0.008741053 -0.009302446 -0.00065721956 -0.0022141915 -0.0098055 0.008738076 0.006653781 0.0033656398 0.004630791 -0.00030092904 0.009195517 0.0067364224 -0.010114216 -0.004720023 -0.001192771 0.0035467322 -0.0045791194 0.0016977224 -0.00828474 0.0024110896 0.0051566246 0.0049514826 -0.0034718285 -0.008549519 -0.010136406 -0.000619195 -0.007788883 -0.0069187274 0.0061097173 0.007520431 0.0020068618 -0.0080655785 -0.006161553 0.008292182 0.004177045 -0.0049722637 -0.007972878 0.00090119574 0.0034266226 0.0017361455 0.0033941183 -0.005365488 -0.009844128 -0.0076245693 0.00068951485 0.004666462 0.0046367785 0.0021246213 0.0049950476 -0.00076916965 0.0043726945 -0.008776344 0.008012161 0.0056008603 0.005555559 0.0068543945 0.008730415 0.0011385726 -0.0015020164 0.0010273345 -0.009090543 0.008250323 -0.0061638276 0.007877525 -0.004146409 0.0004850768 -0.008998932 -0.010097515 -0.007437459 -0.008117113 0.00039279633 -0.007163614 -0.0047553093 -0.0046780445 -0.0044448134 0.007576457 0.0053298 0.008602017 0.007060174 -0.005096363 0.007318347 -0.0090993 -0.003062219 -0.0075878836 0.004119455
admission 0.001756824 0.007191173 0.00297198 -0.007008565 0.007888497 -0.006256678 0.009267482 0.00325317 -0.004313332 -0.004916192 -0.0044676834 -0.0064108553 0.009322605 -0.0025749488 0.0077547478 -0.009898196 0.0020753127 -0.0014015792 0.007399989 -0.009448369 0.007545403 -0.005109358 -0.005851425 -0.005778903 -0.0034818375 -0.0034768642 -0.0033912638 -0.007627299 0.0005048703 -0.0005332086 -0.0014594938 0.0037059928 -0.0075571355 -0.0033493962 0.005037642 0.0087508485 -0.009889291 0.0070456434 0.0052801133 -0.004390118 0.008694036 -0.009443651 0.007242969 0.0052850847 0.0014685194 -0.0052025267 -0.004298258 -0.0035668276 0.0017026392 0.0016605502 0.0075750104 0.00971035 0.008957491 -0.0040625385 0.009529359 -0.00048427028 0.0049426476 0.0025832215 -0.0008990412 0.0038730332 -0.0053416416 -0.005706421 -0.007485097 0.0017802126 0.0062523535 0.00097138557 0.0014604343 0.003258479 0.0078032007 -0.007451492 0.002028447 -0.0073729735 0.0039051564 0.00957043 0.0076908274 0.0064806887 0.008021046 0.0065855626 0.0066071902 0.00874861 -0.0050085015 0.009320535 0.0048246346 -0.0019221007 0.008281092 0.005114813 0.0096930815 0.00293798 0.010153139 0.0010707868 0.0093961805 0.0037886968 0.006506157 -0.0036327585 0.0070829457 0.007331808 -0.0020048395 -0.0020601845 0.0037505217 -0.0070800525
science 0.009726353 -0.009698196 -0.0064520217 0.0027912464 0.0064290115 -0.005478177 0.0028688307 0.009231957 -0.0069114603 -0.0061700456 -0.0050174184 -0.0038122404 0.0018722774 0.009735236 0.0064462437 0.00031067297 0.0024517174 0.008402048 0.009112108 0.005483501 0.005985969 -0.007605525 -0.0038012788 -0.005740675 0.0061532347 -0.0022560742 -0.0088302335 0.0075793406 0.00832264 -0.0033441288 0.00918015 -0.00074606604 -0.003602519 -0.00046754305 0.00012491964 -0.0034319612 0.0028315051 0.0057289377 0.006848062 -0.00911811 -0.0021636547 -0.005538584 0.0075431163 0.006465636 -0.0042944485 0.0023261188 -0.0060220663 0.00015522716 0.009521888 -0.0025902586 -0.0051295427 -0.007487266 -0.0029084815 -0.00091430487 0.0035193618 0.00981124 -0.0033568114 0.0019167169 0.009582487 0.0015620897 0.000996822 0.009793816 0.0093829585 0.007680639 -0.0062803333 0.010014591 0.005902388 0.009158815 -0.0021186161 0.0034611328 0.006755987 -0.0038385864 0.00674451 0.0026044494 0.0093949195 -0.0029798565 -0.0031294632 0.006249396 -0.009210165 -0.007252949 -0.0065469323 -0.0007351531 -0.0024339657 0.0069148582 0.009205631 -0.0009027198 0.0014434165 0.0020887915 -0.0019334892 -0.008075012 0.007564415 -0.004249214 0.0046043727 0.00911225 0.0031894043 0.0032071571 0.0040682754 -0.0027589747 0.0038611356 0.00032868236
borrow 0.005565023 0.0058246558 0.0019737943 0.005706743 -0.008812199 0.0060993778 0.009711179 -0.003610053 0.0012167938 -0.0055234693 0.0009943435 0.0023418195 0.008110256 0.00061239576 0.0026321185 0.0009785901 0.008353564 -0.006072634 -0.006383937 -0.0043120217 -0.0021411828 0.0051572593 -0.007976504 -0.0030013064 -0.008497905 0.005101382 -0.0027734581 -0.009266609 0.0037576347 0.009093909 -0.0027810961 -0.0059648957 0.003195953 -0.00079936517 -0.010290601 0.008715451 -0.007444964 -0.0052135214 -0.002748869 -0.006171347 0.0020050202 0.00933052 0.0045359284 0.008009101 -0.00019634026 0.0006341323 -0.002825734 -0.009103325 0.003513106 0.0021593778 -0.0092415335 -0.005364235 -0.009637144 -0.0057929326 0.0039487137 0.008879298 0.0043068826 0.0024385825 0.0078097614 -0.00084011577 -0.0013833253 -0.008623268 -2.554553e-05 -0.002706876 4.1982425e-05 0.0075129294 -0.0067774355 -0.0036695113 -0.0071355994 -0.003206409 -0.003700629 0.0022106399 0.003657613 -0.0048748897 -0.0042276867 0.0013952965 0.0053754766 0.0055997977 -0.0033415542 -0.0042580124 -0.005804971 -0.0003659691 0.0015949364 0.0018160827 0.0071532386 -0.002675196 2.9185142e-06 -0.0053484044 -0.00064320536 -0.007922641 -0.00041705658 0.0016607973 -0.008736823 0.008721585 -0.008767041 -0.009448764 -0.00829918 0.0070895255 0.005577533 0.009329137
bu 0.0025281995 0.0013047958 -0.0025466457 0.009362594 0.0029783177 0.0035452358 -0.00060894137 0.0016896109 0.0062469915 -0.0011881491 0.003164234 -0.0011378955 0.005310924 0.0037120795 0.0025759689 -0.0057124547 -0.0046770778 0.0039049475 -0.006206808 -0.0009954429 -0.00056730583 0.0033801333 -0.00823626 0.00864938 -0.0018528067 -0.005604373 0.0037090387 -0.0022130464 -0.008051848 -0.0043807584 7.535472e-05 -0.009299873 0.0007919498 0.002055245 -0.0036327962 0.0030118094 0.0024465236 0.009697081 0.001295835 0.0009514322 0.0028574998 -0.0023710006 -0.008776931 0.007916489 -0.0015975015 -0.009820777 -0.006792639 -0.0044115237 0.004160614 0.0053233956 0.00630271 -0.0074238232 0.0008110794 -0.0027725967 -0.0056466865 0.0074006994 0.0041866186 -0.0030953551 -0.008941255 -0.004646374 -0.0005072857 0.007887407 0.006359913 -0.00875731 -0.010168489 0.007412489 -0.0020201756 -0.0033925336 0.005073755 -0.005384966 0.0048099994 2.8427738e-05 -0.006384883 -0.00018791934 0.006765911 0.00945617 0.0020602026 0.005207696 -0.005508273 -0.000710297 -0.005598109 0.0012822179 -0.0023794002 -0.0033251296 -0.0074600405 0.009608797 0.0030574214 -0.0020917393 -0.0034472346 0.0076146666 -0.0058333664 0.0036618751 0.0006686759 0.00839389 0.0075303405 -0.002870472 0.0027299062 -0.0021016374 -0.009265014 -0.0026743123
education 0.0012863572 0.006706587 0.009941319 0.008975785 -0.007879511 0.006187143 -0.005494323 -0.000693476 0.00017353347 0.0063408217 0.0044411314 0.004326596 0.009447548 0.00044667127 -0.00611823 -0.006545558 0.0064544342 -0.005347669 -0.0028902467 0.0037016904 -0.0022051365 -0.005996656 -0.002202151 0.0011214337 0.0020719941 0.006011487 -0.005265012 0.002947908 0.0070722057 0.002245154 0.0056302715 -0.004856135 0.006284199 -0.007793754 0.003386734 -0.0092138285 -0.0026832581 -0.009117594 -0.0016422415 -0.005805713 -0.0038159739 0.00095813174 0.0028452426 -0.0015910924 -0.0080260355 -0.005964266 0.0007320252 -0.004155566 -0.009353287 -0.00072310894 0.00681596 0.0057996726 -0.009820992 0.003108092 -0.0061551044 -0.009044667 0.0002646328 -0.00037396976 -0.0071861357 -0.0060654767 -0.002296055 0.007197795 -0.0074902116 0.007588755 -0.0007478472 0.0011823485 0.009647049 0.0048594186 -0.003875625 0.0038803876 0.0033419046 0.0064205076 0.00027867738 -0.004386997 0.001558968 -0.005356084 0.0014259353 0.005010598 0.0048856423 0.009247107 -0.0076771597 -0.005241674 0.0062849144 0.0015598412 -0.0068206564 0.0008479995 0.0026912973 -0.0024303957 -0.0046695564 0.00490027 0.0099042365 -0.0071924636 -0.000120412486 -0.0025143167 -0.00611213 -0.0012470732 -0.005144044 0.008880139 -0.005766149 0.0037345125
card -0.00028914592 0.004620289 0.0021554537 0.010004816 0.001027815 -0.0060146074 -0.0006236917 0.0029085132 -0.003731433 -0.008344566 -0.0057664746 -0.0073245284 0.0063216863 0.004007851 0.008358335 0.006302431 -0.006118276 0.0023174405 0.008317034 0.00076741504 0.003274014 0.0059331623 -0.008679697 0.008926327 0.0065494264 0.008442884 -0.008719777 0.0059152395 0.006209405 -0.0012267564 -0.0060622264 0.0050646053 -0.0068048895 -0.005761435 0.003199746 0.008483512 0.008689938 -0.0045723 -0.009327431 0.008789818 0.0065260543 -0.0041978997 -0.00849873 -0.004947419 -0.003570958 -0.0032775863 0.0004398472 -0.00071444496 -0.0028744123 -0.0058240546 0.009742638 -0.0052806996 -0.007084191 0.0075859553 0.0022496174 0.009061907 -0.0042214 -0.0067132637 0.00049214135 -0.0006568682 -0.00949106 -0.001498001 0.0031952036 0.006487558 0.0063492036 0.0033902563 -0.004142162 -0.0015571722 -0.0044965423 0.0062121553 -0.0067527103 0.0022388918 -0.00084247044 -0.0057922294 -0.006949718 0.0059867287 -0.008352972 -0.0005357563 0.002450623 0.007875824 -0.0074918424 0.0034067398 0.009376511 -0.006668743 -0.0038079177 0.005151242 0.0052392515 0.0020267535 0.008696309 0.0006382456 0.0025980056 -0.0009808885 -0.008272793 0.0033390215 0.0025673467 -0.008573173 -0.00040850672 -0.0003121998 0.00022889566 0.008723613
graduate -0.0024452456 -0.0057950174 0.0075596496 -0.007238745 -0.008841616 -0.002042241 -0.008122156 0.0007422988 0.0016874894 -0.0026785932 -0.006559584 -0.0005276698 -0.0011703396 0.0035339308 0.008210221 0.0056821173 0.008497293 -0.009167707 0.009369884 -0.0028614851 0.008844376 0.002360826 0.0037119582 -0.009773363 -0.009608501 0.008939255 -0.0030698995 0.002651678 0.006239879 -0.00028835871 0.009970173 -0.0010230932 -0.009560524 -0.007270631 -0.0011887978 -0.008540656 0.0073699276 0.0035420065 -0.008879575 0.008026278 0.009145207 0.0055344743 0.006952302 -0.009623266 0.0007097712 -0.009316549 -0.003801947 3.2043314e-05 -0.0002442104 0.0015104497 0.0034851064 0.0019210199 0.005341222 0.007458334 -0.0060225558 0.00801296 0.0060791196 0.009794983 0.004382875 -0.0031527146 -0.0037586093 -0.00057924003 -0.0015430885 0.009770631 0.000882085 0.004185411 0.0036696282 -0.008691441 0.0064233392 0.008361252 -0.0019403906 0.0024670637 -0.0063899877 -0.0061493954 0.008514802 -0.0029624766 0.00680106 0.0016944553 -0.0022435312 0.0030562612 -0.004092925 -0.0017370303 0.0011665488 0.005094689 -0.001527863 0.00068203924 -0.007848919 0.009615252 -0.008525579 0.0069054617 0.0041532866 -0.006771588 -0.005363035 -0.007930361 -0.0047873086 0.0072217607 0.009788669 0.0020051093 0.0007476584 0.009616859
time -0.005010869 -0.00088171737 0.003346574 -0.0064924187 -0.00945633 -0.009720832 0.009532396 0.0060373587 -0.0053021098 -0.008687424 0.0012039532 0.002344981 -0.0012819133 0.0014031857 -0.0044280426 0.0044462844 0.0014575042 0.008562006 -0.010157242 -0.00598759 -0.008938369 -0.0003861642 -0.0076347655 0.0048139864 -0.0067514605 -0.0060560107 0.004815162 -0.008348298 0.0011117642 -0.0072433525 0.010270571 0.008550291 0.0018875034 0.005330541 0.004350287 -0.0055941134 0.00980171 -0.009982887 0.007993609 0.001895926 -0.002866865 -0.004042445 0.009063905 -0.005613074 0.008396508 -0.00616045 0.008198129 -0.0009216059 0.008220061 -0.0030735359 0.006286318 0.008299989 0.0026767482 0.0012100539 0.0049025984 0.008327105 0.008663183 0.0086082565 0.006575906 0.008314762 0.008668611 2.6450498e-05 -0.00083494687 0.0015278877 -0.00050946744 0.0008528131 -0.00834048 -0.009334622 -0.0029270411 0.009317507 -0.0040569087 -0.006760845 0.0053111822 0.0011716438 0.0022511769 0.0039369604 0.0034834784 0.0059590554 0.000790478 0.000972755 0.008915732 0.002906171 -0.005111705 0.006921614 0.004884135 0.0029409823 -0.003047947 0.0035542953 0.006841585 0.0068395482 0.0014758612 -0.008117172 0.00018170486 0.00035412025 0.004462691 -0.009409626 0.009897966 -0.007326142 0.0059707463 -0.009486683
open 0.009712707 0.0076004784 0.0013814941 -0.0034634303 -0.00016556257 4.0888437e-05 -0.0060826456 0.0063687973 0.0019185371 0.0034150772 -0.0074265283 0.008093952 0.0004084614 -9.699032e-05 -0.0090838345 0.0037718534 0.006705102 0.0069975834 -0.00658324 -0.008519879 -0.005349168 -0.00063297217 -0.008051609 -0.008442654 -0.0022164371 0.0010462645 -0.009855664 -0.003893316 0.00038034006 0.0068492973 0.0021475349 -0.0007402813 -0.007369816 -0.007095482 -0.0008333757 0.007817098 0.005492575 -0.0017043654 0.0010972604 -0.010238671 -0.0012032929 -0.0051452857 0.005745747 -0.0023715182 -0.00457227 -0.00960226 -0.001368534 -0.0075044003 -0.0014117978 -0.0039190864 -0.0021057127 -0.003682313 -0.0079104565 -0.0013465841 0.0015536443 -0.0037492118 -0.0074878433 -0.0034366688 -0.009488116 -0.00041622203 0.005892036 -0.0028207863 0.0032559375 0.004846476 0.008005155 0.005767724 0.009830907 -0.009407418 -0.008422569 -0.0064399852 -0.007801489 -0.007850069 -0.0074345116 -0.0028589366 0.0017415502 -0.0027014674 -0.008766407 0.0052105878 0.0005957844 0.004696498 0.007066137 0.0078259 -0.0011900566 0.0039467947 -0.0054589463 0.0020173516 0.0046800524 0.010111118 -0.0027650679 0.0026746918 -0.005247964 -0.0018488677 0.008058805 -0.003984441 -0.00084398134 -0.009154191 -0.009322658 0.008580821 -0.0055694203 0.0049828202
transfer -0.006976012 -0.0023287588 -0.008024612 0.007442793 0.0062238597 0.005082637 0.008515632 -0.0005249474 -0.00944365 0.008962959 -0.004943765 0.0076996046 0.0055065183 -0.0009967149 -0.007714211 -0.0015989009 0.0062231855 -0.0070935315 0.0013933369 -0.008151946 0.008787626 -0.002870089 0.009589924 -0.005766307 -0.009741584 -0.008685452 -0.004164059 0.0046178172 -0.00034616436 0.009260179 0.003229328 0.0037153508 0.0030714006 0.008052225 -0.0024672418 0.0074968142 -0.0095620835 0.0028671988 -0.00072838087 0.00014292775 0.0068761692 -0.0029995197 -0.002323816 -0.00021238957 -0.00041956743 -0.0036405162 0.006223689 -0.0067363568 0.0079672765 -6.318527e-05 0.002767907 0.0030181946 -0.00023484594 0.0016528104 -0.0032102219 0.004818528 0.00036898244 -0.0032390037 -0.008909283 -0.009962429 0.00032706704 -0.0057303403 -0.0010106482 -0.004264248 -0.00883995 0.0010986037 0.0060334653 -0.0021463456 -0.007391655 0.0032298053 -0.0004988462 -0.0054943487 -0.0009637501 -0.00060465885 -0.0030842747 -0.00993151 0.00762481 0.0037935313 -0.0026995358 0.0073988717 0.0003817296 0.007212581 -0.0017131473 0.007656807 -0.0001642342 -0.0061019696 -0.004706179 0.009719724 0.00074458733 0.0009687306 0.00861136 -0.0061562182 -0.0017647481 -0.008222747 -0.006475362 -0.008541566 0.003992053 0.002663115 0.005648975 0.0025507133
thanks 0.0020411473 0.0061626355 -0.0019036969 0.0031320371 0.008813831 -0.0002468424 0.0068222014 -0.0059323325 0.0059508616 0.0042650485 0.0049752197 -0.010678292 -0.00038512496 0.003435281 -0.0058656195 -0.007141002 0.006339314 -0.007234229 -0.0052875318 0.007321846 -0.006757092 0.008850375 0.0009673311 0.004180351 -0.0033849895 -0.0054364554 -0.009226183 -0.0008820919 -0.005502889 -0.0031059794 0.008533179 -0.007968589 -0.006062751 -0.005704204 -0.007058237 -0.0086654425 -0.001231185 0.0092482995 0.008015565 -0.0064350185 -0.008011286 -0.0027828007 -0.009136159 -0.0052311146 -0.0056591914 0.0029169621 -0.007793921 0.0008335223 0.002287578 0.005317985 -0.0017893295 -0.010281133 0.0053713243 -0.006199902 0.0047588507 0.0020795972 0.009029432 0.0016438832 -0.0022350631 0.0070013953 -0.00696779 -0.008293874 0.00408534 -0.0026959754 -0.004667059 -0.0017613792 -0.009487791 0.0006040418 -0.0016672523 -0.0024507164 0.0020436924 0.004854601 0.006902573 -0.0078465175 -0.004408069 -0.008497376 -0.009056765 -0.0035593207 -0.0019175421 -0.008274086 -0.00555528 -0.0017867818 0.0057989974 0.0019963111 0.00798407 -0.008355533 -0.0045306664 -0.000560401 0.009362469 0.00076502474 0.0021687914 0.001810742 0.0029747654 -0.009374932 0.0039572474 0.0058490355 0.0054611303 0.0040588016 -0.0077205338 -0.004176644
service 0.008359835 -0.00015876177 -0.009375043 0.0047371727 -0.0057367673 0.006152694 0.0060275923 -0.004169451 0.0022055276 0.004908788 -0.003827724 -0.002023677 0.009123414 0.009095918 -0.009322492 0.0071896994 0.009894779 -0.003231272 0.0020676348 -0.0037286545 0.008761666 -0.0004624173 0.0058516455 0.009038314 0.0037107666 -0.0074363304 -0.0023293516 0.0006731575 0.0017471432 0.0031405396 0.009931357 0.004099061 0.01006287 -0.009162894 -0.006242466 0.00259581 0.003692225 -0.0012810968 -0.0069956547 -0.0042372583 -0.008428178 0.009008915 0.0035545263 -0.008045802 0.0035750882 0.004005409 -0.005927781 -0.006337303 0.0013398494 0.009274277 -0.009413157 -0.00081431353 -0.006621713 -0.0008875622 0.0025882258 -0.00451401 -0.0025216683 0.00072432467 -0.007105936 0.007893234 0.0044692056 -0.008489268 -0.001834141 0.0029454927 -0.008931042 -0.0067479555 -0.008106233 -0.005167267 0.008206361 0.0075248233 0.0025891685 -0.008222751 0.006267561 0.0047776634 0.00052981626 -0.008708028 -0.00206414 0.00041961373 -0.008202951 0.0024677773 0.00023797805 -0.006933941 -0.008969191 0.006433454 -0.008742003 -0.005572018 0.0057567577 -0.00024658977 -0.0022537555 -0.0053144363 -0.0004714713 0.005929106 -0.0060627013 -0.0049993526 -0.0042890334 -0.004691902 -0.0077654626 -0.010308653 0.0078102155 0.007933205
director -0.0042854818 -0.009270138 -0.0018842972 -0.0037258696 0.009205414 0.0027766468 -0.0058229086 -0.0031679166 -0.010060225 0.0018703269 -0.0040048505 -0.002898376 0.0051601916 0.0076977643 0.0043583214 -0.006938204 0.0066856435 -0.009718032 -0.0070294123 -0.008275571 -0.002220262 0.0005264428 -0.0036842218 0.0017546865 0.009169893 0.0066104336 -0.0011068579 0.009054992 0.0014349048 -0.0019716378 -0.0064080413 0.006481452 -0.008988202 -0.0019894002 0.0075967917 -0.0025407232 0.0015312737 -0.0073713115 0.0049377484 0.00707349 -0.009216871 -0.003415216 0.0079283165 0.0028889417 0.00014962925 0.00033362382 -0.009950771 0.00984159 -0.0019533283 -0.0048616887 0.0028732417 0.0008921016 -0.005877914 0.005758744 -0.0026154711 -0.0061232257 0.0073107006 0.006444688 0.008717086 0.001263516 0.000580101 -0.0079034185 0.0047533065 0.009326013 -0.0008784359 -0.0017176063 -0.0037364122 -0.00040384388 -0.007825974 0.005799054 0.0013196615 0.009380122 -0.006319005 -0.0050831256 -0.0060681235 -0.007247172 0.002806704 0.0049155955 0.0011643715 0.0035470396 -0.009482273 -0.0009911598 -0.007888067 0.003113225 -0.0027566813 0.008852431 -0.0034272186 0.006897365 0.0042777443 0.0012920542 0.00010372855 0.008295423 0.0023626857 0.008294603 0.0035117082 0.0055084466 0.00515544 -0.0077264365 -0.0057641147 0.0012764507
grade 0.0001987202 0.0023730611 0.0009941763 0.0074138767 -0.004186503 6.563273e-07 0.007273039 0.002719075 0.004008153 0.0040126415 -0.0013931061 -0.008823295 0.002975897 -0.008773235 -0.0026014121 -0.0096687535 -0.0004815935 -0.008066586 0.0074478555 -0.0053928955 0.010165029 -0.009065693 -0.004039366 0.0017471954 -0.003170082 0.0014018173 -0.003836624 -0.0011128364 -0.0060608415 -0.009888355 0.006682401 0.00030367725 0.0066303997 -0.0077314647 0.0035269253 -0.009751664 0.0074929185 0.005875091 -0.00623231 0.0077785733 -0.005380902 -0.0088874195 0.0015289879 0.003131489 -0.007918889 -0.008976649 0.009115001 0.0013506234 0.0009310994 0.0025296875 -0.0032847333 0.0015060367 0.0020723965 0.009739896 -0.005627722 0.002341283 0.0065537803 -0.006700704 -0.009204983 0.00883167 0.006820069 -0.0039245742 0.0057956483 0.0007620327 -0.005378836 -0.0011376942 -0.004678277 0.006293644 0.0015743063 -0.008016457 -0.00034989163 -0.0025638319 0.0069352603 -0.0010420298 0.008052665 0.0019922864 -0.003777507 0.008314313 0.002683121 -0.0038593912 -0.0058298614 -0.0030076304 -0.005421149 0.0036469547 -0.009487733 -0.005948453 0.003475518 0.0004299256 0.006277145 -0.0038389678 0.00041784716 0.0027760386 0.005499693 0.0016200885 0.010126975 0.0039656092 -0.007055035 -0.0015796056 -0.008346707 -0.005265591
academic -0.0021951972 -0.0095764985 0.009378576 0.0020029328 -0.0010585024 -0.0058091204 -0.008257745 -0.00954263 0.008668849 -0.0027128337 0.004513925 -0.0048001045 0.009932983 0.003770404 0.0010779026 -0.0041506123 0.0011710512 -0.0028341517 0.0072888685 0.0041127903 0.0011317363 0.0035089466 0.003974395 -0.006967591 0.008868413 0.0016716421 -0.00597356 0.008551649 -0.0015268895 0.008173557 -0.0012840639 0.0069355434 0.0029162997 -0.004535926 -0.0038980467 0.009395747 0.0014990823 -0.0061319615 0.00023895402 -0.0023788302 0.0017373689 -0.00792237 0.007396773 0.0011885785 0.00809925 0.004436472 -0.0045007225 0.0035510715 -0.00054981385 -0.009762836 0.008433378 0.009411486 0.009630624 -0.0038720155 -0.008547314 0.004955858 -0.00751905 0.008627013 0.0025331255 0.005733228 0.0061448887 0.00059952977 -0.002014154 0.00068050565 0.009569961 -0.007038589 -0.0013355814 -0.002176685 0.004494856 0.006654129 -0.004327609 0.003669848 -0.0043000686 0.0033456718 0.008407746 0.0036840637 -0.0045611793 -0.0029591678 0.0076891743 0.00974225 0.0057227556 -0.003212054 -0.002092735 -0.005977687 -0.004468705 0.0033141281 -0.006461368 -0.0065098223 0.008324155 0.009376141 0.008422655 0.0017051991 -0.008833024 -0.007653725 0.0018671172 -0.009358921 -0.0073095686 0.0018438025 -0.002782207 -0.009233015
program 0.0063576726 -0.008830566 -0.007297092 -0.001820393 0.0018127662 -0.0013824615 -0.0048693265 0.00702278 0.008563518 -0.007676101 0.009834027 0.0070941537 -0.0075564682 -0.0018232992 0.0042984053 0.006880983 -0.0035996414 -0.0072924476 0.004659608 -0.009552459 -0.00573817 -0.001237662 0.0057429103 -0.0058936067 0.0046670195 -0.00048098335 0.002490263 0.0062164334 0.0011963414 0.007697917 -0.00010116617 -0.008334584 0.009332155 -0.005073605 0.004492216 -0.0037377249 -0.007425654 -0.0067262603 0.0045345775 -0.0011616992 0.0016343158 -0.009191838 -0.005181207 -0.006169426 0.008668334 -0.008773101 0.004822926 -0.0011714584 0.00029119122 0.008878003 -0.0034106683 -0.0073133507 0.0007856196 0.0077032377 0.008972181 -0.00360489 0.0029186069 0.004997038 -0.005577418 0.0071044103 -0.0065179765 0.0021558926 0.004766887 0.004239462 -0.0049404665 0.0028238578 0.0075006564 0.008823958 -0.00996555 0.0058150343 0.004752605 -0.0014438089 0.009409153 -0.0041255085 -0.001435539 -0.0069040917 -0.0037379025 0.00027686256 -0.0036544036 -0.0053101736 0.0064245514 -0.0052272254 -0.0066229263 0.007870146 0.009508768 0.00396462 9.244285e-05 0.00093028555 -0.0007326491 0.006712521 -0.005936505 0.00077271764 0.0042064665 -0.0021199507 0.0013298551 0.003915915 0.009909431 0.001960033 0.009602901 -0.0058020954
considered 0.0046668453 -0.003539334 -0.004281213 0.0011112738 -0.004081289 -0.005835748 0.003363618 0.008635115 -0.006703652 -0.0092828525 -0.003330717 0.0073639667 -0.009764387 0.009611617 -0.0004173974 0.0021428748 -0.0018848602 -0.0059199673 0.003032312 0.0059151123 -0.006997013 -0.0011424659 0.0016623575 0.0042588175 0.0070030624 -0.0035063773 0.007214149 -0.0057190503 -0.0022365 0.009132532 0.0055069393 -0.008575573 -0.0016300669 -0.00897137 -0.0016946921 0.0058350144 -0.0074071763 0.005422933 0.0061194766 -0.004134796 -0.009570078 -0.0027101105 -0.002560671 0.0037256188 0.009058526 0.0019592617 -0.0021982596 0.0029065674 -0.0067471983 -0.0012655127 -0.0013727898 0.009480767 -0.005758913 -0.007034826 0.0022640415 0.0027453033 -0.0070069917 -0.0058406154 -0.0013738234 -0.0031916292 -0.008917382 -0.0040393425 -0.002873885 0.0063687842 0.0008292216 0.0016450064 0.0003859387 -0.0032361888 0.002804124 0.0008303656 0.0059061847 -0.00071740005 -0.008756962 0.0009871764 0.010046434 -0.005185823 -0.0052837 -0.0024718726 0.008360261 -0.0007422606 0.009428194 -0.00831736 0.008943311 -0.009651187 0.009127644 0.0018918753 0.0026233175 -0.0057366807 0.008581682 0.005955478 -0.0052618994 -0.009327978 0.0069062663 -0.0055025304 -0.009018221 0.0027312178 -0.0048615104 -0.0075312685 0.009833646 -0.0016065367
agriculture -0.001546858 -0.0040163826 -0.0043986975 -0.0046229167 -0.005608511 -0.005378293 -0.008006752 0.009611172 0.0063648527 -0.0036570039 0.002490446 -0.007706088 0.0075349705 0.008344669 0.0007991046 -0.0068462878 -0.0029325816 0.004716736 -0.0029336393 0.0031208263 0.009419192 0.004372583 -0.0051205866 0.005456835 -0.0028861463 -0.00638405 0.0069969385 -0.009268028 -0.0011475473 -0.0013902315 -0.008405274 -0.001127148 0.0056042164 -0.0053085187 -0.0070635737 0.00620813 -0.0034206337 -0.007854941 0.00030312836 -0.00011296693 0.0076087792 0.00053740706 0.007875922 -0.009847144 0.0040676943 0.0062225997 0.0009827887 -0.0028609622 0.0010445267 -0.0008594023 -0.008081458 -0.006821984 0.0012188653 -0.0020048432 0.0095402375 -0.0009255706 0.006159983 0.002043474 0.008099381 -0.009263148 0.0024047743 -0.0014766518 0.0021912935 -0.00021792264 -0.0066767996 0.009092814 -0.0028166547 0.0019497956 -0.00648786 0.0037646175 0.009983582 -0.0011658922 0.006617707 -0.00011788013 0.0079945065 0.009691029 -0.00037581052 -0.0016809396 -0.009566962 0.009871083 -0.0025569778 0.002202818 -0.0016873837 0.00837549 0.008327118 0.0015411484 0.0028975178 0.0064693303 0.002283245 0.006436465 0.00018226723 -0.0022538877 0.005291505 -0.0034147422 -0.002563543 0.008853182 -0.009153227 -0.0034412132 -0.002921296 0.0057013347
management 0.007850452 -0.006408964 0.005803707 -0.00026013676 -0.009007261 -0.0026153782 -0.0015213591 -0.0043781754 -0.00095226744 -0.0053990125 0.0060105585 0.009188274 -0.001585349 0.003458037 -0.00078214443 -0.0008642171 -0.007087796 0.0013966735 0.003990716 0.0067873797 0.0066032684 0.0035119648 0.0047942507 -0.007526515 -0.0014753051 -0.0058411537 0.0067946026 0.007753192 -0.0043355655 0.0011413855 0.005228361 0.0017648999 0.0008522707 -0.0068439543 0.00982026 -0.0071919025 -0.0061284425 -0.0057021673 -0.006378247 -0.0038479713 -0.009357581 0.0010897712 -0.0036911159 -0.0026126683 0.00585489 0.003537327 0.0017816122 -0.0015278006 0.0099504525 0.00024190846 0.005174496 0.009026143 -0.009768546 -0.009151525 0.009932209 0.002845472 -0.0017920289 0.004764222 -0.004488352 -0.0063851685 -0.008269254 0.007286965 -0.0024331976 -0.007682507 -0.006153602 0.0061956365 -0.0023808526 -0.0060899546 -0.0018400392 -0.0013200501 -0.0033795899 -0.002094699 0.00426529 0.0015263328 -0.0033582519 0.002807306 0.005231068 -0.009135772 -0.007796165 0.006378738 -0.009073472 0.00059447467 -0.009093739 0.008532365 -0.004434422 -0.0066363844 -0.0014640522 -0.0010988059 0.0077708643 0.009060274 -0.00021199092 0.00282329 0.0047252006 0.00020705718 -0.0055984682 -0.00047315488 0.0021838231 0.008249801 -0.0035914727 -0.009880029
medicine 0.005372997 0.009823666 -0.0070368517 -0.000570554 -0.0050630113 0.0064165345 0.009666806 -0.0003115263 0.005121859 0.0065504066 0.004415454 -0.008063755 0.0030898931 -0.001467629 -0.002166679 0.005381572 -0.0013157846 0.009913458 -0.00062202604 0.0002745751 -0.0022933153 -0.00849473 -0.009818269 0.0049391403 -0.006624419 0.0029623555 0.0027708437 -0.0069924863 -0.0031456694 -0.0058394517 -0.008538923 3.0039999e-05 0.0097868405 -0.006685414 -0.0043588975 0.008312513 0.009299168 0.009812404 -0.009879212 0.0050386195 -0.0066535114 0.0068705943 0.0061396128 -0.003379723 0.006889992 -0.007872198 0.0045428597 0.00458747 0.005933986 0.0058796927 -0.0026660087 0.0038930005 -0.0061125103 -0.0064557292 0.0027431175 -0.009486604 -0.00028814262 0.0010873348 0.008020081 -0.0069895745 -0.0023288515 -0.004092074 -0.005210712 -0.00047825347 0.0045977933 -0.0049761054 -0.0016590711 0.008677871 -0.0013391515 -0.0035688137 0.0074129775 0.0012563166 -0.00032471254 0.009443328 0.008150211 0.003401011 0.0033471314 -0.0022727507 0.008083217 0.005038308 -0.005471757 -0.006120452 -0.00063645595 -0.007908562 0.0033800567 -0.009250083 -0.0015428086 0.0033468902 0.003062277 0.0031617917 -0.009067758 0.0034222228 0.005335703 0.0034848785 0.0078034843 0.0016761399 0.0062821694 0.008837245 -0.00094466953 -0.00079869374
law 0.0022051067 -0.007524011 0.0056378986 -0.005003881 -0.003274566 -0.0018407694 0.008221285 0.002256616 -0.00090490776 -0.0028452936 -0.0021078726 -0.0013047437 -0.005073294 -0.0041188328 0.00018576068 0.0045428043 0.0017903242 0.006918073 0.0006415379 -0.0032178944 -0.007375937 0.0060065137 0.006968562 -0.0060533327 0.0047010463 0.009499538 -0.0063773035 -0.0028762214 -0.009095332 0.0032256807 -0.0034474935 0.002033758 0.009452245 -0.008356673 -0.00931928 0.0017132366 -0.008036374 -0.009063821 -0.009344939 -0.00030026722 -0.0011125074 0.00074151607 -0.0013435972 0.009026899 0.008795037 -0.0063636317 0.00870449 -0.00902144 -0.0013292541 0.0025387304 -0.00012262898 -0.003809201 0.00046876632 0.0010017854 -0.009399244 -0.004884171 -0.007697546 0.0038065934 -0.00087012735 -0.007480246 0.0056393445 0.0002302281 0.0027103708 0.0054311585 -0.0042432165 0.007849826 -0.007864104 -0.0034304776 -0.0073802522 0.0009765726 -0.0073897284 0.009059745 0.0055567394 -0.007230234 0.0061766356 0.0066107535 -0.007419693 0.0046467236 -0.0077326237 0.009317144 0.0046710814 -0.0002301361 -0.008950341 -0.00088108197 -0.0002661852 0.0008873472 0.008660143 -0.0027801862 -0.0086680185 -0.008832443 -0.0010541106 0.0013688871 0.00010421198 -0.0022067954 0.008567549 0.00012161101 0.0064125736 0.003985587 -0.0072022066 -0.0021411574
business -0.007838897 -0.006731977 -0.0031181732 0.006622631 -0.0008476767 0.008752264 -0.0022078007 -0.0052001793 0.003702109 0.0021277538 -0.00024789653 -0.0025936225 -0.0060328627 0.004119891 -0.007675184 -0.009083008 -0.009193308 0.008355546 0.004002624 0.006892141 0.009967189 -0.0072974754 0.00410123 0.0027654783 0.0060825334 -0.003428435 0.009318801 -0.0058806683 0.0069851414 0.0069248164 -0.00030688004 0.0051020645 0.0067209997 0.001441144 0.0073666833 0.0024872746 -0.0015532414 0.0074110986 0.0046473276 -0.0034158286 0.0016955759 -0.0002661574 0.004966081 -0.00544144 -0.0041215736 -0.0009864997 0.003881626 -0.006765982 0.007915126 -0.003093658 0.005816127 0.0028250404 0.0068649575 -0.0044595455 -0.0032497821 0.0031508207 -0.002770979 0.005943833 -0.006077334 0.0026835776 -0.00069318083 -0.0005702833 0.0026013728 -0.0022024224 -0.0044710385 -0.008547084 0.002559672 0.005432297 -0.006020599 0.009258049 0.003928573 -0.0051611657 -0.0012182741 0.0039619245 -0.0069071646 0.0021616593 0.0054688444 0.0063636447 0.005260724 0.0037020934 -0.002835348 -0.006037005 0.0080974335 -0.007169173 -0.001706363 -0.003242474 0.006508902 -0.006262566 0.0035918856 0.0019947956 -0.004034163 -0.008221241 -0.008070518 0.003540035 -0.009434322 0.0057985913 -0.0029155351 -0.009290057 -0.005101451 0.0077780806
economics -0.0017631119 0.006436557 -0.009250654 -0.00914086 -0.0052460083 0.0008306329 -0.00709942 -0.009350525 -0.009126001 -0.00057785696 0.007477616 -0.0085500805 -0.0053803227 0.0016297516 0.00330572 -0.008602132 0.007839385 -0.008256439 0.0047894237 0.009262694 0.005784641 0.006158279 0.00832804 0.0034325384 -0.0071862843 0.005748061 -0.008355202 -0.005805666 0.0058609964 -0.007967525 -0.005795014 -0.0035529253 0.0034378765 0.005138803 0.0020420128 0.0051513813 -0.002658488 0.004350127 -0.0070740017 -0.0019199438 -0.0077067846 2.8620285e-05 0.0047180783 0.0047908686 -0.004605856 0.0017584475 0.007821977 -0.00571786 -0.0037297544 -0.00062846893 -0.004623515 0.008681882 0.007605456 0.00920532 0.009393685 -0.008422067 -0.00043461463 -0.007589043 -0.004959864 -0.008798653 0.0034013784 0.00017343523 -0.0068947114 0.007893047 0.0007926509 0.00034126185 -0.0034842175 -0.0032500247 -0.002793862 0.007759772 0.0022864575 -0.005170462 0.00484116 0.001030205 -0.0026622207 0.007844334 -0.0039830483 0.0075523625 -0.0043651992 -0.0073056133 -0.004572083 -0.0038531325 -0.0007576528 -0.0017052988 0.005044087 0.005462038 -0.0017235575 0.0037495086 -0.0018527956 0.0006873632 -0.0013177554 -0.0024254164 -0.0047806627 -0.004247875 0.000260224 0.0017695789 -0.009454198 0.005977953 -0.001645788 -0.0029420084
philosophy -0.004778209 -0.0043176454 -0.0048015844 -0.009819053 -0.0007671213 -0.007878374 -0.0047869296 -0.0073221815 0.009914149 -0.001392682 -0.007767984 0.005485059 -0.008057804 -0.0018517544 0.0027325456 -0.007114934 -0.008760222 -0.0066712997 0.0075031905 0.009003221 0.004024351 0.0024238424 0.004169376 -0.0041357777 0.009803013 0.006907507 0.0040960605 0.008931433 -0.00845871 0.0009200705 0.008928176 -0.00092919864 -0.00672197 -0.0022986794 -0.002824871 -0.002487443 -0.0018883505 0.007279553 -0.00035226153 0.004162313 -0.003724073 0.008214161 -0.0064821457 -0.0094007095 -0.0041077533 -0.007406714 -0.0049228715 0.00044273742 0.0024293265 0.0017302886 0.00504067 -0.0014136665 0.0022614172 0.00033922883 0.007851311 0.008033868 -0.001971222 0.0012373304 -0.0060612326 -0.0047711213 -0.006949416 2.1274532e-06 -0.0049124653 -0.0040462916 0.0014493515 0.0026420862 -0.009111267 0.0017753753 0.00505891 0.0042356704 -0.0029445873 0.009520076 0.009490934 -4.7936774e-05 0.00092820433 -0.009219529 -0.004798572 -8.7398184e-05 0.003973843 0.00020688548 -0.008761039 0.005824137 -0.007461594 0.00863678 0.005517868 -0.0067796665 0.002857089 0.007774626 -0.006083294 -0.006598754 0.009271191 0.0018285218 0.009715605 -0.009913455 -0.0014723686 0.006951692 -0.0014666858 -0.0017721826 -0.007085813 -0.005637433
social -0.0065122144 0.008964742 -0.001600674 -0.008298596 0.008025157 -0.0030527655 -0.0012934394 -0.0006163125 0.0027896932 -0.004781402 -0.00028592994 -0.0029217957 0.008795187 0.0069391145 0.001074173 -0.0061627435 0.0031065925 0.0011542257 -0.0060963747 -0.005833747 -0.0030890994 0.0023642231 -0.008100009 -0.0050097066 0.008100363 -0.0036963467 0.0079669785 0.0005066486 -0.005579461 -0.004951065 -0.0001697765 0.004596737 -0.0060451827 -0.00557234 -0.0068779388 0.0067609292 -0.0024130223 0.0040401164 -0.0016603414 -0.007592123 -0.0012669788 0.00037453423 0.0036100592 -0.0087155495 -0.0067719226 -0.006597249 0.0029714282 -0.0038289232 0.0010778863 0.004130441 0.0045571416 0.0023268943 -0.0028491116 0.00061691296 -0.0054166643 -0.0063478067 0.008737161 -0.004054486 -0.009378523 0.0037488784 0.008496584 -0.00021051374 0.0023092309 -0.0035517826 -0.0042846696 -0.008601597 -0.007841815 -0.009042539 -0.00610542 0.008539533 0.009381024 -0.001630983 8.9160036e-05 0.007843946 0.0013369037 -0.0050858795 0.0026316126 0.0018530969 -0.0038455517 -0.0048859674 0.00958131 0.0076883794 -0.008635122 -0.0054651527 0.0013839859 0.000857462 -0.008346876 0.009405918 -0.005313337 0.0045885146 0.009322385 0.0011282935 0.004249807 -0.002730492 -0.009594332 0.0006245593 -0.0010757155 -0.009933175 0.007035873 -0.00737621
industrial 0.005100647 -0.004391178 -0.009252761 -0.009134931 0.006199983 -0.005366647 0.0053245216 -0.0015361301 0.0097351335 0.0071750763 0.009941734 0.008366072 -0.007913409 -0.009628106 -0.00558912 -0.00087956805 0.005033153 0.0036993755 -0.0020316907 0.0050057974 -0.0034284433 -0.006942378 0.0047746673 -0.009907431 0.00091340503 -0.0050662146 0.0076463996 -0.0037566132 0.0028182254 -0.0063013835 0.009726505 -0.0056644743 0.0037184278 0.0031889111 0.008950311 -0.005566426 -0.004408934 -0.00623689 0.0061793267 -0.0048026363 0.0048820027 -0.00094547746 0.0072903265 -0.006105683 -4.636152e-06 -0.00012857167 -0.008630686 0.008807149 -0.0020929293 0.0064820074 0.00014752022 0.005034694 0.002276183 0.008940199 -0.008435014 0.008502772 0.008735737 0.0010217157 0.0044097677 0.00381329 0.0041238754 -0.0030021972 0.002928174 0.0006918159 0.004789523 0.008548708 -0.0077064172 0.00023257326 -0.008916332 -0.0015597984 -0.009144645 0.003256176 -0.0015253624 -0.0006446485 0.0065551605 -0.0080822855 0.0011192492 -0.0024428437 -0.0038440952 -0.0073308353 -0.008117663 0.008335736 -0.007531368 0.00493655 -0.0038547195 -0.0012591393 0.0028356377 -0.008646505 -0.005616013 -0.0077657243 -0.009420652 -0.0047575724 -0.003183885 0.00045413862 -0.00061090285 -0.0079066325 -0.0038046483 -0.0027659084 -0.0063769175 -0.006464753
architecture -0.0026053875 -0.007913686 -0.00825603 -0.0075883027 0.003580816 -0.007649314 -0.003680991 0.006684685 0.007336995 -0.0064307186 0.0067994217 -0.007848574 0.00012938958 0.0066462415 -0.0028470408 0.0091939205 -0.0003203497 0.004694328 0.0069590607 -0.008622332 -0.006060328 -0.00732481 -0.0011634324 -0.0071640424 0.00010093556 -0.00806451 0.00055651483 -0.00043376148 0.006425728 -0.0089260265 -0.0031376467 0.005915766 0.009261288 -0.0018295003 0.0007506976 -0.006110315 0.00078833714 -0.008138353 -0.0076470803 0.0013176033 -7.40291e-06 0.00548637 -0.009741808 0.0016716059 0.0016189464 -0.0052814665 7.227501e-05 0.0060158432 -0.006581955 0.00029347625 0.0039219926 0.0017165927 0.0028517537 0.0081462795 0.006646799 0.0035016323 0.008022489 -0.0077036326 0.0075132125 0.003932342 -0.0058915545 -0.0041639656 0.0064213695 0.0057664732 -0.009945622 0.001269158 -0.00035716535 0.0008489805 0.0070163077 -0.0071383812 0.00962196 -0.009443482 0.0062299147 0.009534532 -0.0037488455 -0.009378989 0.006214727 -0.008969202 -0.008355044 -0.00080498646 -0.0066900705 0.008796401 0.007843521 0.00088836445 0.00796319 0.009812182 0.005202576 0.0043345024 0.0054161325 0.0063957325 0.0047367336 0.006405968 -0.0074412185 0.008905922 0.008331484 0.009458271 -0.0090027 -0.0034566494 -0.00035827525 0.0042090346
gubat -0.008241634 0.00021857541 0.0060175452 0.0096040005 -0.0028440696 0.0017414297 0.0063885776 -0.0018907872 0.0019127541 -0.009366741 0.0006825677 0.00454145 0.0045062117 -0.009769119 -0.0051204986 0.0029303138 0.0016364435 -0.00475315 0.0057903333 0.0034513643 -0.0077901524 0.009859868 -0.007677491 -0.0030461603 0.009741761 0.0010816997 -0.0056236405 0.0011201699 -0.0041263564 -0.0067658564 -0.0077003795 0.0047409246 -0.008992961 0.004049694 -0.0056095985 0.0054768175 -0.004361743 -0.005657801 0.0063141817 -0.008738901 0.0013366414 -0.0021267608 -0.0066645294 -0.0076756706 0.0067856265 -0.004438442 0.004550584 -0.009685282 0.001877636 -0.0019400647 -0.005886512 -0.0029119374 -0.008707654 -0.00353234 -0.0025745241 -0.0022783233 -0.005091065 -0.009209467 0.0052998997 -0.0012559328 0.0061955047 0.0030989428 0.008683533 -0.0035433574 -0.008975797 0.0013895785 -0.008949202 0.0060765925 0.0083752265 0.0005748241 0.0077128946 0.008555037 0.004232486 0.0054269466 0.009178116 0.0011440131 -0.00827386 -0.008345637 -0.0018714631 -0.00063993025 0.008827107 -0.009303754 -0.0026312708 0.009218708 -0.0014579576 -0.00908422 0.0020277502 -0.005848801 -0.0054358575 -0.0063691186 0.00021041036 0.007302467 0.0040900987 0.008172774 0.008974782 0.00451211 -0.0060492926 0.007024665 -0.009507669 -0.0048375186
polangui 0.007944958 0.00797438 -0.0054037794 -0.007954238 0.008080351 -0.0038771087 -0.0039755786 0.0072948057 0.0053631957 0.00376604 -0.001247655 0.008591544 0.008450694 0.0069641 0.009081063 -0.005838021 0.0010344074 -0.0017035389 0.0063092224 0.009741109 0.0051742643 0.004105149 0.0065634116 0.005869081 9.7614145e-05 -0.008379523 -0.002247487 0.009047375 -0.005110854 0.0009742009 0.0049146926 -0.006958761 0.008180462 0.001450902 0.0023549432 0.008372996 0.0014710552 0.00083605613 -0.009413781 0.009734449 -0.009869695 0.008511131 0.0050701704 -7.5670134e-05 -0.007838585 0.009379981 -0.001424286 0.005286314 -0.0030332932 -0.004892022 0.00019030404 -0.008147684 -0.006636547 -0.009489416 0.0053691613 0.00043661907 -0.0009006705 0.005105394 -0.0020241158 -0.007343681 0.0028744068 -0.005969809 0.0005913507 0.009424798 -0.0010246008 0.006208884 0.004476969 -0.0034965286 -0.0052785585 0.00891762 0.0021007876 -0.00041513276 0.0009746331 -0.0049121287 0.003577285 -0.003096051 0.004171841 -0.004556347 -0.0008497808 0.0038786721 -0.007164088 -0.0025187463 -0.008741833 0.0015912473 0.0020151453 0.002393128 0.0011068551 9.322106e-05 0.0022471067 -0.0009824495 0.005962969 -0.002892951 -0.00509222 -0.0053299232 -0.009537399 -0.008105576 0.0021272257 0.003940532 -0.0057610157 -0.009716098
forestry -0.00623227 0.004744451 -0.0090691205 0.0050971797 0.0063370657 0.0060451413 -0.0075594685 0.0029173938 -0.005531524 0.009005285 -0.004335785 -0.0024501332 0.0052375356 -0.00081775215 0.0050849854 -0.0042714966 0.0049704886 -0.009839017 0.006092252 -0.0013107623 -0.005620633 -1.462693e-05 -0.0012042747 -0.00073600345 -0.0017884217 -0.009323295 -0.0078631025 -0.0068229013 -0.0086900415 -0.004555811 0.009223412 -0.001874285 -0.0075724483 -0.00594678 0.0035816266 -0.0026732213 -0.001539015 -0.004245874 0.005994208 -0.007967717 -0.007505645 0.007496599 -0.006982636 0.002143119 0.00039794887 0.0096679665 0.004196353 0.0020531772 0.0027909928 0.002327272 0.0022239522 -0.0027955857 0.00412274 0.00609925 0.008937479 -0.00067630876 -0.0012013041 0.0064855455 -0.0084882835 -0.00059735344 -0.006657152 0.0047783274 -0.008905881 0.0032324689 0.008962636 -0.0020485646 -0.008809525 -0.008129285 0.0032014246 -0.0052893837 0.006429108 -0.0011509638 0.007939954 -0.00050122093 -0.0061815297 -0.0056690276 0.00073174137 -0.004779001 0.006515093 -0.0035464584 -0.0056675184 0.00097416656 -0.004911778 -0.008160801 -0.0052980874 -0.0018797402 0.0004177375 0.0036550127 0.006950282 0.006707841 0.0059233354 0.00036404605 -0.005850234 0.0090322 -0.0005543462 0.004725594 -0.0014140387 0.0057791583 0.005338192 -0.0073408
engineering -0.0028154738 0.00012238332 0.0020877186 -0.009260802 0.004786413 0.0033291355 -0.000110192566 -0.0034393484 -0.0076588425 0.007547946 -0.008598503 -0.007434077 0.0044373907 -0.008510794 -0.0033042417 -0.0021474345 -0.0018968845 -0.0068482542 0.0042952225 0.0009826549 0.003638675 -0.001314574 0.00691997 -0.009561504 0.005846229 -0.0051727714 0.001697358 -0.0069877887 -0.0024946053 -0.006458859 -0.0033422352 0.009707217 0.0027019656 0.0016058275 -0.0061023147 0.005594752 -0.00811848 -0.0023107608 -0.00643755 -0.0064626504 0.002310165 -0.0033296554 0.0024313037 0.0039171525 -0.006227609 -0.0017304915 -0.0027639314 -0.009825182 -0.009821723 0.0011151118 0.004366848 0.00020247232 -0.0048656366 0.0036361984 0.0016816087 -0.009394919 0.007196604 0.007751125 -0.0077317497 -0.0007327388 0.006054659 -0.0027760745 -0.0002628508 -0.0043055015 0.006070808 0.007028289 0.0021148091 -0.004674739 -0.0018464333 -0.003973916 -0.009742928 0.007840305 -0.00056198344 -0.0005876831 0.0071162493 -0.008995326 0.0063059744 -0.0075639426 -0.00540618 0.0050720107 -0.003500182 -0.0034440886 -0.006294977 -0.0038784218 -0.0026658003 -0.0041191145 0.009457736 0.009439225 -0.0003505885 -0.0002911929 -0.0056909663 0.0079282075 -0.0049450817 0.005891341 0.009204007 0.005782079 -0.0009390465 0.005509308 0.006973622 -0.0038979568
technology 0.0006492015 0.0065510087 0.0059677083 -0.00019120419 0.0024007135 -0.006638446 -0.009376649 -0.0048876246 -0.005470857 0.00053823774 -0.0039919973 -0.00046135683 0.0076323794 0.009831476 0.007916665 0.0023634236 -0.00269889 0.0023923712 -0.0026997807 -0.009121283 0.0070139486 -0.008705147 0.0038723338 -0.0039594322 -0.005562866 -0.0010499803 -0.006657583 0.008658704 -0.00696611 -0.008974515 0.005892697 0.0044792825 0.00483714 0.002366595 -0.0038151979 -0.005125259 0.0017785911 0.008362101 -0.005692302 -0.0025504278 0.0018801492 0.0066540316 -0.0064305044 -0.0046017645 -0.0026365018 0.0013571777 0.005352332 0.005583949 -0.00876821 0.0073818183 -0.0025047148 -0.0029124916 -0.008911455 -0.005831789 0.009513729 0.003120095 -0.008061735 0.0028179677 -0.007167982 -0.009096709 0.0038541958 0.0020357973 0.0012868668 0.008853108 0.0062039425 -0.0050273854 0.002820612 0.00262377 0.002316513 0.008468005 -0.0070569143 -0.002287227 0.0010604213 0.006385699 -0.0005787592 0.007992492 -0.004692487 -0.009036587 -0.007164128 -0.004176117 0.00957901 -0.005161104 -0.0049806465 0.008384906 -0.0075648213 0.0020561593 0.005749231 -0.0076193395 -0.00019905582 -0.0024293938 0.005654775 -0.0045819576 -0.006651075 0.0099118175 -0.004560024 0.0076953783 -0.008519116 0.0070840046 -0.0033849594 -0.007875307
tabaco -0.001140644 -0.0023636308 -0.001790826 -0.0011362844 -0.006498978 -0.0035925286 -0.0031607265 0.0077952733 0.0058369124 -0.00090217846 -0.0048577012 0.005255677 -0.008857377 0.0016274634 0.004009012 -0.0019427349 -0.00448799 -0.008244916 -0.0082969 0.0071165008 0.0036795207 -0.0003542671 0.009734045 -0.008589233 0.0006411355 -0.0004780364 -0.008124666 -0.00909021 0.0071608624 -0.0036547538 -0.007876443 0.007996154 -0.0062351874 -0.0031002394 0.0017376872 -0.0033111807 -0.007955857 -0.003990716 -0.009029502 0.0014013228 -0.0046087676 -7.065333e-05 0.0027421678 -0.0023962834 0.008821581 0.007083984 -0.000553304 -0.00067013886 0.0008524707 0.006761546 0.008942541 -0.0020044537 -0.0016030204 -0.0030054932 0.0005088339 -0.0064612445 -0.0018542944 -0.0086530475 0.0006515428 0.0014361036 0.0037211883 -0.0028310542 0.005978948 -0.0070748916 0.009770222 0.00059522985 0.0022981567 0.004379525 0.0004101866 0.0026194537 0.0016022623 -0.009626546 -0.0031445315 -0.0025918745 -0.009252133 0.0034238494 0.0048144185 -0.002096196 0.007414472 -0.0011930323 -0.0002567554 0.005785496 -0.008493422 -0.0068297507 0.0073714294 -0.006581075 0.0085014785 0.0053255246 -0.008058836 0.008366804 0.0063645607 -0.006710654 -0.008464083 -0.008849672 0.0038661505 0.0063473703 -0.002129918 0.0013192083 -0.008401716 -0.0051523917
allowed 0.0045613428 -0.008715799 -0.009172004 0.00084824295 -0.00838498 -0.0073995357 0.0052368618 0.008611723 -0.007785097 0.007796571 0.009234203 0.0041734707 -0.0044320095 0.00971337 -0.0076948297 -0.004247188 0.0018779621 -0.00799233 -0.009930019 0.0023497178 0.008386711 -0.0050671455 -0.0041573457 0.0037787333 0.0004150582 -0.008552918 0.0063711083 -0.0033551417 0.0032726515 0.0030988394 0.009259925 0.008552914 0.007387505 -0.0086149005 0.001019909 -0.00067455095 0.00083332503 0.008707092 0.004824799 -0.009714426 0.010009131 -0.0012373943 0.00040180163 0.0047210306 -0.0059681265 -0.00049478235 0.0011583851 0.006887924 0.00437123 -0.0019118167 -0.008280117 -0.004322379 0.008956086 -0.009549899 0.009812186 6.0487888e-05 -0.000947515 0.009733585 0.009175487 0.0085888505 0.009040645 -0.009918994 0.00764547 -0.00957393 -0.00799056 -0.008620568 0.0024821383 0.007429082 -0.006792458 -0.002310732 -0.002688803 -0.004332449 -0.0009218432 0.0048786323 0.004082499 -0.0030577586 -0.003766797 -0.002185592 -0.0035309042 0.0039571696 0.009532501 0.007997072 -0.00790312 -0.0062617194 -0.009436474 -0.0059190644 0.0037232696 -0.0058368277 0.0021786955 0.008659696 0.0038173764 0.0015690423 0.008833175 0.0064584645 -0.0009700022 -0.0060458756 -0.00089605595 0.006968214 0.0076916404 -0.004056148
unit 0.009911257 0.002579821 0.0052075195 -0.005774514 0.0045275385 -7.25748e-05 -0.009365116 0.0055632507 -0.009469703 -0.006681784 0.0027041808 0.008859804 -0.0022151123 0.0072304183 0.0051626945 0.0038438367 -0.0063523967 0.004922179 -0.008405218 -0.004899189 0.005524828 -0.008201966 0.006061888 -0.0037166262 -0.00011043284 -0.007495136 -0.0064046676 -0.0035104495 0.008388572 0.005372122 -0.009399029 -0.0066592554 0.0037636682 -0.008768755 0.006522328 0.0063561597 -0.009534481 0.008500887 0.0078538805 -0.0023224247 0.0020461725 -0.006116119 0.006225098 0.0076308413 0.0042994805 -0.008866412 0.004933635 -0.0033450352 -0.002140894 0.0061890315 0.0020857605 0.004442077 -0.006208835 0.0053121713 -0.0037486579 -0.00020532875 0.0064441566 0.004155969 0.007170392 -0.0037000792 0.0036823412 0.0074988133 -0.003248882 0.0056973915 -0.009823948 0.008973133 0.0041885185 0.0054877596 0.0041791443 0.004927089 -0.003584851 -0.006143793 -0.0020862375 0.0014920353 -0.002594111 -0.008367029 -0.0062989886 0.00842201 0.009108774 0.006089183 -0.00427993 0.00080364203 -0.008805972 0.00698919 0.0002449227 0.0073983436 -0.005341321 -0.002710943 0.0032729097 0.003315312 -0.00636983 -0.0071711955 0.0019765892 -0.009097278 0.006029506 0.0057687564 -0.0036892141 -0.0059622773 -0.008189283 -0.0019132355
bye 0.006951083 4.697271e-06 -0.007864561 0.008801547 -0.008414227 0.0052402155 0.0067895954 0.0014125005 -0.009039119 0.0060320375 -0.007989412 -0.0053558922 0.00956209 -0.008253956 -0.0076123285 -0.0051516364 0.0033909082 0.001698987 -0.0056968457 -0.0037500649 0.008632953 0.009838216 0.010092975 0.00089289877 0.003922876 0.001311022 0.0014990587 0.004696066 0.0020238145 0.0002812609 -0.0029231987 -0.0066018715 0.008180743 -0.0061552236 0.002621182 -0.0006960905 -0.0036557906 -0.0050752023 0.0032735928 -0.006394443 -0.007425935 -0.0029609806 0.004722055 0.005971446 -0.0012742003 0.007254818 -0.007624189 -0.0048708264 -0.0077854414 -0.006021191 0.0074629667 -0.009581714 -0.00854544 -0.009884359 0.00912497 -0.0025085956 0.001226066 -0.006087621 -0.0027596795 0.00022758098 -0.0024309342 -0.007268207 -0.006073522 0.0023839541 -0.009796827 0.0012776587 -0.0018428246 0.008494421 -0.0007818838 0.006477774 -0.0073947255 -0.007453846 0.0057269977 0.00095134287 -0.0048266156 -0.0025016337 0.008721703 -0.009080058 -0.0039314576 0.0010727223 -0.00029857378 0.009681944 -0.0022335215 -0.006810323 -0.007801067 -0.009901863 -0.007797213 -0.005886529 -0.0056251716 -0.0015131934 -0.00028148285 -0.0044372748 0.0021577054 0.003812506 0.009455715 -0.0044952845 0.005237205 0.007008289 -0.0036093632 -0.007494401
load -0.0033114208 -0.006702723 0.0066070477 0.009348103 0.008461234 -0.00891402 0.00530465 0.005615094 0.0052317297 -0.008590001 -5.5197474e-05 -0.007285531 -0.00896677 0.0027674364 0.009988483 0.006339282 -0.007183839 0.002183982 -0.0039733592 0.0093425885 -0.008585028 0.009756224 -0.0062097553 -0.0072642085 0.0014828269 -0.00076627865 -0.008769162 -0.00076021056 -0.0005699813 -0.0062215514 0.0060149077 0.003103911 0.0086856205 0.00715807 -0.006833292 0.005082582 0.0055825757 0.005622538 0.005161443 -0.0054139025 0.0045278342 0.0009311085 0.00013367836 -0.006506057 0.0018338951 0.005251157 -0.009326393 0.00833227 0.003122353 4.5218025e-05 -0.003088294 0.00017545941 0.0061882255 0.004688495 -0.0061279815 0.00808796 -0.0004924431 -0.008045786 0.0084933955 0.0052493974 0.0037534472 0.008077158 -0.007529646 -0.0059879688 -0.0023667738 -0.0039742314 -0.0012100475 -0.0003493879 -0.008897219 0.002250297 0.0022519212 -0.0008250055 0.005118496 0.0015634014 0.006283163 -0.0020678875 0.008645154 -0.0014869971 0.0028825519 -0.0036014363 0.005987311 0.0031857912 0.00017010783 0.00912606 -0.008067568 0.009724645 0.0008617115 -0.0022240935 -0.0037192346 -0.009198343 -0.0018822498 0.0028986356 0.006510356 0.008999977 -0.008402619 0.009288784 -0.008765014 0.0034724239 0.008273224 -0.0025828823
course -0.007943231 -0.008211668 0.0011778824 -0.0008781814 -0.0094060525 0.002859282 0.0025521403 0.0047778203 0.004245568 0.0031217525 -0.009788882 0.00548787 0.004192586 -0.0077125635 -0.0021353662 0.00016161294 -0.0006533017 -0.0011107555 -0.0056346753 -0.0003119403 0.0044432157 -0.0006696023 0.0009637816 0.0019414593 -0.004101701 -0.007934109 0.00913403 -0.009984909 -0.0026681018 -0.001287703 -0.0074622827 0.0016225498 0.008084276 -0.0016779385 0.007995565 0.00045249978 -0.0058390517 -0.0020814799 -0.0007612776 0.005811033 0.0071965624 0.0060572186 -0.006021496 -0.0070373164 0.0062892544 0.0024458577 0.005204164 0.00028595288 0.00788299 -0.008824622 0.010000563 -0.00850526 -0.0017128291 0.006234537 -0.009369362 0.00446912 -0.006828119 -0.006872299 0.0020702232 0.001922488 -0.002791937 0.007946253 -0.0068701794 0.00034802523 0.008487876 0.0021595764 -0.006676628 0.0037685465 -0.0053931535 0.0007951916 0.0027287302 0.007725351 0.0076121003 -0.0048293136 0.009749324 -0.005470946 0.0075815306 -0.007957473 -0.00814762 -0.0010787921 -0.008284174 -0.0034180945 -0.00074144563 0.00015609327 -0.010085925 -0.0065161022 -0.0073782005 -0.00030125913 0.005388629 -0.0002305251 0.01024261 -0.0036817424 0.008074222 0.00610213 0.00863145 0.00021848798 -0.00026952007 0.0017155833 -0.009834627 0.00903187
helpful -0.0024579265 0.008053696 0.002229158 0.0028479348 -0.0010306503 -0.010457815 0.0019613106 0.003634645 -0.010446091 -0.004387885 -0.0024956327 -0.0057417024 0.003971681 0.0022625749 0.0042769657 -0.0069063934 -0.006023306 0.004341876 0.0066851135 0.004740605 0.00504149 -0.0071706963 0.008412379 -0.0071644727 -0.008082698 0.008446981 -0.0026665684 -0.009707909 -0.0033895522 0.0059093283 -0.0024936053 0.00468547 0.0003783344 0.0036853452 0.00087012624 -0.009052777 -0.0037501685 0.008648084 0.0015918475 -0.006991272 0.0072629494 0.0068338662 0.007358108 -0.00017374956 -0.008880653 -0.003670368 0.004996351 -0.006872221 0.009757033 -0.009753687 -0.00788422 -0.005746378 0.0062373467 -0.007835226 0.008504684 -0.009717178 0.003732835 0.0034172018 -0.0003521128 0.009998907 0.0052577914 0.00025829457 0.005058716 0.0062284945 0.0025241512 0.009606947 -0.0009261216 -0.008139909 -0.005009238 -0.0010812888 -0.007698972 -0.0013574722 0.008365804 -0.004908815 0.0056859157 0.0046845246 -0.0007818084 0.0013178755 0.005234156 -0.0066337935 0.0037100778 0.009348591 -0.003904625 -0.007279423 -0.00951132 -0.009044259 0.0039834008 0.005371841 0.0076153916 -0.0017397787 0.0014519164 0.0035097236 -0.009979813 -0.00945224 0.0052653328 -0.008104236 -0.0030646904 -0.0047280383 0.0061685885 -0.0034503245
inc 0.010030513 0.00084181456 -0.005261375 -0.0037580323 0.0014177924 -0.005683617 0.007649373 0.0094518615 0.004105067 -0.0076214895 -0.0061475188 -0.0003730751 -0.0010711177 -0.0055180173 0.00800717 0.0060310466 -0.004173601 0.0021275952 0.005172269 0.0019858985 0.008772072 -0.0013533462 -0.00631924 -0.0009871962 -0.008522947 0.009888309 -0.008884957 -0.0017916716 -0.0031155194 0.0030945556 0.0053500445 -0.008345942 -0.004317106 0.00032139078 0.0038161182 0.0053136693 -0.0014947747 -0.0006530419 -0.007912567 0.0040543587 -0.0075169937 0.0030015595 -0.0033836998 -0.007877557 0.0071068634 -0.0005606562 -0.009628093 -0.009702713 0.0006965645 -0.00820037 0.0039969883 0.00320839 0.0034906955 -0.005705594 0.00798353 -0.008962087 0.007757239 -0.00063319533 -0.0018318433 0.004052399 -0.0025264362 -0.0043180455 -0.0024169718 -0.0063014575 -0.0006652117 -0.005242494 0.00478516 -0.009455445 -0.004751055 -0.008991711 -0.009864686 -0.00069217355 -0.007852335 -0.005575607 0.0031402353 -0.0014170448 0.0030884 0.0084853815 -0.009952388 0.006238331 -0.008143376 0.0066129724 0.00719876 0.008805151 -0.008128214 0.0032048053 -0.0077387015 -0.00095720054 -0.0049662683 -0.008770002 0.0053681736 0.004799105 -0.0040651234 -0.0078021665 0.003914166 -0.0037907285 -0.008754601 -0.004583276 -0.0021426945 0.008801747
help -0.006631112 0.007720989 0.0062809805 -0.004968564 -0.0016391145 -0.0029828534 0.0035744398 0.00013980156 -0.0032184967 -0.009520873 0.0063814144 -0.010176142 -0.008673201 0.0014752137 0.0028848825 -0.00035399263 0.00038446396 0.0022496346 0.0017780038 0.007014658 -0.0032524925 -0.007138731 -0.0077621317 0.0077061146 0.0017126176 -0.005912974 0.0062150797 0.008258613 0.007771125 -0.0068548108 -0.0047917 -0.0021231566 -0.006380844 0.004490116 0.005446499 -0.005748227 0.007171328 -0.007839516 0.0062097018 -0.0054850844 0.0022183054 -0.0038123736 0.0035178051 0.0074946424 -0.0011743581 -0.0051290826 -0.0086879805 0.0033643367 0.0042174375 0.006713533 -0.00401021 -0.010048194 0.007009272 -0.00461401 0.0043169986 0.008188143 -0.0037011923 0.0017358315 -0.0038913565 -0.0063067633 -0.005608036 -0.00014815287 -0.0073334244 -0.0022386096 -0.0029069842 0.006889773 0.0015946891 0.0059809065 0.0034920266 -0.0032552453 -0.005516452 0.0098251505 0.0074184523 -0.008936378 0.005710812 0.008442461 0.00918283 -0.007941905 -0.0024073354 0.0011407672 0.002760102 -0.0012640031 -0.0050175963 0.0067300173 0.0067069614 -0.0004030056 -0.005790219 -0.004199297 -0.0047369674 0.0040711397 0.00088434486 -0.002016935 -0.009240621 -0.0016251246 0.0070571597 0.006559102 0.0042399582 -0.0032132235 0.009222133 0.00061126833
get 0.001093219 0.006566534 -0.0066068834 0.0064877663 0.010040966 0.00319148 0.003957616 0.0049026934 -0.0022194362 -0.008510508 0.0012625828 0.00045347807 -0.006816888 0.0020545535 0.0055528968 -0.0074529108 0.0024821355 0.007360907 -0.0088866595 0.0027686255 -0.00835488 -0.008016555 0.0072452 -0.007729131 -0.0017197527 -0.008116866 -0.008275073 -0.00742159 7.775506e-05 0.0018709579 -0.0076273843 -0.008324255 -0.0030912925 -0.0022181198 -0.0064877965 -0.0037988233 0.003576845 0.0029168634 0.006454104 0.0034091424 -0.00075388514 0.0025570893 0.00890271 0.0017320211 0.0022171107 0.0010831314 -0.009556464 0.0049789026 0.005287148 0.0003283796 0.009440714 -0.0062211757 0.0034484928 -0.0077612074 -0.009188135 0.0023256976 0.0049825893 0.0062611164 -0.009253527 0.004791562 0.0023981258 0.0041825045 -0.0004679042 0.005346915 0.0068160733 -0.0081806 -0.009616128 0.007196555 -0.0013944118 -0.008958826 -0.004372678 0.0013603839 0.008858478 -0.0015755444 -0.0006995029 -0.0072318646 -0.0076545267 0.00162148 -0.000821731 -0.007660511 0.00065154635 -0.008919361 -0.0029782583 0.0044179414 0.0008295187 0.007815027 0.00661452 -0.000821921 0.0056659486 0.0060040443 0.0093017025 0.009648032 0.0047894875 0.0046605086 0.0076786056 -0.0014175896 -0.005481375 0.008471799 0.0014635106 -0.0051140245
art -0.00089384255 -0.0052010156 0.009126824 0.0033913287 0.0042859917 0.0064678784 0.008271834 -0.004724436 -0.006384392 -0.0037754287 -0.003714546 -0.009501031 -0.00059914635 -0.008143498 0.009774245 -0.0034648527 -0.006316502 -0.008181335 -0.0035757876 -0.009651048 0.0007985607 0.005444609 -0.002828335 0.00769211 -0.001902569 -0.0072925226 -0.0031379363 -0.0031766966 -0.0071524745 -0.0097011635 -0.0040459097 -0.0016245624 0.0050603254 -0.0076570753 -0.0050312122 0.0013767191 -0.0016968109 0.0034921195 -0.0019045853 0.0041689966 0.00802729 -0.007951877 0.0037905502 0.005944651 -0.0005101719 0.0067713936 -0.0055092075 -0.00461454 -0.007867316 0.00947998 -0.009383208 -0.0032869661 -0.00042812066 -0.004885467 0.00946791 -0.006825358 -0.008013387 0.009251064 -0.008371021 0.009713265 -0.004073856 0.0056615844 -0.00034399884 -0.0040335585 -0.0075867944 -0.006229948 0.0068912366 0.0063963546 5.8172463e-05 0.0064525185 0.003819382 0.0038872212 0.0027272252 -0.009729001 0.00932227 -0.008181818 -0.0030223972 0.0014267941 0.0051680272 -0.009242783 0.0016649932 0.0063729826 -0.008848101 0.009651448 -0.0052797715 0.009550162 -0.006531625 0.006640605 0.009440958 -0.009295077 0.00039707022 -0.0076912795 0.008129699 0.009625711 -0.0059455805 0.00085800776 -0.002230535 -0.007786013 0.0008367188 -0.009969768
letter 0.0026116734 -0.0076789916 0.0057189157 0.0075987508 -0.0025571417 -0.00405338 -0.009568843 0.004960232 0.002896516 0.008751692 0.0032900744 -0.002958315 0.0035745692 0.008663337 0.009241125 0.0076307813 -0.0085449405 -0.0076146442 0.0072822976 -0.007500962 0.0033064042 0.00807579 -0.0031855598 0.0068013547 -0.00816684 0.006543128 0.0055815615 0.0033338177 -0.0081819445 0.009199531 0.008282594 -0.0015847541 0.0041035893 0.0063751163 -0.0017792109 0.0055301706 -0.0040307785 -0.001323054 -0.0012370737 -0.004265187 -0.0007040478 -0.0077413735 0.0036450727 0.009054309 0.0048347306 0.0064157387 -0.004798067 0.0048210127 -0.006706979 -0.0050182664 0.009921627 0.0063660922 -0.0050019887 -0.006124881 0.0072301477 0.0027031885 0.0066033197 -0.0067810076 -0.0010426147 -0.00096794666 -0.00023087754 0.0021735744 -0.0067315027 0.004367858 -0.00278314 0.008382339 -0.0010050904 0.009202749 -0.00086724636 0.0052623525 -0.007636717 -0.009110845 -0.00031060702 -0.0022522106 0.010005695 0.0045532654 -0.00559081 0.007394949 0.00053511263 -0.0095651625 0.0057231686 -0.0020087527 -0.009470432 0.008744399 0.007248408 0.0085781235 0.00036551704 0.0077130576 0.005209911 -0.0069916463 0.0093814405 -0.0035362851 -0.009786137 0.008554729 -0.0052599967 0.008438343 -0.007845489 0.009275934 -0.005910144 0.0040057315
nursing 0.009807183 0.0041910717 -0.0021251258 -0.004965235 -0.009713176 0.004204228 0.007428339 -0.004736067 0.005934953 0.0068475623 -0.009021246 0.0020906932 -0.006836231 -0.0043136454 0.0008417807 -0.0070287213 -0.004129638 -0.00749508 -0.0070165126 -0.006959936 0.009922078 0.008305378 -0.00019867766 -0.0026345053 0.0062716403 0.0013470879 -0.009001027 -0.0070562577 0.0010213159 0.007940651 0.0032017266 0.009876816 0.006567785 0.0002895435 0.008646343 0.008991531 0.008053731 0.009390295 -0.009402367 0.00351108 -0.0078082937 -0.0071518538 -0.008423023 0.0032011443 3.874157e-06 -0.006369399 0.0055515487 0.007889725 0.004317185 0.007842808 -0.004276747 -0.0063940673 0.00397045 -0.0029151726 -0.007191181 0.0036657634 -0.0033323006 -0.005198324 0.0026335919 0.0068546273 0.0064221993 0.00014982511 0.008656945 0.0029577946 0.0065533402 -0.0008959417 0.0021186136 0.0061703282 -0.009812198 0.0058294893 0.0012860639 0.006086361 -0.0014502312 -0.0027016085 -0.0055702575 -0.0028398542 -0.00256138 -0.005140136 0.0009618964 0.00801248 0.0051323925 -0.007657253 -0.0074438313 -0.0028721064 0.003909637 -0.009332945 0.0061302683 0.0031194275 -0.0028217565 0.009197397 0.008075 0.0007044279 0.0048380173 -0.009307641 -0.008795754 -0.0029377688 0.009289731 0.003229352 0.005604046 -0.0067670317
physical 0.0042350176 0.0005522999 -0.0009110259 -0.0032792012 0.005124054 -0.009408359 0.0054263403 0.006047095 -0.0027849027 -0.004408182 -0.007481774 -0.0066599078 -0.005113304 0.003245056 -0.0048446646 -0.0014784121 -0.008942095 -0.0035873312 -0.0008756997 -0.008436813 0.003337322 0.009800069 0.004468349 0.0017441465 -0.004957231 -0.0012731407 0.0021763886 0.0015674223 0.008682931 -0.0009106818 0.0072483933 0.005827223 0.0031330893 0.0071379063 -0.0050805453 -0.0037602326 0.006933678 0.008514605 0.0031470046 -0.004644194 0.0077921683 0.0024965487 -0.00021803139 0.008852723 0.0044625187 0.0039434764 -0.00010416981 -0.0091665555 -0.00306115 0.002525395 -0.005427039 0.006895103 0.0074715493 -0.009006908 -0.005580463 -0.005833768 -0.00055969384 -0.0018212991 -0.0022879995 -0.0019664015 0.0037027744 0.009751062 -0.0044974284 -0.008474964 0.0034144938 -0.006311495 0.0068483865 0.002825623 -0.008248748 -0.0075746938 -0.009426343 0.002556862 0.002941854 0.0026627565 0.0004527357 0.0011010208 0.0031054667 -0.0014713575 -0.008355936 -0.00051277765 0.0036072175 -0.0024453907 -0.0023168924 -0.0020553882 0.00710097 -0.003080991 0.009508388 -0.003790734 -0.009678904 -0.006644414 -0.0040796227 0.0014389138 0.0051404983 0.0021999322 0.009360031 0.001047567 0.0058091385 -7.6599565e-05 -0.0020805504 0.006265727
sport 0.0019686315 0.008436888 -0.008274114 -0.00880821 -0.00040661366 -0.0022041725 -0.0020936227 -0.00029180496 -0.005434736 -0.008188827 0.008251971 -0.003585728 -0.002853676 -0.0015696258 -0.001345068 -0.0094653005 -0.0017647513 -0.0013754802 0.008577462 -0.008449308 -0.0047191875 -0.0018802219 0.002969575 -0.006172532 -0.0056444453 -0.008109498 0.0055432753 -0.008875597 -0.003382037 0.00033379655 0.0016933938 -0.009944451 0.008793141 -0.0022558155 0.0003243407 -0.008686676 -0.008249856 0.0037102997 0.0040387115 0.0024926425 0.0059529566 -0.0071950816 -0.001234413 -0.0026915737 -0.0012573919 0.0044580013 0.0013492263 -0.007698966 0.0033215971 0.0063452423 -0.005955539 0.0030493748 -0.004266939 0.008850817 0.0039390502 0.0021886637 -0.0009112178 -0.009148153 0.008453208 -0.001574004 0.0075351456 0.003884433 -0.008144932 -0.0007665636 0.002414205 -0.0024390672 0.009928939 -0.0048296843 -0.007518587 0.0039742673 -0.0037216372 -0.0067748185 0.002236987 0.005339783 -0.0052510826 -0.0042822417 -0.0072129844 0.0016146305 -0.005066704 0.008549699 0.000576566 0.0020527977 -0.0034890624 0.0076004686 -0.0008351527 -0.0082751475 -0.0073327012 0.00026184908 0.008052479 0.0030941875 -0.005076114 -0.0066513214 -0.009818124 0.0039889547 -0.009270068 0.0033626752 0.0018096977 -0.001042889 -0.009986513 0.0059449924
recreation -9.391954e-05 -0.009849261 -0.007529185 0.008536422 0.0019557523 -0.008418762 -0.0006596389 0.0056517166 -0.0095922835 -0.007015616 -0.0010687206 -0.00996279 0.00044618198 0.0020065305 0.008459336 0.0008389542 0.0012969577 0.0047888393 -0.0043206825 0.006934763 0.00024020301 -0.0006793882 -0.009594464 0.00035643918 0.0067536654 0.0016950064 -0.008149524 -0.0034193 -0.006145737 0.0060406933 -0.006245779 0.005284884 -0.005127794 -0.0069699436 -0.0076637333 0.003919777 -0.008887211 -0.0057771546 -0.0070775175 -0.0047110645 -0.003944838 0.0012762726 0.006509977 -0.0012693944 -0.005367999 0.001537118 0.0056015244 -0.005439445 -0.005340727 0.005233181 0.0063918335 -0.007910961 0.008254136 -0.009830179 -0.0075401105 -0.005768381 0.0018297546 5.278498e-05 0.0033147605 0.0071680993 0.004908217 -0.003127736 -0.00638983 -0.0083342325 -0.0006636465 0.0098514045 -0.0075266333 0.0037338948 0.004189009 -0.0041785217 -0.0071358727 -0.005329239 -0.004901686 -0.0069902753 0.006139459 -0.0077232504 -0.0029370824 0.0044291546 2.5483632e-05 -0.007643553 -0.0047661806 0.0037045777 0.0023790547 -0.0017871896 -0.0008343014 0.002511593 0.001463655 -0.0026413212 0.0055449973 -0.0077474536 0.006524915 -0.009893628 -0.0022972017 0.0066633853 -0.0033792926 0.0066581597 0.005498207 -0.0075413752 -0.00020708292 -0.004496482
foreign -0.0081115 -0.00082010793 0.0063842875 0.008742722 -0.0049545886 -0.0028614695 -0.005932444 0.0014051507 0.0025460161 -0.010024632 0.0023469338 -0.008940988 0.00038987686 0.0047791116 -0.00521754 7.166463e-05 -0.0021120366 -0.008822317 -0.002467751 0.004209659 -0.008550824 -0.0059887636 -0.00042476854 0.0080216 0.0013799889 0.009767864 -0.0077980366 0.008895663 -0.004882114 -0.0063340473 -0.0077075525 0.0017868787 -0.002705528 0.007440458 -0.00058531127 0.0026349693 0.0059089037 -0.0087010255 -0.002111652 -0.005142626 -0.008672931 0.0033116397 0.0024101087 -0.0024961198 -0.0017844377 -0.0067909355 -0.0033888512 0.0011991622 0.007840494 0.0071188607 -0.0035161022 0.003478914 -0.002594766 -0.004745387 -0.0037285683 -0.006117528 0.0035586006 -0.007779589 -0.0077422475 -0.004423654 0.007376106 0.0018082751 0.0055709328 0.008118162 -0.0064354073 -0.004590664 0.007816727 0.00505613 0.0044191307 0.009116152 0.008769101 -0.0025957546 0.0011511267 0.005588116 0.009049996 0.009921705 -0.008301703 -0.0051285275 0.00481012 0.0010388049 0.00016456738 0.007517197 0.0063535934 -0.00715181 -0.0026847944 -0.008536226 0.0070444895 0.002928938 -0.0020837046 0.0017993822 0.007893257 0.008300091 0.0061631417 0.0031909198 0.0018097191 0.008216386 0.0014108912 0.00031672113 -0.009466294 0.0024393958
feasibility -0.008499481 0.0069471337 -0.0056273015 -0.0018860082 0.0011232358 -0.0023701782 -0.008570915 0.0046174023 -0.007078072 -0.009232546 0.0037746085 -0.0012600602 0.0065770946 -0.0070657516 0.0008367374 -0.0010624898 0.0056396397 -0.010113928 0.0059075463 -0.009726902 -0.0075704944 0.00073663815 -0.0025227873 -0.003985565 -0.0056317444 0.0040209475 -0.009492447 0.0008871619 0.003917113 -0.0002488913 -0.00020565368 0.007005609 -0.009422211 -0.009421523 0.004179669 0.009090994 -0.0077798236 -0.008599706 -0.0007320967 -0.010117747 0.0024574383 0.00883671 -0.0062027383 -0.00690969 0.009249667 -0.00088257453 -0.0039876294 -0.0030000473 -0.008711579 -0.0045645935 -0.0039646868 -0.00019242987 0.0009056441 0.0075318236 0.0066756587 -0.0012236075 -0.009833527 0.0026539764 -0.006604973 0.009367282 0.0039363177 -0.00091536983 0.00674208 -0.0038194936 -0.0040816185 -7.3587325e-05 0.008909948 0.0062504793 0.0009854424 0.004089746 -0.0035361482 0.00952305 -0.006747798 -0.0032073066 -0.0049237683 0.009105265 -0.0032562192 -0.00213299 0.0067216745 -0.009646524 -0.003061113 0.0030648871 -0.0066485144 0.009085161 0.00078988797 -0.005164479 0.004969679 0.008165787 0.0016175623 0.006714873 -0.006265982 -0.0032214597 0.009761578 0.005670822 0.0022615842 -0.0033738674 0.004590538 0.0021652642 0.008644041 -3.8755403e-05
study 0.00858629 -0.0056512086 -0.0075546126 -0.0014652386 0.0030382718 -0.0022879518 0.0062824595 -0.007996089 -0.009331255 0.0074238637 0.0062646703 -0.004362296 -0.0040221624 -0.0036015816 1.46176835e-05 0.008858288 0.0009329404 -0.002285104 -0.0034243925 -0.0025208953 -0.00897519 0.0068175257 -0.00895288 -0.0031957778 -0.007277219 0.009005333 0.005692379 -0.00063289667 0.0037327607 -0.0024485071 0.010031107 -0.003666621 0.0049861576 -0.004011854 0.009409088 0.009774951 0.006235961 -0.00039682043 -0.0017546602 -0.009234071 0.009542236 -0.008724358 -0.006608978 0.005473282 -0.002085993 0.00791984 -0.008037926 0.009097485 0.0022609893 -0.008491098 0.0040932596 -0.005229076 0.006472854 0.006513015 -0.008841314 0.0066310065 0.0053731306 0.006504972 -0.007335538 -0.006436243 -0.0088696405 0.0053487266 -0.003935026 0.0045819576 0.0045612664 0.008298122 0.002520822 -0.0008327129 0.0010763467 0.0031463322 -0.009108922 -0.005810922 -0.0007541246 0.0048901453 7.0011316e-05 -0.009504896 -0.00066945795 0.0073165325 0.006099113 0.0035097348 -0.0046911235 -0.0036648798 -0.0023216372 -0.0057714405 -0.008736814 -0.00048275996 0.0018376419 0.004915036 0.003954976 0.008453926 -0.0064324406 0.009471307 -0.0034460907 0.0008235029 -0.0038698046 -0.00399902 -0.0014020874 -0.007742448 0.009124711 0.0045340913
manuscript -0.0024001517 0.0022924808 0.007980668 -0.00571172 0.00399699 0.00025046433 0.003467452 -0.0014982289 -0.010373737 0.0055610295 -0.0015842777 -0.008800057 0.0007651667 -0.006127252 0.0077888826 -0.006740105 -0.001735442 -0.00073565927 -0.0044030636 -0.004187807 0.007589336 0.0019777825 -0.0092637995 -0.00035165495 -0.009819149 -0.0031945645 0.0047619306 0.0034520421 -0.006037316 0.0015054307 0.0061085825 -0.0076821498 -0.0032516618 -0.002838374 -0.009187232 0.00252487 0.0065390915 0.0022329774 0.0023166733 -0.0017128444 -0.0005069424 -0.006660238 -0.0005699665 0.006493725 0.0032985038 0.00054147525 0.007611787 0.0026087225 -0.007420111 0.0074004084 0.009725786 -0.009537139 0.007343968 -0.007703215 -0.0005295201 0.004944946 -0.0055925758 -0.007904446 -0.007760285 -0.009654865 -0.0066092946 0.009646974 0.003109692 -0.009397221 0.008180897 0.0074443384 0.00828333 0.009982335 -0.009233431 -0.0018426898 0.0016215213 0.0026281103 0.0052097766 -0.0077192723 0.005153486 0.010242364 -0.0091297 0.008131631 0.0028359117 -0.0040758685 -0.0016992514 -0.008416176 -0.007854081 0.0058169873 -0.0034388583 0.01009852 -0.007974929 -0.0068827104 0.006816662 0.007777271 0.0042675077 0.007603145 0.0063862302 -0.0057248306 0.009382975 -0.006194369 -0.002734639 -0.0063643917 0.006355153 -0.0044200034
laude 0.0029354785 -0.0012576374 -0.0011564888 -0.005921145 -0.0056030625 -0.0040572514 0.00083132554 0.0021458296 -0.0037191426 0.0015868435 -0.005773366 0.009574487 -0.0009203399 -0.006923463 -0.0017634406 0.0076353797 -0.0010842206 -0.005424353 -0.00812309 -0.006410323 -0.0031240133 0.007850123 -0.006960226 0.0012463314 -0.0002697035 0.0038388867 -0.008123546 0.0076157097 -0.0030532093 0.0052832616 -0.009254019 0.004870597 -0.008045481 -0.0034338266 -0.0014726717 -0.0033137898 -0.00087115384 -0.00029641727 0.0046180026 -0.0030904787 -0.0037682198 -0.0064991196 0.008301269 0.004574126 0.009469615 0.0055825817 -0.0048884014 0.007869217 -0.0069912043 0.0030512256 -0.0030342662 -4.2098043e-05 0.0037312224 -0.0028168408 -0.0046354355 -0.00198215 0.00080982235 0.0065736915 -0.0062153284 0.0049116453 -0.0037237024 -0.007831722 -0.0053672236 0.0015329877 0.008467329 0.008109679 0.009437623 0.0070911115 -0.0034032164 -0.0021298053 0.008573599 0.0066913846 0.0063273106 0.0070767705 0.0020452153 0.0025262896 -0.008275126 0.0076493314 0.00893355 -0.007063128 0.0009838426 0.0090234 0.0034078432 0.0071002757 0.007448968 -0.0019411918 0.008931098 0.00620968 -0.0015452462 -0.0001880471 0.010149512 0.006169362 -0.0067904335 -0.0035035487 -0.0028318749 0.0033585962 0.0013498799 -0.008912155 0.0023801893 0.009621559
cum 0.00225048 0.0046782102 0.0019692585 0.008088206 0.009043323 0.002624888 -0.0018066241 0.0044386717 -0.008183743 0.007612561 -0.0041026114 0.009393631 -0.0096205 -0.0025601238 0.008989178 -0.0044166236 -0.0019462794 0.0047432776 0.009235443 -0.0010299456 -0.0067365193 0.010047612 -0.009266874 0.0010175391 0.0053878534 -0.007982762 -0.00584737 -0.009530242 -0.00040739457 0.004933122 -0.00791443 -0.0033248696 0.008694025 -0.004706429 0.002812221 0.0038595449 -0.0038031666 -0.005540269 0.008423316 -0.003522522 0.009274475 -0.0028218562 0.0030354487 0.0055547967 0.00094135205 0.0044565485 -0.006308551 0.007958707 -0.0016630183 -0.0043602744 0.0054721 0.00954091 -0.005575526 0.00085194205 0.004140504 -0.002761748 0.0009758163 0.008936324 0.0072743553 -0.006135249 -0.003154619 0.00930355 -4.085646e-05 -0.0099178925 -0.0011299243 -0.006535057 0.0012319133 0.0010809095 -0.0049850284 -0.0043187127 0.008525307 0.004860656 0.0029621015 0.0020185702 0.0087921 -0.0048333346 0.0060282643 -0.00092606037 -0.008204235 -0.009672318 -0.0019775687 0.008454228 0.001896167 -0.008762765 0.00094301737 -0.0037458243 -0.0039498927 0.008375033 0.006242479 7.827783e-05 0.0029144466 0.0012766139 -0.01001158 0.0030387712 0.007958024 0.004270231 0.0026621732 -0.0038944513 0.0025785053 -0.007611877
qualifies 0.0041484092 0.0026911662 -0.00036069847 -0.0007083044 0.0028896849 0.0017276426 0.002010786 0.00992388 0.0030746898 0.0010481062 -0.003065855 -0.0065251263 -0.009465997 -0.0032086691 0.004429012 0.0072320094 0.0006312463 -0.0051150755 0.003453985 -0.0046503595 -0.00067914027 0.00890442 0.008477074 -0.0006273146 -0.006112888 0.0035584331 0.009549742 0.008265222 -0.0022183973 0.007168139 0.009633508 -0.009789102 0.009172036 -0.0001577007 -0.005563079 0.0040059607 0.008754375 -0.0076161274 0.0069658686 -0.007424511 -0.0075184125 0.0050258264 -0.004595014 0.004681969 0.0077349166 0.009719197 0.00544875 -0.009325452 0.0031808033 -0.008917854 -2.46661e-05 0.009376398 -0.0050468664 0.0041352725 -0.0059656072 -0.008050742 0.008353094 0.003354359 0.0068916655 0.003189024 0.0012079687 0.0038102004 -0.008130009 0.00629478 -0.0048711053 0.0048556696 -0.005113661 0.0012382162 0.0034444304 -0.0021402685 -0.007847864 -0.005826934 -0.009623311 0.009835773 -0.003924937 -0.00095749885 -0.009099772 -0.0044482923 -0.005438165 0.0030869057 0.0055468525 0.0037974585 0.009512936 0.0021689152 0.009587188 0.0075197895 0.0028779285 0.0023760942 -0.007163946 -0.0026628708 0.0061516524 -0.007793922 0.0021725583 -0.0076050647 0.010352283 7.201922e-05 0.0011382898 -0.0051376736 0.00638422 -0.007106953
thesis -0.0074351626 0.006921685 -0.0033308065 -0.0009874067 0.0054674675 0.0041954163 0.006615686 0.007532751 0.005173159 -0.0091687115 0.0050752345 0.008766789 -0.0040082135 0.0010932987 -0.0031872676 -0.0036958717 0.00865501 -0.00058254483 0.0033457363 -0.0061255274 0.006017754 -0.0033081565 -0.0048202868 0.002064614 0.009522642 -0.0061944807 0.003449217 -0.001245285 -0.007436547 -0.0043370635 -0.007990831 0.0055118357 -0.0025979294 -0.0054775635 0.0007568149 0.0049406528 0.009497937 -0.009946475 -0.00042279222 -0.0019747454 -0.0024051762 -0.0008432927 0.008078408 -0.0019994106 0.009614878 0.0003361869 -0.0012245576 0.006707462 0.0069782287 0.0004920099 -0.00017400342 0.006038323 -0.0037323846 0.004550819 -0.00022242659 -0.0058453497 0.0065312353 -0.0040746797 0.0018280188 -0.006699452 0.0027463357 0.0057233255 0.0052262167 -0.008364361 -0.006263937 0.007350277 0.0034569832 0.0013668684 -0.0067028366 -0.0010689066 -0.009703883 0.0013923974 -0.0043368125 0.0007571096 0.0047867782 0.0026649274 -0.0071971035 0.0011205574 -0.007087482 -0.003791145 0.0017498108 0.008043242 -0.006816763 0.0026935728 0.007873234 0.009996528 0.006217905 -0.0072879293 0.0043713227 0.008656277 0.004547188 0.0027737762 -0.001723394 0.0035485236 0.0046393224 0.008959733 -0.0037010722 -0.0090619465 0.0067112697 -0.006220526
dissertation -0.0006010707 0.0017056242 -0.0011385175 -0.0041296557 0.00096278696 -0.009930904 0.0017504885 -0.003805657 -0.006073378 0.0035857423 0.001347989 0.003331042 0.00093732716 -0.009544782 0.010073284 -0.0037351483 -0.0022795368 0.0069048805 8.374267e-05 0.00258138 0.002472493 0.0024515316 0.0068613836 0.009417498 -0.00077592104 -0.0034663389 0.004411997 -0.00854321 0.008239806 0.0024546676 0.0061696433 0.0026746953 -0.0012062693 0.00070882775 -0.0050167413 0.009312314 0.005018805 0.0034716683 -0.0051485333 -0.009215024 0.008137372 0.002715066 -0.0043060984 -0.008766147 -0.0037431892 0.001308927 -0.009346938 -0.00014307881 0.002830238 -0.009892709 -4.1668277e-06 -0.006374735 -0.0034771422 -0.0017307344 -0.010068604 -0.0034619789 -0.006902261 -0.007323901 0.0012280459 0.0024813986 0.009287994 0.008929091 -0.006386084 -0.009423103 0.007633158 0.005570165 0.0071938494 -0.0027325104 -0.0055987807 -0.0043663406 -0.008679458 0.006010768 -0.0032233023 0.008601031 -0.00546245 0.009827907 -0.004537098 0.008838386 -0.005714405 -0.0074556554 0.007518151 -0.009696738 -0.009092413 0.0051734704 -0.009980811 0.0053181583 0.0036707537 -0.0068823574 0.0035591328 0.001359355 0.009092114 0.003143404 -0.0052409754 -0.0023641046 0.00724365 -0.0065177144 0.009439077 -0.003408259 -0.004506812 -0.0044013048
readmitted 0.0030989458 -0.009747366 0.003256941 -0.0044988105 0.009810372 -0.00527768 -0.007884885 0.0037819198 0.008755357 0.0026134462 -0.0023695861 0.003309708 -0.008957154 -0.0040129367 -0.0043560113 0.0017458436 -0.006358144 -0.007811002 -0.006631803 0.004888224 0.002900029 0.008804408 0.0025535806 0.0051962575 0.004257609 0.004529289 -0.0051003853 0.0013802093 0.00014432079 0.0053083147 -0.006425776 -0.00074751576 0.004139976 -0.004926156 -0.008707451 0.005706254 -0.00088593137 0.00022868015 -0.006188809 0.008247615 0.0009879278 0.0015277207 -0.00041074838 0.0005980897 0.005942498 -0.009233105 0.0022682683 -0.005811481 0.009592797 0.0044728746 -0.0053259665 -0.0014200503 -0.0055143572 0.008447541 0.009007662 0.0023762018 0.009726768 -0.00469178 0.002520214 -0.0050233514 -0.008784491 -0.0041084937 -0.00132071 -0.005744507 -0.0047858604 0.0007185985 4.643022e-05 -0.0082345335 0.006674189 0.001785948 -0.009655942 -0.0014134909 -0.0074881217 0.0076075355 -0.0009070129 0.007851359 0.005096286 -0.0040290323 -0.009188687 -0.0060911165 0.008856017 -0.0015209863 -0.00054962345 0.0003106392 -0.008345519 0.0042134835 -0.008231817 0.009535341 -0.0079368865 0.007784452 -0.0017418825 -0.0018887585 -0.002273859 0.00088256254 0.002647655 0.0017573365 -0.00045583668 0.0074757207 -0.0063289586 -0.007918838
regular -0.0072309608 0.0064169094 -0.0019245892 -0.0048383772 0.005019212 -0.008070691 0.0031058588 0.009950943 0.0066708764 -0.003184551 0.0023594783 0.0047416235 0.009533743 -0.0026926314 0.0012304549 -0.0043278257 -0.0032397432 0.0006587335 0.0021485034 -0.005684594 0.004284747 -0.0051050885 -0.0044455417 -0.0091126645 0.007621897 0.004244914 -0.0022855536 0.008257404 0.0018776896 -0.009895429 -0.007589749 -0.004293607 -0.0072249845 0.007266937 0.0049891635 0.0021440396 -0.0007084093 -0.0075482083 0.006155744 -0.0056226277 -0.002567597 -0.006138356 -0.0021334079 -0.009368188 0.0034619467 -0.0074796667 0.006685768 -0.0076016528 -0.00588536 0.00013803085 -0.007818217 0.0052792067 -0.0042154854 0.00033934935 0.007715203 0.003177782 -8.45518e-05 0.007731782 -0.00035969916 0.0057261745 0.0061067645 -0.007987358 0.0020221232 -0.0096147135 -0.0015556887 0.008635774 -0.002298522 -0.0046638404 0.00254549 0.007383409 0.006486009 -0.006442167 0.007127398 0.007702383 -0.005179973 -0.0011863719 -0.00064421544 -0.009413335 -0.0025901988 0.009937729 -0.0026121037 -0.0076129953 -0.004388547 -0.009456357 0.001896529 0.00600481 0.0007681883 -0.003375967 0.009619625 -0.00949766 -0.004371506 -0.00965056 0.009541358 -0.001895652 -0.0050460743 -0.0078019956 0.00828961 -0.0031794424 -0.005723432 0.0036718827
