1702 100
the 0.00805854 0.037441246 -5.598344e-05 0.007388949 -0.009432051 -0.0102247475 0.0104992185 -0.039263904 0.018139623 0.010409982 0.016561382 0.018031504 0.002045269 0.024417197 0.0030504884 -0.017243026 0.0032148536 -0.011921264 0.0044243266 -0.0022354885 0.025047304 0.014463576 -0.033856254 0.032681942 -0.03849255 0.047506806 0.03143839 0.02207291 0.00018796734 -0.026340587 -0.014843905 0.013356685 -0.008079473 -0.003870248 0.034626704 0.0004400663 -0.005520901 0.008384298 -0.008886651 -0.00013688787 0.043594267 0.00027753346 -0.028679146 -0.001374899 0.0013828314 0.013247987 -0.0065149223 -0.005692966 -0.030388637 -0.043271326 0.029561494 0.0049531963 0.0050428812 -0.025978658 0.00893416 0.0014475074 -0.0231674 -0.0079241255 -0.011837974 -0.00035197704 -0.002533995 0.0109087275 -0.009413297 -0.01560258 0.03168725 0.019516394 0.0038060187 -0.028753454 -0.0034669614 -0.032534942 0.025240673 0.018222172 -0.0013317119 -0.011752898 0.008566834 -0.029324653 -0.013869837 -0.007087643 0.0015106488 0.003519309 -0.02188803 0.011826134 0.017169328 0.014897754 0.03240045 0.01280967 0.03020473 -0.016624851 0.029217843 -0.023134258 -0.015961044 0.016590185 0.0105254 -0.0016106961 -0.013521203 0.009207692 0.016167266 0.029250296 -0.020076785 0.016883587
SOS 0.0064886753 0.016949207 -0.0004239177 0.004404478 -0.010348155 -0.0033210567 0.004872506 -0.024874898 0.012225508 0.0027024143 0.0049512074 0.006971217 0.0067193476 0.01465667 0.0016333663 -0.009962228 -0.0016423581 -0.0023884205 -0.0029927783 -0.0032328658 0.015944295 0.0040266174 -0.013676385 0.019209966 -0.023523679 0.030967148 0.015722971 0.0103008775 -0.0010809458 -0.019713609 -0.011994026 0.0029281124 0.00021457818 -0.00038612096 0.021184573 3.8857583e-05 0.0031363065 0.008333152 -0.008343811 0.0025823538 0.022346698 0.0029364289 -0.01632866 0.001954079 0.0017697595 0.002576936 -0.0048326333 -0.0061226264 -0.013751961 -0.025709432 0.014317251 0.00010743101 0.0055384166 -0.020299343 0.0015731939 0.0062316223 -0.007860824 0.0016321053 -0.007215351 0.0038421692 -0.006055577 0.0018545048 -0.007940974 -0.005215935 0.014192251 0.0071360995 0.00225308 -0.012997123 -0.0052150777 -0.01619414 0.021184588 0.012760176 -0.0009087361 -0.0034270815 0.0062258765 -0.016459905 -0.009533963 0.00038159054 6.412522e-05 -0.0057688085 -0.009391614 0.005492037 0.010263836 0.008528142 0.0146624865 0.008202571 0.018057138 -0.011164814 0.013130385 -0.013310408 -0.00758403 0.0120190205 -0.0014065533 0.0032976908 -0.0061789313 0.0065606083 0.013868116 0.010472002 -0.010597619 0.0061448817
EOS 0.006640899 0.017627764 0.0022216614 0.0034280068 -0.007292312 -0.0034583674 0.011099412 -0.024280665 0.0045464966 0.00094090996 0.007972049 0.004457215 0.006668998 0.012392542 -0.00097045896 -0.00959358 -0.002601187 0.00048226296 -0.001613052 -0.0040697823 0.014638937 0.008220276 -0.014072635 0.019327715 -0.019643955 0.031805806 0.010816088 0.0053966283 0.0035791083 -0.012036392 -0.012779982 0.0027742507 -0.0015916185 0.00075611164 0.01619542 -0.0010085588 -0.0030237832 -0.0012208939 -0.012072191 0.0011806417 0.024569163 0.0042341286 -0.012677467 -0.00024671602 -0.00026127696 0.00973111 -0.0039788526 -0.008898015 -0.017910095 -0.02600679 0.013520051 0.006368041 0.0021470506 -0.016837642 0.0006198259 0.004998621 -0.011351576 0.001802833 -0.008936606 -0.0027775618 -0.0032590653 0.003968216 -0.0032056838 -0.011465045 0.018093804 0.00532203 0.004385658 -0.016497774 -0.00478456 -0.013378411 0.018104525 0.008937958 -0.0034403086 -0.0045530275 0.003196494 -0.012725631 -0.0034462947 -0.0025638584 -0.003749186 -0.0043328344 -0.0107544605 0.008817754 0.0035862003 0.011280197 0.014765682 0.0033844805 0.020913294 -0.0054756445 0.0097399615 -0.013261478 -0.008301125 0.00824156 -0.0009910162 0.0058028875 -0.0026453529 0.007293901 0.006162744 0.016063305 -0.013417713 0.0063576014
of 0.0038955829 0.039985854 -0.00064266473 0.009766334 -0.011262184 -0.015235698 0.014684432 -0.03910933 0.020399116 0.01046119 0.020157585 0.020984266 0.002468652 0.026989948 0.00087780145 -0.015264771 0.0005488836 -0.01284218 0.001967162 0.005181685 0.022287043 0.013800071 -0.028435722 0.04199547 -0.04158306 0.056112938 0.026218923 0.014477223 0.005729708 -0.03636712 -0.020185847 0.008580877 -0.011618683 -0.006909927 0.038337015 0.0020573863 0.0031286208 0.0067832093 -0.009427778 -0.009141305 0.040561102 0.0027683622 -0.0322846 -0.001967654 0.008263614 0.010590881 -0.0055683847 -0.010741021 -0.026776755 -0.04266695 0.028778292 0.004930326 0.0012080449 -0.030694785 0.009024694 0.007299615 -0.02118681 -0.009535392 -0.015519349 0.0069349757 -0.003342991 0.010104377 -0.008235067 -0.013256131 0.03556602 0.021776615 0.0065800925 -0.034581643 0.0013784657 -0.02742012 0.027310863 0.021614432 0.0044975597 -0.0140160415 0.016934846 -0.032970272 -0.013988162 0.00021649036 0.0014547859 -0.005828558 -0.027523635 0.010285667 0.017505685 0.016591327 0.0322559 0.011102022 0.03677013 -0.020029595 0.030466434 -0.017235918 -0.019309742 0.014811053 0.0023490505 0.0036189249 -0.015442486 0.007432684 0.022046527 0.030086106 -0.022330333 0.017131226
and 0.0031111008 0.030271042 -0.0006719559 0.008899103 -0.010621154 -0.013456236 0.006923342 -0.033293456 0.017024612 0.004581791 0.008998087 0.011513206 0.0016673938 0.019846983 -0.0020338485 -0.015277396 0.0029927036 -0.006304723 0.00341374 0.0030597742 0.020942228 0.015315099 -0.028654607 0.027747946 -0.028323904 0.04456797 0.025622481 0.018550579 0.0074544507 -0.02862851 -0.017713303 0.0123783285 -0.0055681546 -0.001451181 0.02905453 -0.0003303656 0.0039094696 0.008585332 -0.01386555 -0.0067714415 0.035869796 0.007898974 -0.021442473 -0.0021694475 -0.0014674482 0.0123126125 0.0005468761 -0.011420565 -0.022370165 -0.03771074 0.02378344 0.011255597 0.0033698196 -0.023912301 0.005008823 0.0064116064 -0.01648579 -0.0068291905 -0.009978758 -0.001972633 -0.0038941144 0.00019272226 -0.010041287 -0.014774527 0.02779042 0.020185847 0.008310479 -0.030159302 0.0035514748 -0.024274694 0.02223004 0.014582703 0.003941457 -0.0064235255 0.007379177 -0.02843316 -0.011618086 -0.007936262 0.0031280504 -0.005570922 -0.02372974 0.010970941 0.01415709 0.01769727 0.028032351 0.0045108707 0.027950354 -0.010616963 0.018443225 -0.019667398 -0.016593853 0.009690942 0.0058533424 -0.0012890015 -0.012621487 -0.0005372305 0.014248222 0.017575404 -0.01104628 0.013546086
to 0.006283781 0.033188075 -0.0005735161 0.003909822 -0.007981762 -0.010238651 0.008815066 -0.02833877 0.012826495 0.0072260234 0.0086999 0.008322252 0.0060777017 0.0151351895 0.0038687878 -0.010320136 0.0058652405 -0.007967443 0.0020023445 0.0019037826 0.014225926 0.008994331 -0.019316694 0.02828523 -0.027162468 0.04091933 0.023271594 0.01349074 0.0062185368 -0.026366942 -0.011855363 0.0108271595 -0.0060921013 -0.00941271 0.027284712 -0.0020555696 0.0024407841 0.0006117342 -0.00535107 0.00030874767 0.027813844 0.007967025 -0.026622524 0.0013265411 0.0032184927 0.0091074 0.00017768278 -0.00990653 -0.023878334 -0.033776753 0.01805436 0.0034588466 -0.000807209 -0.024485184 0.009346498 -3.086836e-05 -0.013961681 -0.00047432404 -0.0044091935 0.006410844 -0.0012901785 0.0054444913 -0.0101214945 -0.011568512 0.02248882 0.014117658 0.001278821 -0.028967261 0.0017210905 -0.024297502 0.021735042 0.01420424 0.0064846366 -0.010225733 0.011206758 -0.026317606 -0.011417136 -0.0030451976 -0.0024106703 0.0017087952 -0.013870767 0.010859796 0.012844758 0.014737876 0.024483629 0.0073250094 0.018853446 -0.015568998 0.0173172 -0.016679866 -0.01920297 0.014639576 0.005088366 0.0017305798 -0.0102666635 -0.00060525426 0.0092356885 0.02091575 -0.011839572 0.0142939985
university 0.0034928482 0.014082236 -7.284362e-05 0.0021667015 -0.0054179467 -0.0036649685 0.004861042 -0.009396813 0.0017007589 -0.00021398554 0.009301062 0.0056691235 7.029425e-05 0.00458282 0.0015413596 -0.0012855527 0.0042488202 0.0019539006 -0.0037053444 -0.002378826 0.0075804475 0.0065965573 -0.007882103 0.016610915 -0.017374717 0.015887327 0.00850581 0.011466833 0.0067817643 -0.007851232 -0.010898971 0.007962747 -0.0048930217 -0.001742743 0.011367963 0.0042238017 0.00049922673 0.0009904335 -0.008335073 -0.005868948 0.015709313 0.0061810617 -0.0060597146 -0.002254693 -0.0025333033 0.006265008 -0.005865612 -0.0006556804 -0.012212166 -0.016415825 0.012631436 0.0055164816 -0.0019858282 -0.012109401 0.0077250972 0.00069144485 -0.0035040027 -0.0055871373 -0.003816345 0.0014183716 -0.003202792 -0.00015070383 -0.004360275 -0.0051360247 0.008146471 0.0007512462 0.00039939058 -0.013839898 -0.0031288257 -0.011840865 0.0058900896 0.011024837 -0.00030152002 -0.0011701114 0.007398563 -0.013349449 -0.007819594 6.520078e-05 0.003509597 0.004235073 -0.009139922 0.0076924996 0.0062949946 0.010076959 0.011887085 0.0038899865 0.008388472 -0.0076388423 0.013310108 -0.008468732 -0.008922989 0.0005720858 0.0013433188 0.0021640637 -0.0046863267 0.0016647172 0.0054696314 0.011167336 -0.011215297 0.0025493058
for -0.00091552286 0.018948197 -0.004249022 0.00046884065 -0.0072615645 -0.004395448 0.008841252 -0.017799323 0.00434748 0.0067404755 0.0069731954 0.014189806 -0.0010364795 0.010098364 -0.003427601 -0.0074203415 0.004464214 -0.00833629 -0.0038228203 6.872862e-05 0.01696237 0.00489069 -0.014115342 0.024027184 -0.017131092 0.033670235 0.019236146 0.014193698 -0.0007561242 -0.013127221 -0.011441403 0.008507266 -0.0072723185 -0.0062076333 0.023336615 0.004002838 0.0017072972 0.0038951624 -0.011217079 0.0012718136 0.025228446 0.0032474862 -0.014715012 0.0015678572 -0.0018829162 0.0025559936 -0.00245416 -0.007361576 -0.018485721 -0.023797948 0.016874239 0.009503122 0.005787511 -0.0116701815 0.006482052 0.006899265 -0.007299619 0.0011491847 -0.00491201 0.0058860583 -0.004830296 0.00036740632 -0.008233266 -0.0076351925 0.02341372 0.009809085 0.00479858 -0.013989403 -0.0032558169 -0.019373192 0.014725492 0.009561238 0.0025583103 -0.0053934 0.008911207 -0.019749764 -0.01005599 -0.0037593052 0.0028472904 0.0019175336 -0.014374313 0.009005857 0.0066525675 0.0068659857 0.015993979 0.006679879 0.020365598 -0.0068616145 0.020192685 -0.012180547 -0.012864024 0.013006193 0.008477988 -0.0034440414 -0.01096559 0.0073461365 0.009254105 0.018808752 -0.012436533 0.010408378
in 0.0020255763 0.023913832 -0.0052234894 0.0020410756 -0.0065832958 -0.00546445 0.0027087715 -0.024606787 0.014135231 0.0075047673 0.011554376 0.011616964 0.008798844 0.011610101 0.00081065093 -0.0068215732 0.001951625 9.087574e-05 -0.0002233286 -0.0010549517 0.0125854695 0.010219207 -0.019319672 0.025668439 -0.018592829 0.03650272 0.021619553 0.016100574 -7.134913e-05 -0.022506963 -0.016942475 0.004690033 -0.003231897 -0.0032984195 0.018196303 -0.0006774186 -0.0018058246 0.006452199 -0.0106601035 -0.007217203 0.029019404 0.0018845064 -0.022410285 -2.4032508e-05 0.005933815 0.0046710656 -0.0015430357 -0.0109361075 -0.014845269 -0.029732607 0.016118111 0.010341293 0.0027391794 -0.014057453 0.0073268963 -0.00263139 -0.012422319 -0.006873504 -0.008419369 0.00040108882 -0.0039807344 0.0032397062 -0.000120330915 -0.012567761 0.020543007 0.014257681 0.005772883 -0.017913837 0.0029963923 -0.017979871 0.016598681 0.01743877 0.0010777874 -0.010140711 0.010171906 -0.024056032 -0.006844216 0.0027256717 -0.0015152768 -0.00030732356 -0.010709285 0.0028625932 0.011032098 0.007822922 0.021481935 0.010411733 0.020733824 -0.012158442 0.020955227 -0.007457622 -0.013605172 0.009494593 0.0066546104 0.0057431967 -0.010351372 -0.00034743105 0.016072549 0.017634364 -0.009544514 0.009346261
- 0.0012467363 0.022415632 -0.0007039306 0.00026720788 -0.0027262447 -0.0014653006 0.0014737372 -0.017416704 0.008458471 0.004216749 0.01131318 0.005352248 -0.0015709291 0.01137512 -0.0016068686 -0.008011012 0.00057865464 -0.0028289203 -0.0028091369 0.0039653634 0.010117955 0.0023926673 -0.015854865 0.014449588 -0.020676898 0.020447338 0.016647544 0.006863796 0.0057060206 -0.011714194 -0.008882276 0.008677259 0.0006392271 0.001948613 0.014838448 -0.0014987105 -0.004217791 0.004596372 -0.0043896013 -0.0042634634 0.013839954 0.0017574208 -0.013881107 -0.0038747569 0.0008369743 -0.0010921843 -0.0026252447 -0.008636755 -0.014717337 -0.013961922 0.012322077 0.0058737765 -0.00082604866 -0.013904056 0.0037924908 -0.003039905 -0.010849278 -0.00062526646 -0.005669016 0.005663077 0.0034190177 -0.003357463 -0.006388863 -0.0043375553 0.015583936 0.007996891 -0.0013417049 -0.009899917 -0.0039578364 -0.0056889434 0.011914527 0.008096971 -0.0013515678 -0.0015315161 0.0006321689 -0.010566859 -0.003778302 -0.005359245 -0.0041094795 -0.0013749206 -0.015938684 0.0069636875 0.0074880687 0.006424208 0.017464707 0.0074129263 0.014498875 -0.010618255 0.0136204995 -0.009854842 -0.010445407 0.010571412 0.005341823 -0.0052693263 -0.005023935 0.000909587 0.008974801 0.012033134 -0.0046911137 0.0049204105
or -0.00024509386 0.020829365 0.004242353 -0.000980527 -0.0033871322 -0.009511945 0.008970464 -0.022989862 0.003477198 -0.001334324 0.010564346 0.005214484 0.002229189 0.008951938 0.0028182694 -0.0063235513 -0.00028257995 -0.0057011624 0.0014892456 -0.0029453477 0.006619188 0.0073511167 -0.014696868 0.022069473 -0.017071271 0.0254445 0.011124735 0.0084790895 0.00303048 -0.017936906 -0.011532797 0.0049694125 -0.003460544 -0.004229163 0.021167839 0.0005410519 0.004314186 0.008089228 -0.00468167 -0.0017224987 0.022933045 0.0068704924 -0.015936637 -0.0022202104 -0.0005644027 0.009605269 0.003243214 -0.00047427532 -0.013143684 -0.018282667 0.018091563 0.008966144 -0.0016719542 -0.018381817 0.0036249217 -0.0017592276 -0.009056938 -0.0028909654 -0.0049748267 0.0042932206 -0.0029897548 0.004169281 -0.0043014726 -0.012712196 0.020755457 0.0041417624 -0.002427101 -0.016216159 -0.0010686098 -0.012525632 0.014749383 0.013496034 0.0045004734 -0.002305014 0.0022624233 -0.015539799 -0.0054441732 0.0023860969 -0.0032384458 -0.0051634163 -0.01194105 0.0029578279 0.0048011015 0.012848593 0.011926127 0.0055068373 0.016746266 -0.0062874034 0.013761849 -0.010043954 -0.011552528 0.010429533 0.0073423386 0.0033059944 -0.0035049086 0.002952659 0.011522839 0.012962787 -0.006424765 0.009567707
college 0.0064753164 0.013899452 0.000809344 0.005361248 -0.0039092684 -0.0052588014 0.002736217 -0.006858965 0.0073549827 0.0027484708 0.009985275 0.0061611924 -0.00015867858 0.0021128233 -0.00018181167 -0.00339241 0.0056232694 -0.0008546146 0.0033154644 -0.003041169 0.002163191 0.0053880233 -0.0037331297 0.005762069 -0.013216445 0.0100720385 0.010086393 0.0040756892 0.0033369241 -0.012522996 -0.007800771 0.008036923 0.00039698958 -0.0042567723 0.008228539 0.0032644863 0.0028433497 0.00368196 -0.0045079957 -0.0060244016 0.015631095 0.0041041877 -0.008004406 0.0022567469 0.00044741036 0.0014325998 -0.0028896348 0.0021327587 -0.008225857 -0.01380001 0.007254386 0.0063389936 0.0025666498 -0.007917144 0.004096515 -0.0014677366 -0.006817644 -0.0030003393 -0.006198712 0.004774114 0.0022173848 -0.002742549 -0.0039897044 -0.007352645 0.010878379 0.009566951 0.0017334486 -0.012373674 0.0036915054 -0.0055160886 0.007651034 0.009813552 -0.00011355369 -0.008255313 0.0017779323 -0.00765205 -0.0044198707 -0.0014909973 -0.0025973876 0.001181491 -0.00059366215 0.0061012614 -0.00048336855 0.00047185132 0.007790524 0.0058507617 0.008785249 -0.0082330145 0.008377809 -0.00097178837 -0.011209118 0.0024618192 -0.0036366147 -0.0020230727 0.0017286909 0.005626476 0.0022705065 0.011523627 -0.005731728 0.005322363
students 0.0006691932 0.010150701 0.004069272 0.00058409857 -0.00573116 -0.006535063 0.0077923653 -0.016333383 0.010560769 0.0020025221 0.009724116 0.0019905958 0.0070664505 0.003829654 0.0029910232 -0.0062441924 -0.0033378664 -0.0011813409 0.0040025627 0.004959655 0.009031365 0.008994067 -0.012716125 0.013708792 -0.013339482 0.024848387 0.007832146 0.012250923 -0.0024433846 -0.008512333 -0.009920852 0.0030867571 -0.0026019213 -0.0017255648 0.016044272 0.0048072822 0.0036157428 0.0073546018 -0.0021419716 -0.007019075 0.014968521 0.0046293763 -0.014636065 0.0036943676 0.0058661792 0.004186253 -0.005809665 -0.0042404043 -0.013902207 -0.014919432 0.010637781 0.0076467525 0.0042465753 -0.0080625 0.007959106 0.0010659895 -0.011848269 -0.0067957113 -0.0007435345 0.0013010957 -6.4054e-05 0.0019320433 -0.001161435 -0.00891739 0.011603178 0.0038016357 -0.00061327365 -0.014892175 -0.000964757 -0.00930328 0.015288798 0.006909394 -0.0027954492 -0.008140176 0.005220018 -0.01629737 -0.0024226757 0.0034233679 0.0021176478 -0.0031960094 -0.007771049 0.0060001924 0.0033551392 0.0060316157 0.015095559 0.001668096 0.0132629005 -0.00503222 0.014552155 -0.0074752793 -0.01300698 0.009206013 0.00038768697 0.0020607791 -0.0048079104 0.0051163156 0.0044162883 0.010153802 -0.0068880185 0.004652191
is 0.00715706 0.017070463 -0.0008243966 0.0052245953 -0.003993846 -0.0029816134 0.006528243 -0.022213297 0.011599643 -0.0012509787 0.004913949 0.008465103 -0.0012966827 0.010216915 0.0016466143 -0.008592388 -0.0026631986 -0.0037781086 -0.001621496 0.0033160213 0.0067134523 0.012375579 -0.0153374765 0.018844457 -0.016006963 0.023130704 0.014866013 0.005202766 0.00063557015 -0.015139545 -0.010365647 0.0050907945 -0.0029061963 -0.0045946673 0.012590778 -0.00015145756 -0.0025298356 0.0045930664 -0.007177558 -0.000511463 0.017478567 0.0007096234 -0.0163539 0.0053020115 0.004740032 0.0012843214 0.0004951035 -0.0051853196 -0.010966238 -0.02218662 0.015249255 -0.0005299771 0.005831341 -0.015993485 0.0056613996 0.0035716186 -0.010213658 -0.000911654 -0.009609869 0.0058416426 -0.0023932697 0.005691026 0.0013692367 -0.009042735 0.020746019 0.013938081 0.0013992065 -0.013758012 -0.0013135013 -0.016747378 0.014694026 0.008673378 0.0019954254 -0.008081687 0.0010854211 -0.01818104 -0.004649544 8.6521846e-05 -0.0015095162 -0.0045569944 -0.010128109 0.0028040938 0.006171819 0.0034720092 0.01433301 0.0012679812 0.013555688 -0.0059623118 0.009381517 -0.0068823923 -0.006278985 0.011363364 0.00088493375 0.0014252448 -0.005903896 0.002752171 0.0129257515 0.015173974 -0.0059444397 0.0058476883
offense 0.003700982 0.010536387 -0.0041167443 0.0041556824 -0.006767322 -0.0030111293 0.009163539 -0.011616146 0.0037581853 0.0016339906 0.009479658 0.010715046 0.002161818 0.005855508 -0.0020245765 -0.0045223865 -0.0045901863 0.0003244602 -0.0020425655 0.0055535454 0.0075663053 0.008352058 -0.009849142 0.015208592 -0.012394978 0.021969672 0.013416745 0.0027661743 0.0018890935 -0.0122387055 -0.0040848507 0.0059398944 -0.0019887758 0.000117564734 0.010356665 1.4162733e-05 0.0024580099 -0.000684878 -0.009289193 0.0029866549 0.010647092 0.0063772076 -0.013924731 0.0031509227 0.0016363212 -0.0011600873 -0.0033768998 -0.001872085 -0.011124526 -0.017508006 0.0067901243 -0.00089188264 -0.0017050315 -0.014708453 -9.610792e-05 0.0059771407 -0.004052788 -0.0058443476 -0.008720988 -0.0023584734 -0.0007459599 0.003229918 -0.0066858088 -0.0072052125 0.014817354 0.012728766 0.00589437 -0.010691329 0.00014884505 -0.003518438 0.006288234 0.0037711314 -0.0013448894 -0.0065129325 0.008008635 -0.016382903 -1.8604464e-05 -0.0002531909 -0.0040541235 -0.004929879 -0.013568843 0.001923927 0.010881199 0.005893019 0.007251504 -0.0012599982 0.01050075 -0.010652164 0.0057164235 -0.010298258 -0.0065015615 0.0011812729 0.006961857 -0.0021437234 -0.0057224287 -0.0022985458 0.004491943 0.013994486 -0.009610092 0.0039569954
a 0.00808174 0.022841543 0.0034805862 0.0057187886 -0.0036657138 -0.009726317 0.009856873 -0.022164244 0.007820712 0.005894202 0.008662832 0.0059093134 0.0076300246 0.010806533 0.0029613024 -0.0073109698 0.0007488176 -0.0042742775 0.0012980519 -0.00040119316 0.0150117725 0.005827845 -0.016622541 0.023474716 -0.018912854 0.023234187 0.015340682 0.0057656416 0.003414139 -0.01949233 -0.008418981 0.003466218 0.0006604999 -0.0013146996 0.01197218 0.0053396313 -0.001458899 -0.0011447774 -0.008817304 -0.0013882265 0.018794117 0.0022740914 -0.016696937 -0.0025968438 0.003976455 0.0034525313 -0.001415723 -0.0007921172 -0.013307261 -0.024116881 0.0162651 0.0005541841 0.0056857713 -0.015535197 0.0056806756 -0.0018538442 -0.008745349 -0.0026199466 -0.004736974 -0.002570036 -0.0006743951 -0.001890475 0.0007538507 -0.0034459156 0.017868772 0.012239996 -0.0020642004 -0.015574322 -0.002431389 -0.014353284 0.01592203 0.014093125 -0.00027010837 -0.0010613245 0.004765275 -0.011033241 -0.006859361 -0.004583706 0.004058081 0.000842293 -0.011667833 0.007532307 0.005476357 0.006784055 0.011314572 0.009457132 0.014417122 -0.011950229 0.014387681 -0.005958588 -0.009327486 0.010755518 0.0068905675 0.0017934053 -0.0018707534 0.0020529786 0.0105784815 0.014191632 -0.006192262 0.011456591
be 0.0008540545 0.012686338 0.0032705867 0.0027402637 -0.006179426 -0.005719222 0.005670085 -0.020151833 0.002227435 0.0019414708 0.0060832486 0.011502003 5.6055065e-05 0.013879128 -0.0014984207 -0.003059619 -0.0017174328 -0.0018991532 -0.003308207 0.00032516787 0.013128778 0.011052822 -0.01407634 0.015908334 -0.012537158 0.019738922 0.011276138 0.01137874 -0.00040889127 -0.01128173 -0.009604142 0.0008063925 -0.0056994963 -0.004578434 0.015888538 0.000844628 0.0026867534 0.0059360834 -0.006901023 0.0011215688 0.012187578 -0.00095330435 -0.013125256 -0.0024049433 0.0050836494 0.0004394139 -0.0044868723 -0.0028392358 -0.0148175275 -0.014883331 0.015872568 0.0025600288 -0.0023573034 -0.008650837 0.0075997985 0.002915098 -0.009927351 0.0019132566 -0.008299598 0.0037991046 -8.463074e-06 0.0017156317 -0.007703408 -0.009755055 0.01627379 0.010244988 0.002967285 -0.009673754 0.0017115733 -0.0094748605 0.010954656 0.008299961 0.00419036 -0.0014244019 0.0017265299 -0.009241432 -0.006310819 0.00058915955 -0.0013956852 0.0031182491 -0.0123729 0.002473525 0.0058124857 0.0052873488 0.016031412 0.0027956038 0.014909937 -0.007194829 0.012290834 -0.0041322154 -0.006867037 0.008530103 0.0070444564 -0.0015915688 -0.0033566838 0.0058288234 0.007181266 0.014256495 -0.0062603373 0.0032946558
1 0.004632707 0.022922045 0.0023148316 0.007226692 -0.0024130135 -0.00355912 0.012155672 -0.025706163 0.007135808 0.006912769 0.010766876 0.011342068 0.003951824 0.014861855 0.002784382 -0.008514458 0.0017913355 -0.0035268648 -0.0033774376 0.003251368 0.005563139 0.0044387556 -0.020049928 0.02399688 -0.01734196 0.024421671 0.0144423125 0.011667945 0.0047250907 -0.021808235 -0.015039625 0.011075726 -0.0042042118 -0.0010488227 0.015255095 0.0041089635 0.002751606 -0.0013085487 -0.006600429 -0.003705368 0.021715438 0.005872145 -0.020593986 0.002867428 0.0019217846 -0.0007930907 -0.0034010154 -0.010425941 -0.012081939 -0.019606572 0.014964825 -0.0010702279 0.0057394844 -0.012221601 0.00093815866 0.0051869266 -0.015022281 -0.005849406 -0.0016324632 0.0015362473 0.0031261146 -0.0033021693 -0.002976053 -0.0066920975 0.01942132 0.015580144 0.0043457057 -0.01986982 -0.0011646799 -0.008259017 0.009800885 0.01065035 -0.0013937401 -0.0048770313 0.0028578497 -0.016160842 -0.011221102 -0.0006640792 -0.005297188 -0.0036647092 -0.009256951 0.010376829 0.01159567 0.012556185 0.012785095 -0.0017685782 0.019428836 -0.006221136 0.007763473 -0.014491245 -0.0077657863 0.009802796 0.009138158 -0.005104951 -0.00067215215 -0.0022526446 0.009977007 0.013251596 -0.012017078 0.009437577
bicol 0.0023620566 0.011222385 -0.005129551 -0.002870482 -0.0034767045 -0.0020446174 0.0022518956 -0.0046979035 0.0036997532 0.0010677788 0.0028285976 0.008355227 0.0053005177 0.0076647424 -0.004604448 -0.0069775335 0.0023466537 -0.00095173676 -0.0019874277 -0.0032343091 0.0061677056 0.00031012364 -0.011899863 0.012838254 -0.009303638 0.01507855 0.0061791344 0.0003818161 0.0062137484 -0.006772488 -0.00806408 0.003678713 -0.0020245158 0.0010741971 0.010109578 0.004512321 -0.0028195647 0.005881444 -0.008377055 -0.0029464427 0.0061883028 -0.0017267204 -0.009258903 -0.004320537 0.0020162228 0.00429974 0.002280683 0.0009191343 -0.0073381937 -0.007696901 0.010561455 0.0029130538 0.0016010662 -0.011320312 0.00092875195 0.003382603 -0.0012021221 0.002896326 -0.0022892843 -0.003616394 0.0021227566 -0.0012816368 -0.00488431 -0.007225047 0.010839866 0.0074154143 0.0014293785 -0.003425257 0.00033285833 -0.011545577 0.011711886 0.002784928 -0.003260513 -0.0070766713 0.0012545163 -0.0069389697 0.0010986206 0.0023425252 -0.00037385075 -0.002475548 -0.0070783705 -0.0027747073 0.00593874 0.0030463592 0.005331287 -0.0024935044 0.009099823 -0.003473784 0.0033365085 -0.0053516636 -0.010133413 0.004029921 -0.0009903738 0.00029778745 -0.003268675 6.082409e-05 0.00019466672 0.010767799 -0.008874545 0.0006640052
dean 0.0009602048 0.0017204888 -0.0027995892 0.004919091 0.00057073706 -0.0007708847 -0.0021202525 -0.0047061983 0.002789148 -0.0024571011 0.0030447536 0.0040894467 0.006037673 0.0044356864 0.00086410635 -0.0018241777 -0.0030215026 -0.0021351925 0.0035933037 -0.00059825776 0.0012360943 0.0056453333 -0.0049606096 0.010998417 -0.009962479 0.013375089 0.007695123 0.0024340262 0.00049121614 -0.006830613 0.0018512886 0.0001938094 0.0021978903 -0.0039802063 0.0008262001 -0.0045306827 -0.0014693963 0.00170235 -0.005709658 -0.0051711006 0.008847 0.0027270296 -0.007930464 0.003667259 -0.0037756334 0.0019290032 -0.0006329769 0.0028431288 -0.0078979265 -0.01176847 0.005322116 -0.00065148727 -0.0018585494 -0.0009252064 0.0065822667 -0.0029649616 -0.0058612865 0.0006798235 0.0019417846 -0.0018424669 -0.005261964 0.004829889 -0.004916642 -8.627103e-05 0.008257235 0.0010470845 0.00070008327 -0.009192606 -0.002730532 -0.0046272976 0.0045056 -0.0012049879 -0.0017019664 -0.004268339 0.003284595 -0.0035517754 0.0012486299 0.00038999724 0.0022237722 -0.0002627479 0.0006272381 0.005059166 0.002911519 0.0075326627 0.009524413 0.0047941133 0.0015801063 -0.005489604 0.007409007 0.000612382 -0.007415046 -0.00016618644 0.0011877061 -0.0025279687 -0.005472561 0.0053827376 0.004761483 0.006121632 -0.008196985 0.0040613273
contact -0.0006450915 0.007563454 -0.0039021426 0.0057287244 -0.0021246981 -0.005790658 0.0007532941 -0.0034592466 0.00065627956 0.0044874847 -0.00026685375 0.0028070372 0.0040571983 -0.00041160168 -0.0044148276 0.0010956768 0.0039114724 0.00016390512 2.556868e-05 -0.0030536752 0.0011227736 0.0062353485 -0.008990681 0.0035436524 3.36525e-05 0.009407127 0.0043027615 0.0074443724 -0.002954328 -0.004790038 -0.0024541817 0.0059560267 -0.0050461325 -0.003553876 0.0022936822 0.002736994 0.003853649 -0.002198524 -0.00048405043 0.0027076874 0.005478242 -0.002416655 -0.0051049516 0.0036671753 -0.0043236353 0.00029539358 -0.00025791704 -0.00565234 -0.0010572921 -0.0056083235 0.0079444535 0.0029929203 0.0016371483 -0.0043684146 0.001849677 0.0047723697 -0.0029702631 0.0033810332 -0.002618471 -0.0031130987 -0.0012277224 0.005222946 -0.003579931 -0.00037794973 0.0053704195 0.0024247202 -0.0009778859 -0.00994434 -0.0050651673 -0.007420626 0.008984353 0.00041231784 0.0028075716 0.0015093605 0.0056261397 -0.007753588 0.0018930279 -0.00036424276 -0.0043242862 -0.004229507 -0.0012886669 0.0034416828 0.00303037 -0.0019219996 0.008539548 -0.0017376876 0.0023882 -0.0064546308 0.001781198 -0.0055968356 -0.0017613057 0.0029908468 0.0015804734 0.0038917519 -0.004029544 0.005651329 0.0045878575 0.006049896 0.0017887547 0.003592182
are 0.0031949172 0.01855958 -0.0027704707 0.0011245004 -0.004052995 -0.0052575693 0.0065454636 -0.01699863 0.009205847 -0.0016374695 0.011005287 0.004194641 -0.0003205693 0.009422225 0.004790993 -0.011004238 0.001601153 0.0006373112 -0.001091183 -0.0027113326 0.012129273 0.008560423 -0.015122665 0.013817718 -0.015268455 0.022255125 0.0122148795 0.008131505 0.0026766597 -0.0153450575 -0.008560957 0.0071233446 -0.0058005187 -0.0020186696 0.010546548 0.00091386057 0.0020209237 0.006371566 -0.0055403495 -0.006839722 0.019616842 0.0031073468 -0.012605675 0.0037933867 0.0011928913 0.006235324 -0.0005241395 -0.0037351297 -0.008695198 -0.019147802 0.013287946 0.002238296 0.0036941357 -0.013483561 0.004702918 0.00016182436 -0.0099444995 -0.0022059656 -0.0024666528 0.0008872458 0.0019703656 0.0037009215 0.0016817173 -0.0031651736 0.013183816 0.008818469 -0.00020968741 -0.018045966 -0.0034270613 -0.016704356 0.015267903 0.012934379 0.0015155409 -0.009153811 0.007814332 -0.012252559 -0.0022594794 -0.005012882 0.000879704 -0.0027659896 -0.0075018997 0.0058097546 0.0021396403 0.009463581 0.010602921 0.0007430802 0.014496343 -0.007278322 0.013135178 -0.00466485 -0.0069557857 0.006585997 0.005491482 0.005144025 -0.004631686 0.0054904493 0.011007364 0.015618885 -0.012921262 0.002862932
registrar 0.0049549257 0.007035231 0.0039133937 0.0054124803 0.0022179775 -0.0026642825 0.004042701 -0.009972789 -0.00090144767 -0.00271608 0.007602364 0.0025664011 -0.00035761108 0.00797181 -0.0017899877 -0.0058727553 -0.002466781 -0.00632129 0.0049126013 -0.003659588 -0.002505898 0.00014798011 -0.004973253 0.0031357822 -0.004032501 0.008025439 0.0069233146 0.007459388 -0.0017681689 -0.0016383213 0.00034586422 0.0009936511 -0.0043289787 0.0007944782 0.00038194555 0.00083440944 -0.0030968094 0.0027377296 -0.003815547 -0.0018740603 0.010650692 0.0008165138 -0.005936276 0.00070666004 -0.0044070147 0.003939281 0.0015856546 -0.0028174387 -0.0064482586 -0.006544372 0.008493929 9.3225746e-05 0.004651057 -0.00011623385 0.0064221644 -0.002183267 -0.003508079 0.00121055 -0.0047630076 -0.00432116 0.0036776697 0.0017431963 -0.0038714062 0.0016092075 9.312707e-05 0.0030957551 0.0024966612 -0.010051999 0.0043734936 -0.0009380425 0.003956849 0.005754596 0.0036190064 -0.0069187623 0.0010307978 -0.00540441 0.001954731 -0.0022444667 0.0051751225 0.0040002996 -0.0024258005 0.002248655 0.002757475 0.0057489043 0.0033857466 0.0020877162 0.0073425835 0.0018355619 0.0055479947 -0.007498099 -0.0055564563 0.005077124 0.002085155 0.0041358573 -0.005514696 -0.0040516574 0.00278157 0.0004045471 -0.0064921365 0.006425582
shall -0.001921418 0.017925816 -0.001334446 0.0057705445 -0.0008867245 -0.0053462065 0.0042922636 -0.017763129 0.006225353 -0.0014740617 0.010654666 0.005215129 0.0038315228 0.012112651 0.0038254275 -0.011550927 0.00039413213 -0.0015058646 -0.0015207798 -0.0037325525 0.011964725 0.010119427 -0.008977444 0.013282718 -0.014183789 0.029170979 0.012569063 0.011071879 0.004609131 -0.012297251 -0.010304601 0.0031753452 0.00041570567 -0.0050246087 0.014131677 -0.002933712 0.004409272 0.006129352 -0.005731482 -0.006572196 0.022418756 0.00045258453 -0.015789105 0.004171365 0.0061989245 0.0035514748 -0.00034714694 -0.0032759435 -0.017261842 -0.019574918 0.011830712 -0.0006881213 -0.0030820009 -0.009835728 0.007069643 0.00093287183 -0.010840327 -0.0061785784 -0.0100694345 0.0015638501 -0.0016132771 0.0010806113 -0.006574999 -0.0037861108 0.020594014 0.008430538 0.005273186 -0.015239846 0.0042269886 -0.01633309 0.010352849 0.012471624 0.0042209835 -0.009444135 0.0049781566 -0.013224017 -0.010513157 -0.00021362753 -0.0009321172 0.0031297149 -0.014863041 0.0025909299 0.0038484037 0.003826929 0.014711662 0.0039056502 0.010290718 -0.009853752 0.009662257 -0.01238849 -0.014399866 0.0050998502 0.003201852 0.002704826 -0.006403396 0.0045694397 0.007946057 0.0113796815 -0.0099032335 0.005681929
library 0.006028635 0.0069634495 0.0005850476 0.000805206 -0.0011433271 0.0013885635 0.0027736505 -0.012192015 0.004949398 0.006281912 0.010359448 0.0031563395 0.0009901881 0.006293325 -0.00040522945 -0.008899046 0.0059322855 -0.00014983342 -0.0003382825 0.0020125792 0.005614338 0.0043899124 -0.01394441 0.0056855297 -0.010969541 0.02032435 0.010525407 0.0011427049 0.005963134 -0.009667785 -0.004434692 0.0072850436 -0.0021653508 -0.004790459 0.009871838 -0.0006342661 0.004168938 0.0042256257 -0.0023298722 -0.00422579 0.010806899 0.0011393973 -0.005363507 0.0002336591 -0.0008933265 0.005047854 0.0003870374 -0.0044618696 -0.0072776824 -0.014696804 0.008275662 0.001523407 0.0051299795 -0.010955614 2.4933706e-05 -0.001971298 -0.0021196492 0.0006719457 -0.0030820507 0.0029608142 -0.004749742 0.005093651 0.0023303265 0.00048644398 0.015090868 0.005787185 0.0038862454 -0.011370378 0.0049567805 -0.007540437 0.010839504 0.0033895394 0.005482489 -0.0006299684 0.0056735864 -0.010446177 -0.007965301 -0.0034974208 0.0013317186 -0.0022329264 -0.005095728 0.0078058355 0.007480664 0.00848882 0.012504394 0.0069835237 0.010766394 -0.005931351 0.012735893 -0.006487647 -0.0057851523 0.0037520137 0.00553204 -0.00030122773 -0.001839993 -0.0010369084 0.01001735 0.009731906 -0.008150125 0.006045943
suspension 0.0006721163 0.0195177 0.0030099002 0.0040373006 -0.0018923023 5.168682e-05 0.0060672075 -0.013148743 0.009652203 -0.0006592234 0.002945465 0.0049287095 -0.001585322 0.012706217 0.0007328692 -0.0057543227 0.004699917 -0.0046546017 0.0024859847 0.0030282892 0.011821819 0.0028146924 -0.01542566 0.012032232 -0.012125618 0.015610276 0.011993551 0.008562438 0.006793564 -0.0155123165 -0.004785061 0.0069079483 0.002521084 0.001994856 0.011348517 -0.002153966 -0.0038457178 -0.0020147238 -0.0032369792 -0.004306933 0.017904522 9.343839e-05 -0.0064426702 -0.002830516 0.0010860589 0.00086405146 0.0013036941 -0.008225672 -0.0049457387 -0.018204015 0.013961997 0.003914042 -0.0009105409 -0.013877109 -0.0024347426 0.0050861565 -0.012758972 -0.0032326246 -0.0029141123 0.0061865146 -0.0011206807 -0.0013473707 0.0021132175 -0.0060846144 0.014030806 0.0066116774 0.0054399753 -0.013721784 -3.6403098e-06 -0.005147277 0.0048580244 0.011219735 0.0005563636 -0.004775752 0.006062535 -0.015059197 -0.0023461524 -0.00074257876 -0.00045317935 -0.006917057 -0.013741457 -0.0002928392 0.005773763 0.009448039 0.006180055 0.002318025 0.009850537 -0.0068583353 0.0078124143 -0.011930901 -0.006758806 0.0005209611 0.0022940673 -0.0009688237 -0.008192867 0.00018715294 0.0071899993 0.00975707 -0.0070699616 0.0053434097
student 0.004323802 0.01637086 0.0039129574 0.0039762384 -0.0028833803 -0.006397543 0.0010953639 -0.015260926 0.0026211697 0.0040538996 0.009578222 0.010215509 -0.00091724726 0.004965548 0.002033634 -0.011450514 0.00033407414 0.00051869557 -0.0028543293 -0.00077978865 0.00799027 0.005835934 -0.0076582283 0.014306997 -0.010693361 0.024817705 0.013505437 0.0059744576 0.0015925854 -0.016481575 -0.0056803306 0.005205977 -0.0061025373 -0.0066734967 0.00892492 0.0051754965 -0.0033591222 0.00012896598 -0.0016891552 -0.0046736184 0.011659327 0.0010626735 -0.013354543 -0.0032421025 -0.0028779618 0.008205492 0.0019887602 0.0002028595 -0.011548793 -0.011461122 0.009678635 -0.00012834472 0.0051692436 -0.011565608 0.008929422 0.0026619402 -0.0101619605 0.0019732083 -0.0016651165 0.0025266013 -0.0050532944 -0.00072537235 -0.0019805531 -0.0075032837 0.014470382 0.0036747702 -0.0021418734 -0.014147572 -0.0028048293 -0.013921775 0.015739515 0.012941873 0.0017118142 -0.00011479525 0.00926394 -0.007016823 -0.006953266 -0.0028180147 -9.458723e-05 -0.0024700372 -0.0058959164 0.0010113411 0.008587371 0.009868123 0.011823718 -0.0003967688 0.0122355865 -0.0011446235 0.009318009 -0.0018489413 -0.0106376875 0.002799631 0.006011282 0.0035606308 -0.003867035 0.004111331 0.010636554 0.006008516 -0.0099149635 7.509926e-05
email: 0.0027165296 0.013378025 -0.0048331586 0.004334232 -0.0056190263 -0.002203861 0.0032157055 -0.008454162 0.006161838 -0.0032213624 0.00074853667 0.0023934287 -0.00030051847 0.0033287168 -0.00016195064 -0.006705341 0.0051876563 -0.006617405 0.0035530021 0.00382697 0.0039394125 0.007831923 -0.0068413257 0.013351374 -0.012070045 0.016128771 0.0045629824 0.0071910415 0.001239287 -0.0032797796 -0.008940075 -0.0005279575 -0.0008305545 -0.0018114697 0.0033027125 0.004180196 0.0038219474 0.004532329 -0.007282059 0.0043319883 0.013932542 -0.0017332247 -0.010679542 0.0018232393 0.00584345 0.0055416827 -0.0049853055 -0.0060512447 -0.0017747269 -0.0057195863 0.010737677 0.00464412 -0.0024403709 -0.011380601 0.006900839 -0.0037448644 -0.005229881 0.0039678924 -0.0073854974 -9.013321e-05 0.0013678422 0.0019472179 0.0029224597 -0.001954763 0.011304393 0.006228245 -0.0028611098 -0.0062801526 -9.7820724e-05 -0.0071827765 0.005699406 0.0028123022 -0.0033839452 -0.006003456 0.0034641027 -0.008545938 -0.007495125 0.0012954064 0.0013955617 -0.0013466708 -0.008916465 -0.0020532345 0.006718008 0.006047666 0.003159044 0.004421565 0.0073998743 -0.0058761523 0.010025798 -0.009705372 -0.008477438 0.005029336 0.00094231515 -0.0043368465 -0.0062253363 -0.0013230686 0.0015086612 0.009678088 -0.009063423 0.00587243
with 0.006590962 0.009872134 -6.499453e-05 0.0061112014 -0.006665357 0.00060083723 -0.00014545268 -0.016006995 0.0090311635 0.0030874202 0.003708339 0.011592232 0.005986106 0.012033635 0.00015412553 -0.0049998574 0.0009796171 -0.00410036 -0.0034089847 0.0021179537 0.011093743 0.0038036148 -0.014205527 0.017190665 -0.019605415 0.020831108 0.010205912 0.010088615 0.0058809775 -0.015867935 -0.0033110555 -0.0006966527 -0.007836722 -0.0065066293 0.009616525 -0.0027328916 -0.0008951619 0.002454723 -0.006811665 -0.0021713825 0.016190967 0.0018714577 -0.011605867 0.0026845646 -0.0031896306 0.008278096 -0.0025594982 -0.0052979644 -0.013552661 -0.015097699 0.009530237 0.0035330802 -0.0022182844 -0.015367271 0.003330402 -0.000739527 -0.0059507303 -0.004854789 -0.0047521736 0.003403268 0.0036718233 -0.002088057 -0.0012261774 -0.008151854 0.008462315 0.0036409718 0.005197255 -0.007979202 -0.0008191692 -0.013284234 0.008317884 0.0076317657 0.0010026644 -0.0035223586 0.001521393 -0.010803855 -0.008602305 0.0015190619 -0.002994395 -0.0039666384 -0.009153039 0.0062321937 0.0036726536 0.0047530793 0.016119571 0.0003535338 0.011674952 -0.0030797326 0.015708804 -0.004075668 -0.010456777 0.0019322294 0.0016800944 0.0023065808 -0.00089397153 0.007116728 0.010436276 0.012009946 -0.0028614567 5.25048e-05
from 0.00042850597 0.01610368 -0.0010322824 0.0054653864 -0.0070827655 -0.0073420554 0.009648209 -0.017309215 0.0045636212 0.00449761 0.010774533 0.004031438 0.006382574 0.011959426 0.0027108232 -0.008616118 -0.0029442287 -0.0053723534 0.0002375269 0.0025425567 0.004131474 0.0053171157 -0.015592222 0.012219877 -0.013824531 0.023512619 0.009590236 0.0069098044 -0.0013261652 -0.016116647 -0.006490025 1.9481922e-05 -0.004024541 -0.005680255 0.015629672 0.0007552235 -0.005001989 -0.0017606807 -0.0063661947 0.00086204085 0.021364111 -0.001774568 -0.016472839 -0.003670506 0.00060313195 0.0067251488 0.0017023128 -0.004398775 -0.0076326574 -0.0201148 0.016687838 0.006060669 -0.0019615667 -0.00795232 0.008646825 -0.0026084448 -0.0115578035 0.0006835772 -0.0010727015 -0.00010366101 -0.0011469097 0.0064687305 7.365734e-05 -0.008682323 0.016884811 0.011095646 0.0025094864 -0.012758577 -0.0020806426 -0.009044222 0.016070552 0.006220111 0.0016773103 -0.00018662252 0.0068853237 -0.013126007 -0.0095211845 0.0023120677 0.0013509146 0.0017390458 -0.013092277 0.002412054 0.0015178364 0.011183041 0.007576196 0.006438023 0.015585293 -0.010042726 0.0069383592 -0.0040326933 -0.004437392 0.009151525 0.0033755533 -0.0023277618 -0.004212853 0.0021162003 0.008149123 0.008797223 -0.0025255296 0.010218036
by 0.00019140798 0.014165636 0.0036131095 -0.0019863301 -0.003314311 -0.0032232495 0.008605346 -0.011482981 0.010287327 0.004066839 0.004047129 0.00290632 0.0020350032 0.0062794075 0.00021114129 -0.011078893 0.0025185356 -0.0037441691 0.0051916 0.0031192093 0.007032052 0.00922271 -0.015480352 0.016815647 -0.017737864 0.019017324 0.014564876 0.0047377865 0.003336056 -0.014434887 -0.0029139256 0.0036252637 0.0015877736 0.001914481 0.011179412 0.005227561 -0.0006629377 0.003539574 -0.005018762 0.0004531475 0.017752368 0.0064813304 -0.014251465 0.0032746638 0.0003159081 0.00011624004 -0.0009418856 -0.0023029826 -0.012530523 -0.0208439 0.015056132 0.00045310374 0.004379049 -0.016230369 0.001743638 0.0027057638 -0.0028444403 -0.0013640891 -0.008071298 -0.0031875796 0.0013312215 0.0067290124 -0.00421681 -0.0034505841 0.008801659 0.0038177464 -0.0014684373 -0.012611871 0.0018338645 -0.014952703 0.008102947 0.0058558397 -0.0036327385 -0.0024611792 0.004199914 -0.013741475 -0.0007735097 -0.0051160636 -0.0044134744 0.0044665686 -0.00799426 -0.0015999525 0.0067611337 0.00617596 0.009500237 0.0041023036 0.013739133 -0.009635753 0.011072626 -0.010974536 -0.007209913 0.008589326 0.001322148 0.0048016226 -0.00199808 0.0015427287 0.007755695 0.0145077845 -0.004770447 0.0019073406
6 -0.003259431 0.020594925 0.0009422629 0.0036558423 0.0011304567 -0.004769123 0.009421557 -0.020740444 0.0049011735 0.007813048 0.0061250557 0.006246682 0.0009739035 0.007318596 0.0025088298 -0.0075134384 0.0006346061 -0.0039661936 0.0032444238 0.0028798147 0.0053263437 0.0005005623 -0.015413953 0.012774879 -0.011591882 0.023844765 0.014662675 0.0058576358 0.0018063314 -0.0087134 -0.008697752 0.0076940684 0.0019594647 -0.005470221 0.017411264 -0.0035702952 -0.0013790636 0.0027686714 -0.00019996481 -0.00032783655 0.012875038 0.0065482226 -0.012430706 -0.00333905 0.002684655 0.0026721975 0.00090796844 -0.0027870059 -0.009739574 -0.020050908 0.0073294993 0.0037165426 -0.0032505845 -0.016408307 0.0042592767 0.0030063584 -0.0037958287 -0.0040940405 -0.0050600003 0.0020251232 -0.00012674199 -0.0019595856 -0.0007887076 -0.0109071415 0.015425566 0.005899184 0.0025989367 -0.012784649 -0.0015944086 -0.0056383396 0.015114577 0.0074373833 0.004844473 -0.0023577572 0.009236766 -0.0076914346 -0.009781199 -0.005007191 0.003670054 -0.0012019422 -0.013989518 0.0058744103 0.005490591 0.0043056533 0.014033806 0.0004917224 0.014197214 -0.008399131 0.0071037393 -0.0031467532 -0.0118369665 0.008568807 -0.00037720375 -0.0034590613 0.00024550376 0.0044921534 0.0044767335 0.010097762 -0.0031952052 0.0019518638
school -0.0030289916 0.014559654 -0.00045806536 -0.0019770474 -0.006713799 -0.0013391064 0.0034231073 -0.014097395 0.001603266 -0.0015807534 0.009032402 0.009819172 0.003648577 0.008703119 0.0026296522 -0.009367481 0.0043795276 -0.0040730224 0.0001056829 0.0010241535 0.010123443 0.0071401424 -0.0132629825 0.014796579 -0.008582232 0.015293131 0.0070083304 0.009617548 0.006618859 -0.004838796 -0.005372619 0.0014430841 0.0015619054 -0.0017377281 0.00677996 -0.0011038694 -0.0022409693 0.002404735 -0.0067692525 -0.0045153513 0.014225808 -0.0013582717 -0.0075873137 0.0042621004 0.0033185245 0.0074438853 -0.0037982159 -0.006866142 -0.0027280368 -0.009422136 0.007845689 -0.00018381525 0.0019011281 -0.010147807 0.0035999774 0.0038664478 -0.004426936 0.0033256423 -0.007782001 -0.002552087 -0.003424679 0.0037996573 -0.0017578981 -0.007404758 0.015107999 0.0020029398 -0.002565219 -0.011505935 0.0037270496 -0.006887525 0.012770199 0.009666321 -0.0011697295 -0.0076709692 0.00390834 -0.005893779 -0.0071465513 0.0014867883 -0.0044334875 -0.0013310679 -0.0108334655 -0.00056978787 0.006879963 0.0075468407 0.0121255005 -0.00038533215 0.011592373 -0.0017162354 0.006731897 -0.0043932563 -0.0034903658 0.009829417 -0.0003618758 0.004497518 -0.0002883413 0.0008027799 0.0041161273 0.009307856 -0.0007119205 0.002554361
you 0.0032651194 0.013161728 0.0011695497 -0.0016015639 -0.0024367254 0.00018274426 0.008035859 -0.010459226 0.004817463 0.0034339183 0.002030353 0.0112807285 0.00086975435 0.003234054 0.005204 -0.008606529 0.0012208954 -0.004515789 -0.00442876 0.004501285 0.011844244 0.0035234864 -0.007711233 0.010572317 -0.018146213 0.020337034 0.010486766 0.009191224 0.004725886 -0.012051416 -0.004183239 0.00619873 -0.0029729332 -0.0015774134 0.015784882 -0.0021656349 0.0032618276 0.0011545757 -0.00046764096 -0.0014347263 0.013766497 0.0035262264 -0.007214685 -0.0028239666 0.0060163355 0.0013136063 -0.0035800417 -0.0055852616 -0.0112238275 -0.0135678975 0.0110470755 0.0010837152 -0.0037469515 -0.013639475 -1.0318761e-05 -0.003704792 -0.005316699 0.003129482 0.00014316718 -0.003952896 -0.0001357779 0.0040913075 -0.00019706353 -0.0018711135 0.011531207 0.0115361335 0.0053149313 -0.01616755 0.0013444754 -0.009223454 0.009559709 0.012296619 -0.00089040294 0.001277752 0.0072539076 -0.009166206 -0.0005870565 -0.0013504606 -0.0038255486 0.0018368494 -0.008471795 0.004981092 0.004532235 0.009372091 0.012400057 0.0056227474 0.011281642 -0.0014637298 0.010204859 -0.00855276 -0.009883486 0.0038218433 0.0019229543 0.0021804206 -0.0053291502 0.0051138117 0.010564116 0.014493813 -0.0052594356 0.0060790973
first 0.0038300504 0.013310397 -0.0008852776 0.004901877 -0.004091358 -0.00088180427 0.0068162866 -0.012215979 0.0041959756 -0.0010612223 0.004759485 0.001343804 0.004613804 0.00094000914 0.0040434627 -7.662799e-05 -0.0040215296 0.00093699613 0.0015613663 0.00206255 0.002829084 0.0004246038 -0.011558688 0.0110656805 -0.0071811806 0.008047456 0.0048274123 -6.560699e-05 -0.0038058439 -0.012324581 -0.009022925 -0.0015222484 -0.0048423093 -0.0037325325 0.0061270264 -0.004045493 -0.004123986 -0.002926508 0.00022031741 -0.005505698 0.008673339 0.005804309 -0.0024458617 -0.00015925152 -0.0035124 0.0019903472 -9.862815e-05 0.0022182544 -0.009662172 -0.0047347494 0.0028157244 0.0034334452 0.00073300727 -0.0078912545 8.927645e-05 0.0013797334 -0.0004914448 -0.0060859164 -0.0028616735 -0.0026418848 -0.003004928 -0.0004020727 -0.0066871066 0.0003397154 0.007852059 0.0062035318 -0.00063739036 -0.0063142087 -0.0036273405 -0.009434968 0.009420136 0.0052884263 -0.002253577 -0.0050951005 0.005937388 -0.0028887144 -0.0030145384 0.0009356303 -0.0029981453 0.00044889768 -0.0054949205 0.0005682488 0.0039384663 0.008335307 0.0063275024 -0.0033503447 0.009111135 -0.002508983 0.005729548 -0.005400997 -0.0075462665 0.0070075425 0.0004637481 -0.003421188 0.00034939442 0.0022026375 0.0039142636 0.003980692 -0.0025618575 0.001400832
day 0.003440275 0.014884268 0.0015776568 0.007034163 -0.0031786535 -0.007823796 0.0058356253 -0.009667558 0.009170412 0.0016975342 0.0051990496 0.007825294 0.005317289 0.0045618247 -0.00089506595 -0.0019137857 -0.002382951 -0.0017617198 -0.0023711685 -0.0036679555 0.010305785 0.002325618 -0.011726065 0.017491518 -0.015706778 0.020990353 0.010520093 0.0055850465 0.004070495 -0.015910681 -0.010329204 0.0047367313 0.0022531112 -0.0061446037 0.009374665 -0.0010415057 -0.0042603915 -0.00083721214 5.6592122e-05 -0.0020944362 0.0108532095 0.0008315002 -0.009464337 6.844469e-05 0.0050226683 0.006699804 0.0025081527 -0.0022593006 -0.013409143 -0.0115965465 0.0089114895 0.0008083349 0.0008304487 -0.005667655 0.005043921 -0.0031371282 -0.0112601435 -0.0074725277 -0.00769354 -0.0026785035 -0.0027043673 0.00196097 -0.0075579192 -0.0008765712 0.014061246 0.004849348 0.0013899993 -0.009075478 -0.0029570865 -0.006859232 0.010561184 0.010411523 -0.0027548305 0.0003061241 0.00443926 -0.012672299 0.00072680716 -0.0025449137 0.0034453925 -0.0043067047 -0.011140232 0.0004974306 0.005302351 0.011121355 0.011017417 -0.00043444146 0.005761508 -0.0025119088 0.008940011 -0.010905214 -0.003139144 0.0032290556 0.001622534 0.0016910966 0.00073133706 0.0042129857 0.010939042 0.011927287 -0.007264089 0.009139239
not 0.002201979 0.014228654 0.0034310794 -0.00068793935 -0.008176225 -0.0023288617 0.009395906 -0.016411148 0.002198302 0.0031846205 0.009568848 0.008226024 0.0065473 0.00856686 0.0022030626 -0.0069406624 0.0057293475 -0.0050494024 -0.0021269114 0.0019255815 0.007730266 0.007888134 -0.009263 0.01602113 -0.01605634 0.018643655 0.006424355 0.011981893 0.006017326 -0.014825277 -0.0039249724 0.002979565 -0.00016971581 -0.0036179102 0.018148113 -0.0017735139 -0.0032658367 0.0068725017 -0.009361897 0.00048817034 0.017041195 0.0037218225 -0.01239589 0.001815766 0.0051799845 0.008207228 -0.004529744 -0.0064116796 -0.012515979 -0.02240074 0.016896106 0.00811389 -0.0017134694 -0.014058409 0.0029081833 0.0052318648 -0.011235542 -0.0054644733 -0.00917189 -0.0015452615 -0.0027949044 -0.0021845985 -0.006582772 -0.010431413 0.01812882 0.0035928076 -0.00018060794 -0.010581327 -0.0026618673 -0.011541597 0.013408612 0.013427345 0.00466395 -0.0053221826 0.008816376 -0.017001525 -0.0016827063 -0.005459262 -0.00059375865 0.004309599 -0.010751295 -0.0010060428 0.0034817418 0.006522857 0.007891449 -0.0008609648 0.011408687 -0.0026704252 0.014306694 -0.011514963 -0.005693039 0.0028099304 0.007173125 0.004269981 -0.00727867 0.0046851356 0.009119568 0.014143802 -0.003219115 0.004941006
telephone 0.004995459 0.006679145 0.0040890765 0.0009686602 -0.0032697194 0.0027176961 -0.00035358543 -0.008882239 -0.0019350109 0.0014616097 0.0028444205 0.0010210596 0.004604513 0.007903663 0.0046247477 -0.0009789836 0.0004045577 -0.005274922 -0.00010804895 0.0045673763 0.0035438726 0.0046986872 0.00033656458 0.00907914 -0.009637568 0.013354552 0.006234361 0.0068194056 0.0045988085 -0.004126783 -0.0037164227 -0.00014983909 -0.0007774053 0.002186295 0.009437463 -0.0042703655 -0.0027784843 -0.0042433706 -0.00064972223 0.0043962705 0.0041283052 0.004246369 -8.761998e-05 -0.0021397332 0.0015618628 0.002176588 0.0021098272 0.0031020308 -0.0070919315 -0.008774503 0.00790637 0.000976908 -0.000610288 -0.006550888 0.003786616 0.0023733475 -0.0031684865 -0.0008521906 -0.0039451513 0.0035959175 0.0050064297 0.004880094 0.0003921589 0.0028253717 -0.00030151493 0.005494917 -0.0035419492 -0.00460873 0.004436259 0.0009871508 0.004985932 0.004708704 0.004197399 0.0027294068 0.0034596035 -0.0018529524 0.0032623576 -0.003972988 -0.00077846565 0.0042527425 -0.0056713 -0.0034285102 0.005539462 -0.0016549873 0.007371325 0.0045566023 0.00475383 -0.0063245124 0.009951655 -0.0070823645 -0.0077201193 -0.0005136838 -0.001596268 0.0027097203 -0.0043077683 -0.0043300735 0.002766962 0.007752571 -0.0054226685 0.0019881246
(052) 0.002669629 0.010598606 -0.0019526911 -0.0004235029 -0.0061033973 -0.0034432902 -0.0025778702 -0.01087469 0.00018346717 -0.0040032677 0.0051785344 0.004106733 -0.00088347855 0.0065815407 5.8190923e-05 -0.004605051 0.0060781236 0.0015394598 0.0011931407 -0.0037943935 0.008710313 -0.000781322 -0.0069632633 0.0039414237 -0.011680563 0.0076644956 0.0055923397 7.926872e-05 0.0008977943 -0.0030674944 -0.005457112 0.0012064645 0.0042245565 -0.00532634 0.007976599 0.0032133076 -0.003608089 -1.6150027e-05 -0.00079623994 0.0025654566 0.0057601277 0.0013177639 -0.002569358 -0.0022556945 -0.00024135209 -0.0030335104 -0.0021341539 -0.0043451604 0.00019238229 -0.011440795 0.005048382 -1.1703138e-05 -0.00079014443 -0.008517557 0.0030623218 -0.0013060756 -0.0045088897 0.000561852 -0.0011081025 0.001515268 0.004048504 -0.00015963361 -0.0051203 -0.007920287 0.0063769687 0.0020734996 0.0031940641 -0.009912574 0.0025143346 -0.0052215634 0.0041820672 0.008748235 0.0041409996 0.00067221693 0.004321263 -0.009799308 -0.0017733212 3.501065e-05 0.00519949 -0.005735105 -0.008404585 0.004279522 -0.00085893297 0.007307886 0.0086446805 0.005686766 0.010764283 -0.0058844495 0.008115893 0.00068989396 -0.0010547899 0.0035362246 0.004829748 -0.002416261 -0.0067957803 0.00350276 0.007870264 0.0037019446 -0.009103936 0.007314863
am 0.0063984976 0.010691176 -0.0024217097 0.0062962137 -0.005535535 -0.00015374877 0.009316267 -0.022628943 0.008553964 0.007230647 0.0019876598 0.0032820727 0.00045550521 0.0047938246 0.0005049173 -0.009006462 -0.0017078544 -0.008360594 0.0030997319 0.0011209847 0.013431599 0.0009269912 -0.008508274 0.01897911 -0.015201489 0.027702838 0.010195211 0.004622938 0.002105173 -0.01864102 -0.011333145 -0.0013036205 -0.005859907 -0.00062631874 0.011029543 -0.0028412866 0.0008418643 0.0035009393 -0.008244247 -0.0041403705 0.01513184 0.008102449 -0.0072246 0.0013183228 -0.00032076603 0.005202081 -0.004765822 -0.0032783614 -0.014350048 -0.021237241 0.015781494 0.0008341444 0.0047641783 -0.017683966 0.0039956565 0.00032853402 -0.0062567554 -0.0072449003 -0.00052523206 0.0070282854 -0.0031392938 0.003492843 -0.0039158743 -0.009434338 0.019071074 0.013106105 -0.00052793603 -0.008866808 -0.0038756423 -0.009765521 0.018942088 0.015171226 0.0047651334 -0.0048259194 0.0063220733 -0.014263959 -0.0059891357 -0.0023058555 0.004280997 0.0043425933 -0.0070583546 0.0055136783 0.0057443944 0.001311738 0.0140635185 0.0007809369 0.011302587 -0.0077347998 0.012438695 -0.0028544087 -0.012770838 0.011234562 -0.0009911886 0.0062109022 -0.010002154 0.005562427 0.0057397634 0.0057171574 -0.0067783906 0.003762626
dismissal 0.001399732 0.005442398 0.0037928035 0.002431129 0.0010699484 -0.00082768756 0.0028032372 -0.006427763 0.0069477158 0.002853057 0.00089346996 -0.0013633622 0.00046041104 0.0019502041 -0.004224517 0.002381235 0.0015593333 -0.0022357255 -0.0022674364 -0.0042504445 0.007421992 0.0034951507 -0.005089109 0.008345772 -0.0040006116 0.0042681233 0.0022748315 -0.00022338201 -8.056296e-05 -0.006328827 0.000699432 -0.0016187817 0.0040785237 -0.0049485187 0.008922365 0.0044526244 -0.0039222743 0.0013554745 -0.0002820017 0.0020372842 0.0032235729 -0.00036033327 -0.00120449 0.0012392519 -0.0021207132 0.0022940154 0.0043007396 -0.0050268 0.00047779077 -0.003022671 0.0035815993 0.0037987414 0.0031516731 -0.0016087986 -0.0014254233 -0.0023143704 -0.0017166238 0.002385288 -0.0004726882 -0.0002854801 0.0030707957 -0.0013797989 -0.00078982336 -0.0051181763 0.0030360874 0.006213386 0.0013671637 -0.0003429522 -0.0037660496 -0.0061404724 0.009793197 0.005852595 -0.0049529388 -0.004831513 -0.0019985908 -0.005959908 -0.0060684257 0.00089211756 -6.464915e-05 -0.0014668589 -0.0013813858 0.004901639 -0.0020390935 0.004700583 0.008874949 0.003354638 0.0009535747 -0.0030984022 0.005474902 -0.004542706 6.431618e-05 -0.0007074263 0.0038835758 0.0005727458 -0.0054316423 0.0054790224 0.0049351025 0.0013402026 -0.003704426 0.0038416223
grade -0.0024579307 0.009661126 -0.00014088675 -0.0032855764 -0.0021741274 -0.0044167326 0.00044965048 -0.010639841 0.0073097968 0.003848553 0.0019041854 0.0038379831 0.003288255 0.0029897888 0.0044967397 -0.0045552053 0.0016391409 -0.003286037 -0.001544814 0.0033505382 0.007787125 0.0073739393 -0.010585846 0.007968256 -0.0062942663 0.012133543 0.0033522735 -0.0009979896 -0.0028332798 -0.005142895 -0.0023882505 -0.0017261896 0.00040418145 0.00035179383 0.0055260975 0.0037569362 -0.0012064714 0.0024793611 0.0014688905 -0.0048713433 0.009032567 0.0046654297 -0.0051161563 -0.00060183095 -0.0022549897 0.002697606 -0.0036894893 -0.0019037919 -0.007909245 -0.008267913 0.0074282284 0.0026830374 -0.0005824441 -0.0068762978 0.0061331503 -0.0026465862 -0.0040747975 -0.003477314 -0.0060633286 -0.0026777757 0.00013484365 0.0052320636 0.0029117235 -0.003242568 0.011658714 0.004788021 -0.0018682419 -0.010661809 -0.0041662166 -0.0031830005 0.009208289 0.005043118 0.0038136782 -0.0013388435 0.0045069717 -0.010859435 -0.0040793787 -0.00088832167 -0.00047438362 -0.0011357759 -0.0020350094 0.0011664716 -0.0016243301 -0.0002008556 0.007924425 0.0065579168 0.010963456 -0.0032082323 0.0075646797 -0.0020364549 -0.007165063 -0.0018076085 -0.00013012614 0.0038664162 -0.0018414649 -0.00078157854 0.0010023653 0.008300573 -0.0064938827 0.0006654193
as 0.005422061 0.011983323 0.0005717476 0.0008142465 -0.0043909904 0.0024186869 -0.0016133586 -0.010773907 0.006403845 0.0045444546 0.007646124 0.0017375831 0.00033349957 0.010643548 0.005566282 -0.0064410684 -0.001591394 -0.0022981348 0.002606582 0.00030463675 0.010882855 0.00457849 -0.006676318 0.014112006 -0.011854553 0.013558791 0.007423101 0.0039985552 0.004102189 -0.010533754 -0.001967114 0.0049046115 -0.0045868536 -0.006076885 0.011191879 0.0049934136 -0.00089757016 -0.0032113616 -0.0049234773 -0.005383799 0.00853998 -0.001975293 -0.00436109 -0.0019021791 -0.0029122606 0.00081381295 0.0024357364 0.0002457405 -0.0047759498 -0.011439093 0.0075635016 0.0051725665 -0.0030361896 -0.01247572 0.001421454 0.004981715 -0.001904396 0.0026713915 -0.004700026 0.0052830554 -0.0013946795 0.0020353268 0.0014264552 -0.008946807 0.009209255 0.0058574723 0.0023012124 -0.009594658 0.0015393021 -0.006546208 0.009783457 0.009850863 0.004300109 -0.0023096676 0.0042517716 -0.012732821 -0.007376256 -0.0007698863 -0.0027103648 0.0028348537 -0.009039326 0.005571679 0.00044294298 0.00012728886 0.010525179 0.0006918656 0.0065109283 -0.004849195 0.0067819236 -0.0085436795 -0.008423395 0.001872041 0.0003540308 0.0032213696 -0.003956591 0.003305349 0.0089109475 0.0062962244 -0.0037353428 0.0009466028
pm -0.002767476 0.015080134 0.0017907418 0.005640343 -3.2054635e-05 0.0001818325 0.0061605466 -0.019953178 0.009427661 -0.00233824 0.0084301485 0.0049197976 -0.0021687374 0.011599477 0.0012078922 -0.011827422 0.0012095418 -0.003347362 -0.0043723937 0.006048688 0.0033340375 0.0031220773 -0.007980401 0.010793347 -0.014991561 0.0232315 0.009868405 0.0070848577 -0.0037697125 -0.016349616 -0.0050885347 0.007731271 -0.009383597 -0.0051545477 0.011945421 0.0050794436 0.0014672799 -0.0020777162 -0.0012790115 -0.006003615 0.01926977 0.006252229 -0.012980755 -0.0007997095 0.007837331 0.0025397283 -0.0035080677 -0.0082804 -0.009318939 -0.02185705 0.010063708 0.0011752755 0.006790949 -0.013657068 -0.001730214 0.0029566626 -0.008632232 0.00051755604 -0.0074570165 0.00124373 0.00041268324 -0.002117264 -0.0019106702 -0.0049881316 0.012161832 0.012212219 0.005251186 -0.011208727 -0.006750807 -0.015938316 0.014871474 0.012292681 0.003921821 -0.0025581843 0.0042496542 -0.010197543 -0.0038655265 0.0016440334 0.00078064186 0.004782967 -0.012210886 -0.0018974787 0.010037475 0.00805611 0.012344991 -0.0028645862 0.01326444 -0.01030896 0.0072616185 -0.011136578 -0.0036260902 0.0069701704 0.0065886974 0.002347665 -0.0070050852 0.0034053393 0.0030859525 0.0053589693 -0.002019929 0.0052053314
offenses -0.0008490073 0.0076123434 0.0003183115 -0.002625557 -0.0004885605 0.00043299128 0.004825375 -0.0013713473 0.0059048412 0.0042540785 -0.000734759 0.0066797906 0.0052854326 -0.00016737857 -0.0037860954 -0.0010011874 -0.0018970032 -3.4667988e-05 -0.003387098 -0.0010576091 0.0048160176 -0.0023756477 -0.007517105 0.0077957846 -0.0075419843 0.002214349 0.00046851448 0.00089864014 -0.0007264146 -0.007063643 -0.0037559548 0.005838581 -0.004572793 -0.005296013 0.00015502344 -0.004619964 0.0029745526 0.00064447866 -0.005284611 0.0021191656 0.002410779 -0.00082680356 -0.0028266162 -0.004281889 0.0035161278 0.002418505 -0.0022209717 -0.0015065571 0.0021178743 6.934806e-05 0.0025356447 0.004294265 -0.003153662 -0.00024296448 -0.0010781204 0.0006849481 0.0019230039 -0.002448104 -0.003075696 0.0018000384 0.00085294957 -0.00049113773 -0.0030786411 -0.0010557806 -0.0017121655 -0.0016526603 -0.0016533625 -0.003826104 0.0022374634 0.001808421 0.004352004 -0.0014983958 0.0010080913 -0.0015313928 0.0050703175 -0.00416707 -0.0021416033 0.0031999568 0.002157172 -0.0039529037 0.002034166 -0.0016231571 -0.00012310638 0.006447611 0.0013882852 0.00094330765 0.0069593186 0.0021164627 0.005235176 -0.0023113023 -0.00070378947 0.0024831682 -0.00069885637 0.0051245573 0.0036512855 -0.0018738616 0.0066772453 -0.0011484595 -0.0068501313 -0.0023604285
no.: -0.0040648445 0.0057860017 0.002811771 0.0048700375 5.8526515e-05 -0.0012374516 0.0049417093 -0.0028438012 0.0034119198 -0.0047440683 -0.0014892244 -0.001399635 0.0050035883 0.007133936 0.0004952795 -0.002313872 0.0011131946 -0.000100374324 0.0035097746 -0.0021532858 0.0037699114 0.005066534 -0.006109891 0.009953676 -0.01192859 0.012913679 0.00816837 0.00612046 0.0034376422 -0.005566456 -0.0032715378 0.0037738476 0.0020910022 -0.00081660756 0.004729026 0.0013331748 0.0026215652 0.0031751958 -0.003984834 0.00013465821 0.0017510533 -0.0041430555 -0.0003435049 -0.0011792762 0.00080209965 -0.0022061786 -0.0061680777 0.0016137289 -0.0007825865 -0.003365934 0.0043425052 -0.0017228001 -0.0040016435 -0.0053328723 0.0069420612 -0.0013225207 0.0011854011 -0.0015840619 -0.007273555 -0.0032575966 -0.0038719529 -0.0027503811 0.0012767257 -0.008093799 0.0011011531 0.0031575481 -0.0033376592 -0.003332231 -0.00097339344 -0.008858119 0.0077880905 -0.0013598609 -0.0002040311 0.0006432091 0.0008359321 -0.0014152337 -0.0049852426 -0.0009977802 0.004939867 -0.005326091 -0.008616557 0.004461577 0.0009431115 0.008080228 0.0032246192 0.0031947687 0.010232851 0.00016020254 0.008081219 -0.0020086057 -0.0030037872 0.0067448816 -0.0010815958 -0.00215222 -0.003507411 0.0033651784 0.0025510709 0.004521727 -0.0044506537 0.0047554793
months -0.0027441462 0.014229895 -0.0010892823 0.0049983994 -0.0025835868 -0.0058300346 0.008561216 -0.01571595 0.001860096 0.0047896397 0.010350223 0.006704173 0.0022127675 0.0076089487 0.0020098342 -0.0012691378 -0.001039784 -0.006828418 0.003934283 -0.0011890859 0.0052731526 0.008771327 -0.014377797 0.019209255 -0.017644184 0.02106436 0.007411934 0.0025044286 0.0010061591 -0.016882496 -0.0110928165 0.01020705 -0.0021250965 -0.0023807015 0.010662474 -0.0026245904 -0.0020081804 0.001697433 -0.0073912526 -0.002128138 0.013172097 0.006412421 -0.017445154 -0.004026765 -0.0025163027 0.0006385868 0.0016145648 -0.003351411 -0.014120316 -0.018984323 0.016102847 -0.0015487187 0.0047082026 -0.016992385 -0.001869612 0.0046781036 -0.009776609 -0.0066895266 -0.004035405 -0.0024466254 -0.00490259 0.0013879522 -0.0024204971 -0.0061149145 0.01945426 0.010194735 0.0066157593 -0.010781963 -0.00053056463 -0.0063042906 0.007402995 0.008455431 -0.004316001 -0.008657302 0.0061445935 -0.014638633 -0.0056831823 0.0021072414 0.0010489003 0.0015832179 -0.008845869 0.009040451 0.010590368 0.007624742 0.008939471 0.0031307708 0.010177974 -0.0050972807 0.007077842 -0.0060464554 -0.01101182 0.0018666605 0.0018644155 -0.000660347 -0.0028246448 0.0038995733 0.012568285 0.010459759 -0.0037227727 0.008797087
open -0.0009279028 0.006166033 0.002957819 -0.0028233894 -0.0035647275 -0.0044980957 0.006095958 -0.006504842 0.0061875964 0.005377499 0.0074944366 0.0070316526 -0.00080867833 0.00853721 -0.0028646516 -0.007247649 0.003717976 0.0029233592 0.003272344 0.0011321275 0.0012622273 0.0063451827 -0.006265987 0.0022350824 -0.012132526 0.011151541 0.007884158 0.005898085 0.00043587087 -0.0012238635 -0.0024379299 0.0031168277 -0.003214455 -0.00615106 0.0069528557 -0.003639378 -0.0030264677 -0.0030667395 -0.007957611 -0.0053409925 0.012673408 -0.00011323361 -0.00032963458 0.005336966 -0.00043576193 -0.0030261904 0.002146124 0.001909192 -0.0022543683 -0.009514729 0.0026847068 0.00057797466 0.0006448348 -0.00829105 0.0064254026 0.0022347092 0.000496081 0.0003596587 -0.0002872928 0.005212729 0.0030738735 -0.00045432398 0.0028031163 0.0008273054 0.010070926 0.0029919595 0.0037934065 -0.005989127 0.00367592 -0.008857867 0.01063027 0.0010557423 -0.0040115505 0.0020938735 -0.00053135667 -0.0041492274 -0.0062309173 -5.1121842e-05 -0.0044804434 0.002735192 -0.0017627521 0.00047517754 0.007118162 0.0044400315 0.006742974 0.0027401675 0.0009230077 -0.0013396909 0.004511361 -0.0014689496 -0.0026366296 2.0003705e-05 0.0038408549 -0.003278175 -0.00026995622 0.0036568413 0.0016380189 0.0037074152 -0.0064473934 0.003302951
campus -0.0005395913 0.0035299938 -0.00285768 0.00371297 -0.0065936716 -0.0060791853 -0.0022230214 -0.009796018 -8.865181e-05 0.0024437662 0.0052494807 0.0023666588 -0.0015624426 0.0076518753 0.0034521197 -0.0021440752 0.0033642428 -0.0010999242 -0.004978733 0.0030872135 0.0033546118 0.0050461264 -0.0043136054 0.0073374193 -0.0062051197 0.011140985 0.00038446102 0.0059717367 -0.0020690334 -0.0053126775 -0.0063819727 -0.00015467113 0.0035458596 0.0018669564 0.009305144 0.0028933142 -0.001514838 0.002310955 -0.004929322 -0.0057788175 0.009902723 0.0022525128 -0.0062424964 -0.0046972046 0.0016320175 0.0004846145 0.002798239 0.00023906906 -0.0035142133 -0.00834145 0.0059007285 0.0033566894 0.005632542 -0.0072857295 0.002621337 -0.0032438892 0.0011671874 -0.0016595342 -0.0031203781 0.0053797266 -0.002083924 0.002242271 0.0013908359 0.00047517632 0.009583254 0.0028178047 0.0028440931 -0.0022391786 -0.002900822 -0.0076992903 -0.00035291878 0.0070819454 0.0037285376 0.0031575474 -0.0016715131 -0.0022975423 -5.697445e-05 -0.0010286564 0.0036488366 -0.0025042396 -0.003401162 0.0063805897 0.0065566315 0.0005181436 -0.00061913085 0.004014872 0.007169011 -0.0015707995 0.0033527215 -0.0054788324 -0.0041138693 -0.0025939653 0.0018813638 0.004694825 0.00024793274 0.0036569445 -0.0004496248 0.0029028843 0.001672529 0.007378103
on -0.0023590515 0.008221919 -0.0032672826 0.003805454 -0.0045760567 -0.0067378473 0.007015737 -0.016452942 0.0038123115 0.002241743 0.0055355174 0.0063797543 0.004267217 0.0050277733 -0.0035868404 -0.005683316 -0.002034092 -0.00073482486 -0.0027744118 -0.0006756047 0.0070006824 0.0034245497 -0.013022009 0.015935253 -0.007908826 0.01694617 0.012334756 0.0073588425 0.00072463014 -0.008439652 -0.0066424427 0.0031969713 -0.0010730004 -0.0030077137 0.0134163415 0.0012544402 -0.00082262664 0.004785667 -0.00093564345 0.00064443814 0.011332213 0.006155265 -0.011830818 0.0023766425 0.0017288087 0.0040552705 0.00089675817 -0.0077593434 -0.009204782 -0.014465986 0.008508199 0.0063599227 -0.00183038 -0.007186522 0.00038837854 0.0054624737 -0.0031773916 -1.1384888e-05 -0.00076829205 0.0059382003 -0.006249545 0.006090614 -0.0010197964 -0.005729476 0.014153778 0.004306018 0.00567119 -0.008112953 -0.0035625056 -0.014422778 0.015382969 0.0037280768 -0.0006999771 -0.0076165474 0.0013548922 -0.011369232 -0.0048699966 -0.0021824795 -0.001873698 -0.0048031076 -0.010071676 0.00094658625 0.007371543 0.009000516 0.005799201 -0.0010965843 0.010213447 -0.006068878 0.01279936 -0.0074941423 -0.0056713694 0.0054713767 -0.0012481057 0.00026038848 -0.007001823 -0.0018932357 0.0019369285 0.012696277 -0.009192146 0.0073946877
admission 0.005475699 0.003552621 -0.003952196 0.004987202 -0.0013961048 -0.0049660224 0.00050897995 -0.004886697 -0.0019389333 -0.0025808108 0.0036162282 0.0056530256 0.0046043107 -0.00020350327 0.00473823 -0.0059431735 -0.0014524009 -0.0019566123 -0.0026682152 0.0005233313 -0.001335844 0.0005898041 -0.0088864695 0.006498932 -0.0015548371 0.009857757 0.0027320455 0.005663564 -0.0025432175 -0.0048447973 -0.004317734 0.005368028 -0.005800547 0.001674048 -0.00023078913 -0.004313634 -0.0011262167 0.0044589317 -0.0044927383 0.0028901396 0.0020623044 0.004528042 -0.007175672 0.0044239527 0.002077589 0.002520541 0.0032939655 0.0029024726 -0.0020926802 -0.008822445 4.5714078e-06 0.0063862973 0.00023235055 -0.0002916413 -0.00065386086 0.002988826 0.002318209 -0.0023022539 -0.00059834303 0.005233338 -0.0022620207 0.0049390267 0.0010310136 -0.005337021 0.0038733077 0.0055673453 0.00063011114 -0.00934712 -0.003040525 0.0008237792 0.0020601773 0.0028141728 0.003220095 -0.0037037665 0.0068521188 0.00055071554 0.0028122552 0.0015863617 0.00095124054 0.0026582126 -0.00541452 -0.0018334356 0.004404496 0.0033707835 0.006333554 0.0019140899 0.0032737677 -0.005408786 0.0014127339 -0.0010806147 -0.0025015695 0.0017429208 0.0012310413 -0.00015679323 0.002842824 0.0043066796 0.0013126676 0.0017943565 -0.0034269195 -0.0012935792
time 0.0021012211 0.010787883 0.0025471514 0.005174724 0.001959397 0.0005008019 0.0029485985 -0.011858838 0.004275154 0.0017107524 0.0056191706 0.002010068 0.00489753 0.0005513683 -0.003627297 -0.0063682473 0.0034982266 0.003272503 0.00087887555 -0.0027125566 0.0075794603 0.003553162 -0.011219924 0.009404274 -0.010206942 0.016213657 0.0024481097 0.00039238133 9.1368136e-05 -0.0083505865 -0.0009675584 0.0022294472 -0.002994296 -0.004730776 0.009530474 0.0007558018 -0.00068086415 0.0019084702 -0.0055560833 -0.0041416814 0.007918768 0.002858816 -0.001714379 -0.0042330553 0.0004030018 0.0021747958 -0.0020672404 -0.0016775584 -0.009591931 -0.005083215 0.007321411 0.003851648 0.0007709013 -0.010895266 -0.0018000441 -0.0012618084 -0.0041212863 -0.0054521468 -0.0066464315 0.0012981369 -0.004543189 -0.0010607394 -0.0059357956 -0.007225769 0.009814526 0.0015248175 0.0053131063 -0.0071173734 -0.0016473974 -0.01099681 0.010973075 0.0052933656 0.003628424 -0.0061741895 0.002739307 -0.0041406443 -0.002414988 0.0023881684 -0.0020159257 -0.0017160595 -0.009441441 0.0061528003 -0.00051529665 0.0048968233 0.0034586012 0.0068583055 0.011021257 -0.0065602153 0.009988947 -0.008229764 -0.005727751 0.0056853155 -0.0029330933 -0.004304896 -0.0062773493 -0.0025034517 0.00396269 0.0042344243 -0.0050883843 0.0036618044
subject -0.0006003429 0.01005671 -0.0019477807 -0.0003467832 0.0007230523 -0.003152129 -0.001528817 -0.014135787 0.0044209124 -0.0021007755 0.0007739745 0.0060485383 0.0049425 0.009331611 0.0023575218 -0.005632702 0.0053565744 -0.0004893934 0.0037792071 -0.0012450191 0.0050502713 0.006037429 -0.0040000896 0.010204186 -0.01004517 0.01738967 0.0035609056 0.004627213 0.0022848502 -0.007753025 -0.009305785 0.0019135766 -0.0029371185 -0.0013449483 0.009157439 0.0009705298 0.0004776962 0.0020885046 -0.0037744944 -0.0041049803 0.009257952 -0.0014393503 -0.0074937143 0.00014135754 0.0053147445 -0.0007456833 -0.0022807985 -1.8311031e-05 -0.00460133 -0.013913517 0.0034747263 -0.0010540386 0.0058539626 -0.010507887 0.0013919749 -0.003411696 -0.0016188456 -0.004276301 -0.007625714 0.0051164185 -0.001193959 0.0028397734 -0.0008569812 -0.00050232175 0.009458508 0.008581981 0.0012530603 -0.0053277067 2.1228227e-05 -0.0021944111 0.011922851 0.0041297367 -0.0007506635 -0.0026568933 0.0057232827 -0.005613568 0.0020385103 -0.00080668885 0.0007326827 -0.0013301345 -0.0026531627 0.0009491263 0.007000256 0.006125688 0.002562096 -0.00054153294 0.012040972 -0.0028959834 0.008081258 -0.0026836465 -0.0017078251 0.008795718 -0.00011763835 -0.0029619525 -0.0062361043 -0.000539488 0.0028690605 0.0017767496 -0.0072191516 0.006423809
academic 0.005010569 0.01304401 0.002324832 0.0059967726 -0.0012959788 0.0010280183 0.0040357923 -0.011045364 0.0054550776 0.004111347 -0.00018852479 0.0030710283 0.00010596752 0.0094727455 -0.0009234468 -0.0034052897 0.003877335 -0.0015588265 0.0032424713 0.0022347963 0.007751703 0.00035139488 -0.012497011 0.009211869 -0.0057842853 0.018477807 0.010997533 0.0021788075 0.0029041683 -0.011737462 -0.0015382052 -0.0019882664 -0.0010804784 -0.0034206014 0.009028672 0.005523079 -0.0019204179 -0.001385202 -0.007998344 -0.0038995033 0.014382199 0.0041550966 -0.0047354307 0.0017658753 -0.0028262273 -0.00036138154 0.00027700473 -0.006207299 -0.0057860706 -0.007094424 0.012383863 -0.001457757 0.0038296462 -0.0090831 0.008151081 0.0006505847 -0.0067688883 0.0005708342 -0.007921216 -0.0028086714 -0.00153891 0.0051327106 -0.0013420191 -0.00830661 0.01289614 0.0018466704 0.0016749616 -0.0116815055 -0.00477188 -0.008380608 0.012416701 0.0023185017 0.0011867359 -0.0022754162 -0.0014520363 -0.0045890124 -0.0011283169 -0.0028544378 0.003375536 0.0022870025 -0.005664276 0.005565776 -4.8227343e-05 -0.00067324203 0.0106093455 0.0072556734 0.0061607063 -4.976777e-05 0.012757622 -0.005689253 -0.0077355453 0.0059758383 -0.0029081465 -0.0042486754 -0.0045170113 0.00047635744 0.006697052 0.010968323 -0.00088533317 0.0038807276
who 0.00528927 0.015282014 -0.0018260645 0.003835044 -0.002285905 0.00054759503 0.0027099547 -0.011307824 0.0074668876 0.006583553 0.0043123323 0.006719986 0.0025812145 0.0043504457 -0.0019717787 -0.010857786 -0.004088967 -0.0015973182 -0.0038040462 0.0030573958 0.005993547 0.0060861767 -0.00865342 0.014711697 -0.0100994725 0.024038067 0.013536885 0.00643522 -0.00220329 -0.014507076 -0.0049654045 0.0010522807 -0.0021671837 -0.0031554792 0.010552493 0.00088297896 0.0035049655 0.00695584 -0.0033156632 0.0019080419 0.01643284 0.0025119295 -0.012960832 -0.00056734396 0.003509344 -0.0016876208 -0.0024543225 -0.00076391257 -0.0062186355 -0.011129734 0.0129064815 0.0015912863 -0.001280637 -0.006321375 0.0023172535 0.004917231 -0.0039804294 0.003273441 -0.007905581 0.0026662007 -0.005536673 0.0060828947 -0.0030287139 -0.0099182 0.010369129 0.0064318315 -0.0023120148 -0.007319965 -0.0046789977 -0.012411988 0.010595166 0.010583575 0.0020832312 -0.0071135852 0.0066055795 -0.011501688 -0.0010920883 -0.0044508134 -0.0017213318 0.0031716065 -0.009342402 0.003534332 0.007969304 0.0049511227 0.01276364 0.008256615 0.013617255 -0.0017945416 0.011597862 -0.0077971676 -0.01252846 0.007706261 0.0045632757 -0.000734891 -0.009093169 -0.000959578 0.008132818 0.010650797 -0.0032769013 0.008761106
8:00 -0.0016501993 0.011990363 -0.0017087654 0.008288028 -0.009004216 -0.0064962627 -0.00054844713 -0.017709948 0.002402956 0.0048102927 0.009218217 0.0025714014 -0.0012911859 0.0045973533 -0.0029958796 -0.004313925 0.00015815825 -0.00086796476 -0.0033500374 -0.0043519293 0.0026263793 0.0011180451 -0.007497893 0.016078576 -0.0066562993 0.015780928 0.01202256 0.008114773 0.005471669 -0.016342074 -0.0037223347 -0.0023216223 -0.0022684298 -0.0012127546 0.01528423 0.0041598966 -0.0057406654 0.006207901 -0.003624756 0.0018711279 0.010220152 0.0057228184 -0.0067022895 0.0031036315 0.006419588 -0.0011976135 -0.004861481 -0.008250252 -0.012801319 -0.01858005 0.011311065 0.001827483 0.0039334274 -0.0145146875 -0.00089587853 0.005315663 -0.0012347053 -0.0070530316 -0.0005522592 0.005517499 0.0024643717 0.0022685016 -0.0065599685 0.00016861246 0.015520036 0.0017310171 -0.0035238948 -0.014473153 -0.00094642973 -0.014413836 0.014476331 0.008877437 0.0004985725 -0.00025141705 0.0058360426 -0.007994815 -0.003604363 -4.467525e-05 -0.0017202339 -0.0026253844 -0.006440947 0.00079636433 0.010173864 0.007471847 0.0148020685 0.00101226 0.012858896 -0.0045483825 0.01320133 -0.008862959 -0.011656074 0.0056125303 0.0030782842 -0.00048602282 0.00094491243 -0.0031376153 0.004114595 0.0120028425 -0.0075462847 0.009087076
 -0.0018124748 0.018826243 -0.0032666984 0.00065165287 -0.009252666 -0.00015472072 -0.0016627685 -0.016440015 0.00305263 -0.001165697 0.008382508 0.009799516 0.0051326226 0.0022592994 -0.0015152841 -0.010880556 -0.0029409328 -0.0072347093 -0.0035876117 0.0055161947 0.0054766056 -0.0009843332 -0.00686013 0.020004982 -0.01351458 0.017208027 0.0065510804 0.00938832 -0.0039538685 -0.018496387 -0.0045047505 0.0069707604 -0.0021280989 0.001949569 0.008012022 0.0013854697 -0.0035144635 0.00092811405 -0.0068080677 0.0004764972 0.009487194 0.0034191844 -0.0092183845 0.0046929787 0.005261348 0.0036978393 1.2416924e-05 -0.0067349733 -0.006939811 -0.017249832 0.008206916 -0.00076884835 0.0019265633 -0.013846628 0.007476543 -0.0037562505 -0.0113332765 -0.0040267543 0.0011740467 0.0023887283 -0.0025070931 -0.0017927071 -0.0015043892 -0.002139181 0.018051377 0.012325921 0.0045074658 -0.012887379 -0.006709225 -0.0103717325 0.015993224 0.010932378 0.00020773294 -0.0020909375 0.008893881 -0.0053906315 -0.0019382621 0.0025947832 0.00092193467 0.0015220506 -0.009362229 -0.003089525 0.0023944778 0.004370197 0.011448808 -0.0017393822 0.013704504 -0.005983347 0.014429142 -0.0017695432 -0.012317394 0.011354896 0.008118005 0.0035241358 -0.0021726303 0.0021664365 0.010988108 0.006916793 -0.00039215805 0.0009803422
(no -0.0018872644 0.016261388 -0.00012817622 0.008463625 -0.00369772 -1.3989823e-05 -0.00057266344 -0.013845053 0.009880065 -0.0009884409 0.0068608923 0.009278644 0.006175357 0.0091139 0.00177554 -0.008309616 0.001462018 -0.005629812 -0.0011342145 0.005039197 0.004906651 -0.0004537906 -0.0092189135 0.01663815 -0.01676852 0.023073822 0.013548522 0.009288345 -0.000929982 -0.013485036 -0.008813635 -0.00076538586 -0.0048619504 -0.0064450335 0.01515146 0.0026561026 0.0039057315 -0.0031954094 -0.010155497 -0.0041107815 0.012273328 0.0022923383 -0.009020878 -0.0044405106 0.002076515 0.0021492073 -0.0012891634 0.0004305756 -0.011265622 -0.014603193 0.007488099 0.0008134256 -0.0019106618 -0.008030889 0.0039848853 -0.0008285421 -0.010690789 -0.0022019597 0.0022824237 0.0021440403 -0.00054141023 0.006838462 -0.0037852614 -0.0064045954 0.010956039 0.011720299 -0.0018736847 -0.008633106 -0.0069065443 -0.013213302 0.010505493 0.008892731 0.0005600177 -0.008508435 0.009107839 -0.009267202 -0.005279767 -0.0034172712 0.0046525155 0.0055932296 -0.012242411 0.005073468 0.010393306 0.0073623615 0.0066326954 0.0056606415 0.005715703 -0.0065107383 0.010005811 -0.008211417 -0.0045913765 0.0042754947 0.008000847 -0.0012975866 -0.0024088628 -0.003316168 0.0016251572 0.00809249 -0.0018135399 0.009281932
noon 0.00037615412 0.014955383 0.004268086 0.008192755 -0.0066177496 -0.008660953 0.0062112794 -0.021256154 0.0015714398 0.0050071245 0.00018344111 0.0117949145 0.006332005 0.010111254 0.0045308257 -0.0033321725 -0.00440245 -0.00877537 -0.0065476764 -0.0040259967 0.0128307175 0.007749338 -0.0046683894 0.011321285 -0.011105787 0.023248494 0.00830566 0.002440394 0.00036099894 -0.011566793 -0.0073805526 0.00038877694 -0.002584462 -0.00096094765 0.0067635104 0.0049206344 -0.0017748359 -0.004038672 -0.0023395026 -0.0019414308 0.017719246 0.004661157 -0.012973801 0.0055159843 0.0035770126 -0.0015879655 0.0018000603 -0.0018663659 -0.007079855 -0.020472782 0.011439923 0.004782341 0.007076801 -0.007425121 0.0016966559 0.0016930042 -0.004080011 -0.0030908687 0.002145134 0.0041932203 -0.004705158 0.0051755835 -0.0071811914 -0.004718939 0.007851592 0.004799047 0.0002324807 -0.014169581 -0.003991813 -0.016269246 0.012006179 0.009781698 -0.0026353784 -0.0015363717 0.000801463 -0.016170159 -0.0067930412 0.00054100045 -0.0030254242 -0.0010512623 -0.008414914 -0.0007148912 0.004908128 0.0035482466 0.01433517 0.0059963884 0.006695927 -0.010981963 0.011321697 -0.0029828765 -0.012235551 0.008060868 0.0010427982 -0.0016092494 -0.0030894957 0.0015210939 0.0056467527 0.011006145 -0.002135685 0.0056176875
break) -0.0022456928 0.007931333 0.004277822 0.0023133343 -0.004649445 -0.007882579 0.0042835753 -0.012747955 0.0012750444 -0.002390198 -8.1872604e-05 0.0075299637 0.004186282 0.0018164874 0.0041578272 -0.0068734754 -0.0051292707 -0.006777823 -0.0029660242 0.0044790003 0.0042316997 0.0031462633 -0.008030037 0.013892633 -0.011561566 0.01978022 0.0036886325 0.008099843 0.00041999403 -0.015891777 -0.009095005 0.0013683811 -0.0065815924 -0.00035676113 0.010830855 0.0052105538 -0.0030378678 -0.0031645643 -0.0048847697 0.0026808805 0.009866693 0.005238304 -0.004469063 -0.0034909036 0.0029917124 -0.0008797371 -0.003988186 0.00061348383 -0.008971155 -0.010705843 0.0070984233 0.0034932133 -0.00023963046 -0.014505187 -0.0019923279 -0.00077977555 -0.009169087 -0.0061898176 0.0023776158 0.0044310708 -0.00419191 0.0002122887 0.002419813 -0.008739234 0.010018533 0.0090956725 -0.0022850558 -0.008218472 -0.005333813 -0.014956029 0.013318811 0.011998584 -0.0042762137 -0.0012792249 0.0037327677 -0.012465972 -0.0060691787 -0.00420274 0.0032090433 0.002600578 -0.01301091 0.0022517038 0.0009507451 0.0045602457 0.0142634 -0.002815858 0.0044026445 -0.0031484503 0.013351508 -0.008362385 -0.0060455846 0.005595655 0.003794418 -0.0042420514 -0.0068630087 -0.003944453 0.006442642 0.007134825 -0.0044613997 0.0023393335
your -0.0004460541 0.0084279375 0.002263224 0.0043871943 -0.005613159 -0.007965361 0.0061395764 -0.0073409164 0.007706905 0.0039924975 0.004718044 0.008811384 0.004510886 0.0020577235 0.0020767068 -0.0056259087 -0.00301031 -0.0046967557 -0.0011574001 -0.004465804 0.0015086078 0.0048863958 -0.010267631 0.011441622 -0.007398337 0.018966673 0.0076645245 0.0017780408 0.005971842 -0.0051913015 -0.0016062349 0.006414001 -0.0068986244 0.0027991645 0.011920454 0.0018832105 0.0032831677 0.0029390785 -0.006579923 0.0029323394 0.01200604 0.00573652 -0.011804106 0.004438706 -0.0039545926 0.002893115 -0.0018857935 0.00025905823 -0.006566494 -0.012784743 0.013450281 0.004013449 0.0049896436 -0.01035013 0.006730336 0.00027402883 -0.007362578 -0.0031478265 -0.0021681318 0.0038307044 0.0015479384 0.0007199555 -0.0002510433 -0.003018672 0.011612247 0.0071594343 0.004094181 -0.009628537 0.003720627 -0.009746357 0.013067821 0.0029403616 8.118201e-05 -0.0046421676 0.0063414094 -0.013409932 -0.0017948049 -0.0038262643 0.0014386451 0.0025924887 -0.009808759 0.002715764 0.000830653 0.009636364 0.012198279 -0.00034135504 0.0099683935 -0.0036466736 0.0073714517 -0.006733197 -0.0060991053 0.00076007965 0.0020094616 0.0009725251 -0.00054874574 0.003478698 0.010491622 0.009975702 -0.0020296255 0.0033063889
other 0.0028538588 0.017477455 -0.0040266733 0.0026031155 0.00033376188 -0.0007471509 0.006549083 -0.01825046 0.0030636105 0.0019354032 0.006852914 0.010043025 -0.0018355593 0.007245233 -0.0036162517 -0.009029388 0.003424229 0.00060715695 0.00078400655 0.002599077 0.0068580615 0.0020679915 -0.007586405 0.017563835 -0.012697612 0.01577869 0.009921605 0.0030105961 0.001052248 -0.013970895 -0.0033051285 0.00026780722 -0.0053901756 0.0014136978 0.0112056 -0.0031889845 -0.0020595961 -0.0013145414 -0.00367165 0.0014404049 0.012754072 -0.0005763126 -0.008242286 -0.002217289 0.004974324 -0.0010188037 0.0025581855 0.0006485264 -0.008806753 -0.019186754 0.00832328 0.0054534096 -0.0010184055 -0.012321928 -3.606143e-05 -0.0018796618 -0.011208895 0.0013125917 -0.007049804 -0.0008459297 -0.0015174008 0.0018536976 -0.0016660506 -0.0053557404 0.009376292 0.010187115 -0.0032507773 -0.007849101 0.0025572379 -0.0104840435 0.015593049 0.011912203 -0.002605551 -0.0072156503 0.0007271281 -0.010234399 -0.0055233142 0.0024367531 0.0031293752 -0.00051865604 -0.011680514 0.007698328 0.005170104 0.011010711 0.008759982 0.007870614 0.015264984 -0.009320396 0.008160364 -0.009699744 -0.0044468082 0.010420883 -0.0006277351 -0.00041433 -0.0060942792 0.0057754666 0.0034499327 0.006035378 -0.006967919 0.008265875
requirements 0.0012177782 0.0012652084 -0.0011986454 4.0501858e-05 0.001699897 -0.0027129273 0.004729383 -0.0015182642 0.005524025 0.004923204 -0.0016552457 0.00145442 0.0015775607 0.0078064655 0.0047857454 0.00040083536 0.0038377387 -0.0023643528 -0.0017667706 -0.000827435 0.0013696812 0.006391294 -0.0032960887 0.01122924 -0.006203561 0.01101182 0.0045340243 0.005229364 -0.003285109 -0.0027837565 -0.0035348304 0.0034265984 0.0021005364 -0.0022338813 0.010009511 -0.0028218203 -0.0015908888 -0.0020455157 0.00081777264 -0.00589179 0.0111045325 -0.0028834837 -0.0058297087 0.0038441585 0.005108719 -0.0020639312 0.0026255513 0.0019987256 -0.0026210626 -0.009210206 0.006206982 0.005973657 0.0023129368 -0.0062699285 -0.0005867106 0.0020009 -0.0072542243 -0.001797762 -0.00053195964 -0.001925521 0.000105631276 0.0055557997 -0.004064426 0.00047547356 0.008089947 0.0015072655 0.00089778804 -0.004526993 0.0042996 -0.0075621554 0.007993291 0.0021952193 0.00073339744 0.0033337278 0.004786096 -0.007058293 -0.005636954 -0.0007852456 0.0010503723 0.0013684343 -0.0056469864 0.0043725036 0.0037526065 -0.0016405943 0.0012364103 0.0041014873 0.005866999 -0.0067851436 0.009638347 -0.008002492 -0.008577536 0.0073658656 -0.0012081851 0.0038546342 0.0019111097 -0.003252332 0.0049877884 -0.0004970437 -0.0063870735 0.0032354007
may -0.00048274576 0.011762726 -0.0026787312 0.0019891837 0.001660576 -0.0017359249 0.0048466427 -0.006904301 0.007638438 0.003148961 -1.5849282e-05 0.004274165 0.005892543 0.006902873 0.0011460788 -0.009100037 -0.0021386442 -0.0024055634 -0.003023516 -0.0023736905 0.0023263115 0.0034549404 -0.00951202 0.007044809 -0.009618288 0.011222341 0.0033885567 0.0039399336 0.0011264889 -0.0061976598 -0.010423422 0.0061925156 -0.0060546375 -0.0011110512 0.0099192 0.0004967362 0.0018925485 -0.0014366966 -0.0033985272 -0.006337736 0.012400679 0.0019605106 -0.012815587 0.0022441477 -0.00025505823 0.0028504122 -0.0038105384 -0.0014191963 -0.0038883288 -0.013444041 0.0071107363 -0.0011628051 -0.003116724 -0.013395833 0.0012853182 0.0011182197 -0.005273575 0.002234117 -0.00032448737 -0.0006153067 -0.0044621862 0.0046372544 -0.0007608786 6.5478407e-06 0.014420518 0.007112468 0.0032290875 -0.011380928 -0.0049175066 -0.008832836 0.0074426564 0.010779605 0.0055461875 -0.0033353327 1.878013e-05 -0.00826752 -0.0043905214 0.0006783472 -0.0037453726 -0.0024335184 -0.003555121 0.0068705804 0.0033409093 0.0063950694 0.005427253 0.001428659 0.01173832 -0.010094434 0.004270972 -0.0070637036 -0.011135636 0.0052615623 0.0027970532 0.0001818939 -0.005339057 0.0027564925 0.0021859806 0.009941532 -0.007901968 0.0059560305
any 0.0054408284 0.0153991915 0.0014876701 -0.0028968847 -0.0063612564 -0.00820326 0.0068594036 -0.0111136455 0.00022866848 -0.00030472403 0.00371077 0.008262706 0.0041496637 0.00785028 0.003439379 -0.0033595266 5.0277962e-05 -0.00093820156 -0.00052754505 -0.0005287643 0.008584886 0.008904513 -0.009617368 0.017288858 -0.008740628 0.018839942 0.013030058 0.0049244664 0.0064032245 -0.0074236756 -0.0015041623 -0.001072754 -0.0006046223 -0.00036877717 0.015462201 0.0046554655 0.0029404138 0.0035749378 -0.005438269 -0.00050400384 0.015026414 -0.0013040313 -0.010663078 0.0015544058 0.00024969544 0.0055136103 -0.005336294 -0.0012115729 -0.013355781 -0.015390951 0.010457099 0.0069985646 0.00017814766 -0.00798147 0.0077990512 0.0029539485 -0.0049906843 0.0010881517 -0.0025690836 -0.0028664537 -0.0010616736 0.006692036 -0.0071498263 -0.00036659348 0.0071709403 0.010199669 -0.002040902 -0.012468833 -0.0005040009 -0.013796901 0.012894931 0.0060553816 -0.0009597386 -0.0073225545 0.0035959145 -0.009346105 -0.0069710757 0.0029968035 -0.0035899363 0.0035385871 -0.0056348974 0.0018503644 0.006811913 0.0007287736 0.009351856 0.0076399944 0.0053401478 -0.0075592706 0.004426767 -0.010540897 -0.010467271 0.0011153237 0.0007740747 0.0028310264 -0.006752852 0.00642306 0.009528175 0.008294823 -0.0028155139 0.0019997284
education -0.0018735043 0.005847822 -0.0034178533 -0.0024219889 -0.0058205314 -0.004281225 0.00111552 -0.0066725644 0.0012604988 0.0013126143 0.0075805066 0.0026264165 -0.00014989522 0.0034391198 0.00024328862 -0.0037535296 0.005186186 -0.0030434977 0.0012220488 0.0029439447 -0.0002475746 0.0034392555 -0.0042335303 0.0031556897 -0.0047053774 0.0070213284 -0.0002872882 0.006174343 -0.0034073475 -0.0067920457 -0.005651169 -0.00017192442 -0.003569704 0.0023230554 0.003550001 -0.0039660684 -0.0015678386 0.0013621267 -0.00021616224 0.002379174 0.0083944015 0.005805462 -0.0054911203 0.0025403514 -0.002865812 -0.00091535365 -0.00078347826 -0.0029743256 -0.00036116526 -0.010926489 0.0023607672 -0.001923954 -0.0042244755 -0.0059523317 0.001603823 -0.0024044625 -0.0065825577 -0.0034353738 -0.004389277 -0.0022223354 0.002988795 -0.0011089058 -0.0035532045 -0.0003019043 0.0028717937 0.0040813275 0.0021789684 -0.0026887576 -0.0042283055 -0.009153423 0.0063445503 -0.0010589408 -0.0024824268 0.0026260987 0.0054505705 -0.0066884947 0.0016371149 -0.0015291005 -0.0009601296 0.0029931495 -0.006202149 -0.0027753473 0.0033967146 -0.0010609 0.005479189 -0.0016601586 0.0045901625 0.0022395 -0.0004347884 -0.00505516 -0.0076593803 0.0037887236 0.0046291742 0.0030223303 0.0014837492 9.5700016e-05 0.0053560357 0.0009000488 -0.005154438 0.004171308
transfer 0.005593265 0.0023808922 0.0005513332 0.0011007241 -0.0046332623 -0.0058315885 0.005090173 -0.0073891445 -0.0015694838 -0.0010977972 0.003904861 0.0058143586 0.0022726906 -0.0014496781 -0.0047271918 -0.0017100458 0.004213998 -0.0055631166 0.0016528919 -0.0001924753 0.0002766303 -0.00042166043 8.431121e-05 0.007411145 -0.0023504465 0.004160206 0.007323461 0.0018265111 -0.0027837835 -0.0059406613 -0.0023056117 0.0005434917 0.0023130665 0.0025498085 0.0069348095 0.0003709369 -0.002266786 -0.0018032907 0.002585038 -0.00521576 0.005613351 -0.003344622 -0.008211575 0.002841639 0.0015984274 -0.00068685494 0.0040865163 -0.004931102 -0.0027552804 -0.005987851 0.0075837285 0.005492382 0.005324785 -0.002210967 0.0066290074 0.0025727346 -0.0076578297 -0.0041476265 -0.0014960255 0.0047422163 -0.0013109276 -0.0035860627 0.0013719562 0.0025388855 0.002428841 -0.00078947406 0.0023694187 -0.007087387 -0.00034813498 -0.007498973 0.0076195803 0.00073671906 0.0029579012 0.00062374136 -0.0017804961 0.00030824667 -0.0033977393 -0.0035976446 -0.0005231348 0.0012659221 -0.0018356447 -0.00017946323 -0.00038312923 0.00056953495 0.004881531 0.0055747107 0.008968324 -0.00696601 0.009432275 -0.0024119676 -0.007557075 0.002911378 0.0031506058 -0.0001714852 0.002793656 0.00055992627 0.0008305976 0.0063935723 -0.006670887 0.0007603961
registration 0.0033410904 0.010566518 0.0035435287 0.0055818404 0.0016854249 -0.0058443756 -0.0017691115 -0.009607301 0.0053532943 0.0042458028 0.0008123812 0.0015676639 0.00056458777 0.0072774347 -0.003714758 -0.0066480963 0.000252004 0.0024980272 0.0013990084 0.0010874231 0.0037698718 0.002433122 -0.0026588882 0.01078012 -0.01193167 0.009412626 0.010062567 0.0073902872 0.000798578 -0.0051359143 -0.0059260204 0.006388718 0.0034886755 -0.0024287954 0.011189555 0.005210951 0.0038120102 0.0022912696 -0.0008765298 0.00061077613 0.0118654 -0.0019849709 -0.005652194 0.0044591157 0.0029952056 -0.0027152873 -0.0013654823 -0.0060443147 -0.009067571 -0.005597926 0.00285088 0.0024642828 -0.0006517022 -0.00869599 0.00084259483 0.0047087306 -0.007042381 -0.005057948 -0.00083898864 -0.0035105115 -0.0035655426 -0.00012305018 -0.00019524732 -0.0041929726 0.0073007634 0.002966492 0.00015739664 -0.009798506 -0.0021882842 -0.0046513528 0.008437585 0.0031357463 0.0014106011 0.0028162585 0.0038838773 -0.0030808984 -0.0027827984 -7.149926e-05 0.004938556 0.002226747 -0.007707307 -0.002357147 -0.0016150043 0.0058656596 0.0069914293 0.0012985365 0.009245476 -0.0029826902 0.0020529944 -0.007535293 -0.0061113597 0.007348607 0.0046571735 -0.0016186739 0.0019736667 -0.0020240252 0.005848294 0.0048888847 -5.115261e-05 0.0023367149
load 0.0032294856 0.009368579 0.0023134095 0.004614305 -0.0043269815 -0.002436686 0.0053078877 -0.0031283656 0.0033235974 -0.0014274342 0.0070192497 0.0065423516 0.0026486497 0.008060395 -0.003625517 -0.00479667 0.0048496956 0.0024253703 0.0022129267 0.001692679 0.0043553924 0.007529477 -0.010180518 0.0073616668 -0.005996256 0.0072696935 0.00784455 0.001286386 -0.0038805418 -0.001535788 -0.0058496604 -0.00057576766 0.0008633935 -0.0035279298 0.0113441935 0.0042339377 -0.002895329 0.0043259915 -0.003405699 -0.0012364316 0.005278015 0.004466013 -0.008683161 0.0002908614 0.0027385515 -0.00051727827 0.0018652627 -0.0046414165 -0.008412058 -0.011746846 0.0038524913 0.0052573415 0.004170436 -0.0025984524 0.0061112135 0.0019553192 -0.0046204086 -0.002260952 -0.0008153555 -0.0029196306 0.0008976394 -0.0010059675 -0.0033282188 -0.00037980956 0.0061704847 0.007441621 0.0044539836 -0.0043704724 0.0021381665 -0.0020397278 0.010152101 0.003341329 -0.0039552366 -0.0011157318 0.006350507 -0.0076662996 -0.0022596265 -0.0044416795 -0.0019409119 0.0009890515 -0.008753883 0.0031309424 0.0045625134 0.0007819287 0.0071361307 0.006095451 0.011500077 0.00095107156 0.007319183 -0.008908648 -0.0068692607 -0.00011904923 0.0045130574 -0.0034132998 -0.0033831487 0.0038768146 0.0016860107 0.010459248 -0.0044606403 -0.002316608
dental 0.0010473605 0.012210052 0.0014501028 0.0024591312 -0.00016151118 0.0023895532 0.007589531 -0.0053124996 0.0005605512 0.0019112485 0.0036924824 0.009546381 -0.0034251856 0.0056395563 0.0001047645 -0.008323174 0.003230757 -0.004778132 0.0049095727 0.0023441964 0.009350838 0.004260718 -0.011316246 0.014298497 -0.006897271 0.014232612 0.010494632 0.0014809101 -0.002134193 -0.004082524 -0.0016883941 0.005514714 -2.535869e-05 0.0011332083 0.013107821 -0.0046262606 0.003764638 -0.0001914951 -0.0066732923 -0.005566737 0.0057395846 -0.001230564 -0.0065869354 -0.0022715717 -0.0008484315 0.0016169737 0.001907065 -0.0022654936 -0.0025779041 -0.005745349 0.009028209 -0.002808233 -0.0028463455 -0.0068912497 0.0018475401 0.004976453 0.00037304073 -0.0020913915 0.0005862861 -0.0019463745 0.0022741712 -0.0028734806 0.0006239314 -0.0016620627 0.01043001 -0.00051805226 0.0044535906 -0.01326305 0.004559401 -0.008118496 0.011539417 0.0067198616 -0.0017706144 -0.00035694434 0.0005421108 -0.011886931 -0.0065125762 -0.0025830308 0.0035220538 -0.0024509118 -0.0038687405 -0.0024803022 -0.0013215166 0.0031225823 0.009918104 -0.0006314107 0.007758567 -0.0061147027 0.010229232 -0.008635072 -0.008167207 0.007281492 0.00021397321 0.005625086 -0.0061362516 -0.0031823406 0.005250045 0.0101973945 -0.0072763637 0.00043796308
can 0.001654464 0.007989714 -0.0032493407 -0.0022625397 0.0010828535 -0.005831165 0.006323045 -0.0040859166 0.0018557272 0.0004301401 0.007495054 0.008306716 0.0062398957 0.0039981287 -0.0022163931 -0.005229631 -0.0002871658 0.0026603495 0.0027967684 0.0015176318 -0.0009109461 0.0020994854 -0.0051536383 0.011983055 -0.008467784 0.015228342 0.00975746 0.0013311675 0.0055389754 -0.008852327 -0.008288829 0.0025204434 0.0032778385 0.0030822991 0.009581341 0.0022788905 -0.0025873457 -0.00088092854 -0.005718537 -0.0049236333 0.010319312 -0.0032416366 -0.0077448376 0.0035370314 -0.0027232945 0.0016819414 0.0024474177 -0.0016551006 -0.002378258 -0.012377181 0.008983362 -0.0017404857 0.00114411 -0.0055522528 0.0039914213 -0.0027909735 -0.005625318 -0.0041684136 -0.00536705 -0.0029525207 0.002120888 -0.0030094495 -0.0045133666 -0.0060255276 0.0018684882 0.0011316412 0.00027302332 -0.003840782 0.00050137716 -0.008633261 0.0031254692 0.007821238 0.0019071484 0.00037622388 0.0021114636 -0.008150619 -0.0030189068 0.00394418 0.0011635469 -0.0021632607 -0.00019935957 0.0008760101 0.0059659244 -0.00015249508 0.008518739 -0.0034536351 0.0078088804 -0.0034649093 0.0008423996 -0.008155377 -0.0029770145 0.0017866747 0.001617682 -0.00025200067 -0.0026838132 0.005726702 0.0064156437 0.0043291873 -0.0029346126 0.00093421986
required 0.0037810658 0.0057866774 0.001956768 -0.0030516167 -0.006640623 0.0017781464 -0.0012523083 -0.008893793 0.0018436383 -1.5202794e-05 0.004357552 0.005663489 -0.0020744249 0.0003296295 -0.001666875 -0.002695797 -0.00071606576 0.0005659716 0.002530624 0.0022433202 0.0028488773 -4.5621702e-05 -0.007115993 0.010466633 -0.0056282138 0.01583298 0.0018982954 0.0064275474 0.0021486387 -0.005484353 -0.0028927168 0.006018426 0.0029483784 0.0013516736 0.008380548 -0.0047360845 -0.0027668604 0.0047554765 -0.0025517114 0.0012056509 0.013326855 0.0029518486 -0.009455821 -0.0014639184 0.0009178989 0.005177756 0.002433945 -0.0035447564 -0.004571577 -0.010624694 0.008807611 2.2213206e-05 0.0025732464 -0.005203622 0.0012015158 0.005417371 -0.000104334475 0.0017725542 0.0003804655 -0.0036018873 0.0031986819 0.0011686855 -0.0066530425 -0.003163404 0.009057771 0.0039345934 0.0029267005 -0.009797388 -0.00090235 -0.004960886 0.010217924 0.0062979003 0.004457791 0.001182432 0.0074844146 -0.007016424 -0.0039978083 -0.004442122 0.0017219924 0.0008188595 -0.009849542 0.004989412 0.0083966525 0.0011323172 0.0065752445 0.0069606113 0.009665328 -0.008401845 0.007485213 -0.0025618358 -0.0070092417 0.0029544136 -0.00016091386 -0.0022845871 -0.005526865 0.005299284 0.007496483 0.004414784 -0.0047522653 -0.0016461792
week -0.003550844 0.0058631147 -0.002506302 -0.00071547704 0.000104548184 0.0024068074 0.0009770318 -0.011730935 0.0025198474 0.0002836297 0.0044604572 0.0070043765 -0.00066446455 0.008281825 0.0039574476 -0.004946043 0.0030462262 0.0012809102 -0.002084541 0.0005962997 0.00394427 0.0058375364 -0.0031931219 0.0065834527 -0.00879951 0.008126971 0.0035867419 0.007551491 -0.0021794778 -0.008660386 -0.0016244195 0.0069191996 0.002612361 0.0010655918 0.009048871 -0.002931292 0.0014980572 3.4527002e-05 0.0002644147 0.00035057124 0.009843667 0.0016182297 -0.010483061 -0.0011493007 0.0008422967 -0.0012069236 0.0016278615 -0.0011280921 -0.0024693075 -0.014256985 0.0018964026 -0.0031006173 0.0011605313 -0.0034213965 0.0041223075 -0.003451954 -0.007781761 -0.0057724435 0.00052209385 0.0031352928 -0.0024592285 -6.239982e-05 0.0004375453 -0.0021436764 0.012856574 0.002828273 0.00602671 -0.004259388 -0.0004173057 -0.005616665 0.0014316068 0.008665985 -0.0037753654 -0.0069231647 -0.0015410545 -0.008660574 -0.004884537 -0.0033093211 0.00037030614 -0.005818174 -0.007335965 0.0063447743 -0.0001722992 0.0028964488 0.0050325147 -0.000418567 0.011271212 -0.0019841713 0.004280936 0.00020448418 -0.000974155 0.0017555293 0.0006449669 -0.003943174 -0.006839276 -0.0020938416 0.006521506 0.0055059767 -0.0069648675 0.0031459653
no 0.0010123588 0.0023700816 -0.0025623858 -0.0035752896 0.00020754372 -0.0013899029 -0.0028575754 -0.002367122 -0.0014307473 -0.0018558961 0.0026129598 0.0057149967 -0.00025716148 0.00023693196 0.005021881 0.0008140848 0.0010848066 -0.0050980034 0.0047603035 0.0008803677 0.00572263 0.0010829972 -0.00051397143 0.0053510997 -0.0013402675 0.005602297 0.0007015345 -0.0005506297 0.0043375785 -0.003759011 0.0016145727 0.00023710376 -0.0020959622 -0.0017515332 0.0013635096 -0.003580111 -0.004684311 -0.0007717072 -0.0040219105 0.0014549806 0.0035224368 0.0031220312 -0.0045568915 0.0043802126 0.003818457 -0.0003210254 0.0029017585 0.0015278519 -0.004853039 -0.008335253 0.0012217232 0.0021531922 -0.0021481842 -0.0075073433 -0.0031998728 0.004683561 -0.0010151904 -0.00087734853 0.0017812906 0.0024049792 -0.0051921345 -0.0037762078 -0.00024144194 -0.0016042388 0.010276641 0.0032276248 0.0034627959 -0.007903599 0.0036779607 -0.0032132717 0.003667408 -0.0006457062 0.0027453604 -8.805161e-05 0.00067445694 -0.010058314 0.0024881565 -0.0015641755 -0.0008201811 0.0024064847 -0.0007437224 2.4130599e-05 0.0048897616 0.0021687206 0.0018207165 0.0053412654 0.009478417 0.001781055 0.009570798 -0.0016238437 0.00077928184 0.0010403845 0.0038814498 -0.001179058 0.0006961124 0.0056163985 0.005855317 0.0020653654 -0.0065373736 0.0034495187
ms. 0.003331588 0.0061927126 0.0005700331 -0.0015611737 0.0014358667 -0.0026227564 0.0011009084 -0.0045340727 0.001601613 -0.0013841192 0.0028825984 0.0019949696 -0.000178629 0.0054353513 -0.0037054678 0.0023960958 0.0030689524 -0.004431124 -0.00026872547 0.0038043489 0.0034915623 -0.0007165242 -0.004472837 0.0018953838 -0.0009646444 0.0088636065 -0.0014926471 0.0059459736 0.0048496365 -0.002701184 -0.003331772 0.0021245296 0.000538407 -0.00202456 0.007624276 0.0014393356 2.0467762e-05 0.0041306936 -0.004531256 -0.0026636866 0.003616541 0.0031474559 -0.0019120766 0.0029778047 -7.624766e-05 0.002355084 -0.0015714568 -0.0046343007 -0.0035598783 0.0010307828 0.0075503467 -0.0023938979 -0.0038830256 -0.0024822555 0.004670191 -0.0017721894 -0.002350576 0.0029455621 -0.0024504382 0.0045016133 -0.00080515473 -0.0040383283 -0.0015514445 0.0022805785 0.0036242714 -0.00036797734 -0.0034553579 0.0012248062 0.0029739202 -0.0045293914 0.00735476 0.003313608 -0.0036606628 0.003761299 0.00012962136 0.0010212534 -0.0019206876 -0.004540329 0.001783519 0.0039547253 -0.0030095852 -0.002542101 0.0047727167 -0.0015687762 0.0036962773 -0.0029753274 0.0020674013 -0.0022320563 0.006961563 -0.006329801 -0.005836082 0.0041729207 -0.00020202193 -0.00018959698 7.305356e-05 0.0033480322 0.0048318636 0.0029282672 0.0008671164 0.0006275077
must 0.004559788 0.014682617 -2.9027753e-05 0.0035411722 -0.0014680094 -0.0066072107 0.0045475936 -0.014371061 0.00048047648 0.0007352458 -0.0001691307 0.0037875564 0.006065022 0.0016505565 -0.0032104787 -0.0056605404 0.0017494649 -0.0016661652 -0.0027602788 0.004884309 0.008098931 0.0042586885 -0.009676838 0.014874745 -0.009703568 0.011441432 0.007922921 0.0032296863 -0.0022638063 -0.012003261 -0.0021526436 0.0054497304 -0.0051225754 -0.006346757 0.011844898 0.0008252826 0.0009572208 0.0069001024 -0.0075162263 -0.0020085948 0.0055464217 -0.0030835501 -0.007803821 -0.0017419631 -0.0006869798 -0.0020753792 0.0012838388 -0.0003177545 -0.0031293824 -0.0067796134 0.007122427 0.00028415973 -0.0002107567 -0.0069401185 0.007933822 -0.0027474654 -0.00041268178 -0.002769734 -0.002478168 -0.0034517855 -0.00035246165 0.0023470272 -0.00451528 0.00025631697 0.010998258 0.007319015 0.0054484787 -0.0078103794 0.0026836493 -0.0050308974 0.009269839 0.0016271512 -0.004108897 -0.0019392506 0.0044059027 -0.005761953 -0.0007835226 0.00081082224 -0.00054250326 0.0014640968 -0.0057436135 0.005799217 0.00015655282 0.00011374373 0.010541232 -0.0018519061 0.0052449075 -0.0006688959 0.0047452515 -0.0026335316 -0.008993133 0.008782362 0.00013660321 0.0043419152 0.0005034798 -0.0004870223 0.0013897937 0.002152649 -0.0027707026 0.00635941
