2432 100
SOS -0.16961256 -0.107499324 -0.18389902 -0.033581264 0.1689845 0.10369855 -0.03975717 -0.1910566 0.076836444 -0.053998265 -0.119694285 0.078943506 -0.07755627 0.18917157 -0.1436215 0.045517024 -0.12536278 -0.17503518 -0.16233459 0.04491394 -0.1579945 0.037894357 0.06394841 0.06805298 0.1354493 -0.04032469 -0.051793426 -0.36001745 0.14787236 0.027883308 -0.07962303 -0.006028491 -0.0053563984 0.16779104 -0.04292632 0.010415123 -0.027711336 -0.041880023 0.0027512903 0.033883076 0.07717892 0.038199373 -0.062133804 -0.0327207 0.08743857 -0.21035251 -0.18655293 -0.17508854 -0.109182544 -0.15612198 -0.08439733 0.1764575 0.03276419 0.118731365 0.10539183 -0.03943491 -0.09532058 0.012672893 -0.02256068 -0.22240551 -0.13920112 0.070518635 0.05930928 0.37523818 0.15606576 -0.16314676 -0.1637185 -0.13041762 0.04563921 0.08387203 -0.033987656 0.04485777 -0.22634344 -0.033111602 0.06606632 0.1827942 0.1985193 0.02027594 -0.16892207 0.079996586 -0.016398396 -0.051362164 0.06325897 0.089525744 -0.037677877 0.06461488 0.053047642 -0.34451437 -0.29690108 0.0049990085 -0.2100946 -0.050053097 0.059369568 0.15327775 -0.101014085 -0.0110939825 -0.06402171 0.22912093 -0.17808308 -0.0076520555
EOS -0.20241916 -0.12478421 -0.21745579 -0.042000867 0.18476306 0.12822767 -0.044981867 -0.21628225 0.089834176 -0.061644863 -0.13567257 0.09441945 -0.08558405 0.21696955 -0.1663995 0.057293367 -0.14447622 -0.20788537 -0.18046114 0.043897294 -0.18372764 0.045943186 0.07753986 0.076981515 0.16447958 -0.04850536 -0.067913435 -0.4089556 0.17137575 0.034495812 -0.09186295 -0.0102435015 -0.0030117487 0.18971385 -0.053102378 0.013309417 -0.031255905 -0.04732097 0.0027862112 0.039478473 0.091396086 0.045479856 -0.07150139 -0.04037856 0.094768055 -0.2427207 -0.21327572 -0.20261344 -0.120883256 -0.17092364 -0.09333875 0.2069551 0.04408132 0.13192463 0.11511944 -0.03980364 -0.11318527 0.022581398 -0.031505436 -0.25576025 -0.1531524 0.07894447 0.058630053 0.42889795 0.1766941 -0.17974837 -0.19229117 -0.14984433 0.047012124 0.09056536 -0.045615148 0.056846898 -0.2540052 -0.03516036 0.08680421 0.21460399 0.22647473 0.01758731 -0.19270214 0.08533396 -0.011089876 -0.06289959 0.06552004 0.10128864 -0.035203934 0.08108828 0.054073725 -0.3958607 -0.33916625 0.008371817 -0.23321903 -0.05430439 0.062166262 0.17557153 -0.11475478 -0.0065902905 -0.06783004 0.26223242 -0.20536518 0.00048828206
the -0.33062145 -0.20848188 -0.349476 -0.06412852 0.31569326 0.20278594 -0.07097989 -0.36320823 0.14464389 -0.10152667 -0.22184472 0.1523441 -0.14072083 0.35289204 -0.2704161 0.09132711 -0.23855427 -0.3384504 -0.29804084 0.08097646 -0.308399 0.07694692 0.1324709 0.11635473 0.26901907 -0.07386368 -0.103587195 -0.6766027 0.2860378 0.054484185 -0.1486406 -0.008770218 -0.007249044 0.31101003 -0.08328265 0.02774118 -0.04979079 -0.068130344 0.0014212541 0.05581619 0.14698905 0.07871772 -0.11682504 -0.06934446 0.15772413 -0.39658228 -0.35670677 -0.34144768 -0.2013961 -0.29558188 -0.15352824 0.34623623 0.06783363 0.22090589 0.1907111 -0.070122406 -0.18625893 0.028971942 -0.05277596 -0.4201845 -0.26287508 0.13444488 0.099417195 0.70166963 0.29876333 -0.30709526 -0.32158065 -0.24546762 0.08519235 0.14757892 -0.08003013 0.093922116 -0.43155727 -0.05443822 0.13989912 0.34931046 0.36541492 0.030427132 -0.31670347 0.14680278 -0.021869205 -0.1068008 0.1165716 0.16201156 -0.06612577 0.12201996 0.091833755 -0.6573083 -0.56311405 0.014557258 -0.3951105 -0.09280738 0.10187862 0.2872582 -0.19070268 -0.011519898 -0.11118847 0.43156466 -0.34034976 -0.0066608605
of -0.2829713 -0.17665981 -0.3012812 -0.04995026 0.2705304 0.18111946 -0.06247428 -0.31458294 0.12663722 -0.09090989 -0.19473666 0.12701376 -0.128722 0.30735463 -0.22960299 0.07190184 -0.20239843 -0.28510863 -0.2531241 0.066836454 -0.26594934 0.06809492 0.112812534 0.103170566 0.22841892 -0.06701255 -0.09083469 -0.5758115 0.24502587 0.04520929 -0.13021627 -0.017040825 -0.010920122 0.26540133 -0.06838087 0.024226204 -0.036582038 -0.062887475 0.008373892 0.054665767 0.12452425 0.07403181 -0.10439698 -0.05431181 0.13926968 -0.33834958 -0.30607498 -0.2904829 -0.17524272 -0.24731757 -0.1362998 0.29303738 0.06168236 0.1859828 0.16956556 -0.057204742 -0.16000001 0.025070116 -0.047475155 -0.35769355 -0.21567339 0.11149442 0.086555354 0.6050798 0.25262615 -0.2628723 -0.2694337 -0.21167468 0.07258511 0.12392753 -0.068558216 0.08098826 -0.3684817 -0.04428947 0.120318286 0.30040005 0.31434566 0.02533008 -0.266556 0.11855336 -0.025908021 -0.08543755 0.10220298 0.14351584 -0.058218494 0.10928958 0.08471162 -0.56356025 -0.47828135 0.017595364 -0.32978833 -0.08585014 0.08571478 0.24601448 -0.16226673 -0.012208353 -0.098812155 0.36633623 -0.29421806 -0.0019191526
university -0.21027054 -0.12605284 -0.2193206 -0.03957675 0.20041345 0.12371913 -0.048826694 -0.22471501 0.09350721 -0.05750575 -0.13183601 0.09335772 -0.09308747 0.22430927 -0.16247422 0.057510383 -0.1440527 -0.20888339 -0.18611966 0.0454309 -0.19624838 0.050129116 0.08266655 0.074825965 0.17085576 -0.04464268 -0.06961854 -0.42408612 0.17441647 0.03556176 -0.093825 -0.0066804155 -0.010382673 0.19907847 -0.053482827 0.014936443 -0.025626536 -0.049971096 0.002950589 0.03697724 0.08675345 0.05129956 -0.0699048 -0.039743867 0.09455878 -0.2526856 -0.21576346 -0.2151537 -0.12533346 -0.18609335 -0.096085176 0.21202455 0.04307494 0.1306216 0.121091776 -0.04265933 -0.11970959 0.020095555 -0.026459904 -0.25838855 -0.16331686 0.088236235 0.060801376 0.43706337 0.18324316 -0.19366276 -0.19287969 -0.14748418 0.056794126 0.09927245 -0.04060495 0.05628974 -0.26421335 -0.034566656 0.08661485 0.21988149 0.23090683 0.022008289 -0.19120088 0.088317364 -0.017121335 -0.06685869 0.06983129 0.101710215 -0.037286803 0.080703124 0.062441096 -0.40885037 -0.35080886 0.012784433 -0.24921367 -0.06340401 0.06489796 0.1793158 -0.120579176 -0.009753509 -0.07457509 0.27077955 -0.2090588 -0.0006910781
and -0.2958132 -0.18380226 -0.30638304 -0.05663678 0.2718899 0.17771873 -0.062587835 -0.3142851 0.12877652 -0.08744954 -0.19582772 0.13213657 -0.13059752 0.3033188 -0.23231517 0.076116785 -0.19959663 -0.29621333 -0.26463768 0.06364076 -0.26180077 0.06645575 0.111423105 0.102696076 0.22984354 -0.063789815 -0.09153201 -0.58351153 0.24180828 0.037647095 -0.12689638 -0.013588539 -0.0021676002 0.27967313 -0.073841944 0.020565758 -0.037843004 -0.058895145 0.008163623 0.051710315 0.13049462 0.074372195 -0.10262024 -0.057380497 0.14106524 -0.34640884 -0.30122298 -0.29581273 -0.17482911 -0.25478354 -0.13901046 0.29174203 0.056572285 0.1885277 0.16155283 -0.064152285 -0.15618923 0.023788342 -0.051117957 -0.36432448 -0.22036292 0.11751179 0.08907068 0.6099245 0.25396314 -0.26682603 -0.28086394 -0.21914287 0.07473479 0.13449746 -0.06095498 0.07901264 -0.37301084 -0.044611514 0.11689009 0.3045817 0.32570466 0.022231454 -0.27410984 0.12561089 -0.022387303 -0.09337883 0.09834713 0.13927853 -0.052122694 0.11014126 0.081388146 -0.56991565 -0.4811075 0.01818113 -0.34036207 -0.077318184 0.09190932 0.24530847 -0.17012228 -0.006881369 -0.09263715 0.36654338 -0.30065084 -0.0006805251
to -0.27085814 -0.16877511 -0.28297773 -0.04946186 0.25393575 0.1680406 -0.06055775 -0.29415032 0.11514265 -0.08421149 -0.18507294 0.12182619 -0.11806583 0.28107554 -0.22159317 0.069400124 -0.18645845 -0.2678445 -0.24110165 0.06642023 -0.24669231 0.062444676 0.105922505 0.09186839 0.21128829 -0.06348384 -0.082375534 -0.5412497 0.22618285 0.037556663 -0.11757979 -0.011488186 -0.008407792 0.250829 -0.06804749 0.01480829 -0.042761922 -0.06288806 0.010069275 0.042400368 0.11267115 0.06670613 -0.09275841 -0.05508118 0.12824583 -0.31670052 -0.27717096 -0.27535543 -0.1632134 -0.23704468 -0.12458727 0.26989424 0.052680403 0.16791081 0.14994009 -0.05759887 -0.14605434 0.024558779 -0.03752105 -0.34142804 -0.20020789 0.103949085 0.083075345 0.5685735 0.23751393 -0.24693348 -0.25420928 -0.19729945 0.061151132 0.123311765 -0.054868963 0.07849805 -0.34612003 -0.04215886 0.11089132 0.28460303 0.30084267 0.027121827 -0.24529305 0.12004457 -0.021674357 -0.088543825 0.095622726 0.125825 -0.05227531 0.101803035 0.08091651 -0.5266049 -0.44992945 0.015995136 -0.31310147 -0.075391665 0.08163829 0.22802293 -0.15664192 -0.007010455 -0.08812786 0.33721378 -0.27935424 -0.0038022702
college -0.12530774 -0.07593851 -0.1377397 -0.02355697 0.124046825 0.07993991 -0.025012154 -0.1385227 0.05722509 -0.03841434 -0.08293781 0.062124334 -0.050301123 0.13973092 -0.10759678 0.035376623 -0.09077848 -0.12818003 -0.11325601 0.02480894 -0.11565371 0.024654977 0.053300194 0.051008306 0.104697295 -0.024529802 -0.035691127 -0.2593531 0.10444514 0.016484488 -0.05198119 -0.0039202725 -0.008084149 0.1195863 -0.03130667 0.0053343433 -0.018748283 -0.028741995 0.0056620655 0.023932742 0.05363507 0.028144578 -0.044440158 -0.021766264 0.06356525 -0.14800125 -0.13329016 -0.13108696 -0.076418355 -0.114101 -0.053865526 0.13457093 0.021392059 0.08813129 0.07649447 -0.024187509 -0.06643544 0.010786905 -0.017130267 -0.15480231 -0.099552535 0.057075273 0.04392976 0.27238175 0.106928065 -0.11679919 -0.11506271 -0.09360625 0.02577436 0.056743253 -0.033872254 0.029726798 -0.16528264 -0.019173577 0.05574072 0.12898983 0.14283188 0.009786809 -0.12183711 0.04967244 -0.015390491 -0.03690717 0.05035146 0.0671616 -0.021005783 0.049270608 0.039129887 -0.24973966 -0.21557267 0.00843193 -0.14897618 -0.03605176 0.041025326 0.10383799 -0.06878581 -0.0105804615 -0.039097343 0.16244553 -0.13217488 -0.002779379
bicol -0.12773338 -0.08637466 -0.13832341 -0.023437131 0.12280841 0.07906865 -0.023635078 -0.14558607 0.055819143 -0.0361326 -0.08738467 0.06278879 -0.05166665 0.13711646 -0.1048137 0.035029594 -0.09131736 -0.13068622 -0.123838805 0.034545403 -0.12222032 0.030338531 0.049947493 0.05019484 0.10536938 -0.031868093 -0.038290326 -0.2707403 0.10995287 0.023799691 -0.062059954 -0.0057049138 -0.003994426 0.12326545 -0.027575621 0.013343229 -0.018489085 -0.031451233 0.0048505366 0.024055274 0.060497995 0.036683492 -0.042787675 -0.029896913 0.06281148 -0.15546061 -0.13314499 -0.13204753 -0.08400346 -0.12143041 -0.059569456 0.13561006 0.024110617 0.082770474 0.079729415 -0.030607298 -0.068625316 0.015124564 -0.021746676 -0.16517165 -0.10254639 0.055350147 0.038114056 0.28181112 0.11198878 -0.114148185 -0.1269836 -0.09329277 0.03770747 0.057965547 -0.025749138 0.03847741 -0.16807052 -0.021409035 0.049868617 0.14327928 0.14387986 0.015727567 -0.1218277 0.05822366 -0.0100165745 -0.03818501 0.04508615 0.06928799 -0.026424617 0.054747865 0.032566298 -0.26365802 -0.22390231 0.0034132786 -0.16050343 -0.04257827 0.036880348 0.11257329 -0.0788691 -0.00092748425 -0.047460135 0.17539363 -0.13391635 -0.0040554972
is -0.13738939 -0.09021625 -0.1525807 -0.032105584 0.12925144 0.08689908 -0.031126125 -0.1552903 0.06574039 -0.03934297 -0.08861926 0.064056136 -0.062222004 0.1545755 -0.11328524 0.037832115 -0.09566069 -0.14822823 -0.12780388 0.030036146 -0.13180268 0.034334183 0.057022456 0.04806008 0.11311531 -0.0341721 -0.047604013 -0.28933176 0.119426526 0.024139093 -0.06421734 -0.0036433684 -0.00089599035 0.13837059 -0.031313065 0.0077849156 -0.022967873 -0.030690502 0.0029235757 0.02390282 0.06324837 0.038378354 -0.051724866 -0.030657459 0.06284469 -0.17171013 -0.14757921 -0.14101656 -0.08659564 -0.12618974 -0.06456563 0.14405732 0.034290537 0.088390246 0.08505797 -0.030485453 -0.07784266 0.017893182 -0.017729409 -0.17940533 -0.11073145 0.058277987 0.047499225 0.3040136 0.12995669 -0.12994146 -0.13446456 -0.102133766 0.031699326 0.06724807 -0.036535773 0.03497994 -0.18086322 -0.023724532 0.057653 0.14329928 0.1545704 0.008723545 -0.13474767 0.06354346 -0.007351228 -0.047937155 0.05026438 0.07400813 -0.027146965 0.051779006 0.041836966 -0.28026205 -0.24217609 0.008645513 -0.16718844 -0.04258741 0.043196585 0.117533766 -0.08469564 -0.006938167 -0.05248806 0.18773004 -0.14358781 -0.005441526
for -0.21649766 -0.13227071 -0.22845411 -0.04301368 0.20371975 0.13739689 -0.043964628 -0.23371154 0.09745488 -0.06703565 -0.14677846 0.09820042 -0.0926313 0.22902228 -0.17669642 0.053472627 -0.15290058 -0.2159477 -0.1914848 0.052522507 -0.20135292 0.054123685 0.08526894 0.0752074 0.16758822 -0.05221674 -0.06988992 -0.43038595 0.17635888 0.029231466 -0.092328675 -0.008329642 -0.0009736634 0.1993515 -0.051968724 0.013310008 -0.032804772 -0.050540704 0.00684119 0.03818536 0.095538035 0.05466184 -0.07648634 -0.041319884 0.0971432 -0.2557884 -0.23081858 -0.21950522 -0.12722713 -0.18450604 -0.10470989 0.22051626 0.043703984 0.13587597 0.119971134 -0.03911591 -0.123265594 0.025895642 -0.029943507 -0.26764536 -0.17017476 0.08740778 0.06652514 0.45128092 0.18764429 -0.19324678 -0.20775191 -0.15939102 0.04876963 0.09354422 -0.0483326 0.05432849 -0.2733603 -0.034527723 0.083764106 0.2216417 0.23497 0.015200476 -0.20609806 0.09651577 -0.014358391 -0.06912089 0.072513215 0.10738789 -0.046042882 0.07919339 0.0638501 -0.4161028 -0.36185867 0.01680584 -0.25289816 -0.056194965 0.070844226 0.18266016 -0.12734026 -0.012355712 -0.077487536 0.27959475 -0.2192963 -0.0093564475
students -0.15498175 -0.09583371 -0.16557424 -0.030330643 0.14313394 0.095506676 -0.028253036 -0.16668761 0.06832596 -0.050651997 -0.10622578 0.070444405 -0.064758606 0.16675135 -0.12687366 0.037106656 -0.10766385 -0.15185003 -0.14317483 0.03599199 -0.14562385 0.041377846 0.05696857 0.06019759 0.1176824 -0.030151853 -0.04681796 -0.30756855 0.12685096 0.025484812 -0.07032014 -0.010037389 -0.007465899 0.14241448 -0.040018495 0.0110986475 -0.022247342 -0.033535495 0.0058221333 0.022528196 0.062000215 0.03375141 -0.04821432 -0.034661084 0.069422714 -0.1844067 -0.16554707 -0.15598978 -0.09063998 -0.13854755 -0.073894076 0.15271641 0.03461855 0.097980104 0.09334984 -0.030462027 -0.08284448 0.013526149 -0.022498807 -0.1955979 -0.11655484 0.06120288 0.05165733 0.32503027 0.13617742 -0.1362161 -0.14992978 -0.11399715 0.033236783 0.07481616 -0.035094924 0.042123668 -0.19499286 -0.029905146 0.06351215 0.16313398 0.16661668 0.0114490995 -0.14446287 0.07082258 -0.008135695 -0.047459904 0.05603409 0.07272376 -0.024617223 0.058520924 0.039149128 -0.30193362 -0.25635582 0.0070242663 -0.17912264 -0.039060637 0.049638007 0.1260268 -0.08920724 -0.0062179803 -0.052657213 0.20132962 -0.15785089 -0.002238852
student -0.15438794 -0.09860998 -0.16361898 -0.029634282 0.14740813 0.09699336 -0.029260183 -0.17676704 0.07179844 -0.04411393 -0.10123308 0.07382379 -0.06672198 0.16840409 -0.132173 0.039205484 -0.113959216 -0.15635286 -0.14150907 0.033260997 -0.14963834 0.03739405 0.06583212 0.055953845 0.13068998 -0.035674375 -0.049991958 -0.31737053 0.13232349 0.024944438 -0.07061202 -0.0057645747 0.00011904372 0.15572979 -0.034113623 0.01302326 -0.024267444 -0.032968618 -0.0005480643 0.023310423 0.067788914 0.03903036 -0.054449905 -0.029701244 0.07241214 -0.1892219 -0.1709444 -0.16426499 -0.093892395 -0.13608342 -0.070173696 0.16607441 0.03729851 0.10227171 0.09151975 -0.033024766 -0.09152456 0.014699025 -0.018610034 -0.19506113 -0.11731125 0.06910976 0.05472022 0.33869222 0.14395496 -0.13926528 -0.15014976 -0.12060624 0.040033586 0.074123405 -0.033178218 0.0427513 -0.20119393 -0.03055067 0.06713164 0.1662912 0.171372 0.012120092 -0.14385153 0.07327067 -0.007942579 -0.046662316 0.058350887 0.075191624 -0.031603064 0.061203916 0.040413935 -0.31243563 -0.26865414 0.009443405 -0.189249 -0.0405408 0.05478981 0.1386362 -0.09272659 -0.00738096 -0.05800502 0.20710735 -0.15981986 -0.003113366
offense -0.2145441 -0.1298554 -0.217476 -0.02835928 0.2068273 0.122814 -0.05121295 -0.23280093 0.091793776 -0.066257805 -0.16124342 0.09906585 -0.10345303 0.21042198 -0.16767444 0.052713327 -0.13886836 -0.21413107 -0.19173667 0.054496955 -0.17306246 0.054642957 0.07584749 0.069065824 0.16891818 -0.04699563 -0.05591243 -0.43050855 0.1730768 0.024577167 -0.1000979 -0.013434049 -0.0026832374 0.20668195 -0.06232017 0.016113728 -0.032909647 -0.041449532 0.0089164935 0.033572983 0.09331002 0.045286924 -0.07239411 -0.03244171 0.09462061 -0.24947572 -0.21183796 -0.20507976 -0.13914646 -0.17423055 -0.10275954 0.20153911 0.047053725 0.12718153 0.12316985 -0.043653056 -0.10372589 0.023097057 -0.03750233 -0.26787165 -0.15236309 0.07285829 0.074849226 0.43298215 0.1723997 -0.19695239 -0.20283103 -0.16558282 0.051752765 0.086926654 -0.034500677 0.057666954 -0.27731174 -0.029823618 0.0889141 0.22543319 0.24400689 0.010925113 -0.18817042 0.092464544 -0.013161334 -0.07056642 0.07027962 0.10112148 -0.037073843 0.084367 0.06290494 -0.41094023 -0.34016612 0.019305952 -0.24307536 -0.05770006 0.058288656 0.17075875 -0.12705226 -0.003665439 -0.06733001 0.26555976 -0.22206296 -0.0022816285
are -0.108540215 -0.072916776 -0.120699435 -0.01836649 0.10274913 0.06769777 -0.023968028 -0.11963021 0.049590603 -0.029977975 -0.07880635 0.04848004 -0.044654503 0.11576005 -0.08556098 0.029510185 -0.078108326 -0.11424351 -0.10237556 0.027053129 -0.1073988 0.025094077 0.040122155 0.042944092 0.09222788 -0.02858982 -0.030923206 -0.22838175 0.09052913 0.019548248 -0.05077754 -0.0022762993 -0.0007091102 0.10663343 -0.0317209 0.011538247 -0.01771084 -0.023621833 0.0056363964 0.02423014 0.043108664 0.03185164 -0.043271285 -0.025191583 0.04901347 -0.12899545 -0.12252095 -0.11459501 -0.06830689 -0.10028752 -0.05525083 0.119177654 0.026324308 0.07549414 0.06032766 -0.02334904 -0.062481254 0.012217852 -0.0133090215 -0.14273377 -0.08704264 0.051148158 0.03582101 0.23225427 0.09716495 -0.10495003 -0.10160853 -0.07945967 0.028854305 0.052109756 -0.019648233 0.034748193 -0.14737499 -0.015333253 0.05067823 0.121379815 0.1264596 0.014503721 -0.11011834 0.053133726 -0.0099508045 -0.036890503 0.03944094 0.050239276 -0.021448763 0.039653257 0.027826896 -0.22348297 -0.18706495 0.00485476 -0.12691718 -0.03357075 0.0359051 0.09337485 -0.06457622 -0.010278145 -0.033728693 0.14039974 -0.10950449 -0.0015032921
in -0.21011807 -0.13708282 -0.22853547 -0.037415422 0.20462754 0.1351325 -0.047678914 -0.2377947 0.09328884 -0.06462249 -0.14733034 0.0937031 -0.09296992 0.22817263 -0.16952065 0.056739904 -0.14955485 -0.2180101 -0.19563727 0.047786422 -0.19535743 0.05603367 0.086398765 0.07781789 0.16709247 -0.05353121 -0.070096485 -0.43084845 0.184971 0.030865982 -0.09674379 -0.011970426 -0.0034521471 0.20678695 -0.049223077 0.012823338 -0.028511137 -0.043503307 0.00081561995 0.037472956 0.0888605 0.05009557 -0.06996068 -0.04500644 0.10005416 -0.2579098 -0.2294216 -0.22006704 -0.13435991 -0.19004309 -0.10005824 0.22232252 0.040280577 0.13984276 0.12473781 -0.043580707 -0.122175016 0.019438148 -0.030355446 -0.2718245 -0.1624045 0.0888826 0.06264125 0.45130232 0.1938719 -0.197341 -0.20528826 -0.15795323 0.056051925 0.09819855 -0.047602005 0.05908725 -0.27720335 -0.04127422 0.086671285 0.2266865 0.24231638 0.016434781 -0.203004 0.08702536 -0.021276996 -0.06108728 0.07603194 0.1088389 -0.045065425 0.07718611 0.06030556 -0.42287052 -0.3591148 0.01602464 -0.2574077 -0.06576136 0.06393798 0.18807799 -0.124655746 -0.011126659 -0.06929449 0.27258435 -0.21850805 -0.0041277395
or -0.18496007 -0.11486076 -0.20254104 -0.03899757 0.18161537 0.116882615 -0.03916313 -0.20054704 0.08480426 -0.05544837 -0.12588522 0.08731052 -0.08136703 0.19809166 -0.15654051 0.05203165 -0.13215281 -0.19215126 -0.1718461 0.041488994 -0.17741057 0.041705508 0.07111759 0.064312816 0.15217109 -0.043709863 -0.059968438 -0.3830383 0.15858592 0.023720937 -0.07890891 -0.0064671286 -0.010222059 0.17819685 -0.049517844 0.018047579 -0.026934952 -0.044510927 0.0031283288 0.036099367 0.08282461 0.048788425 -0.06784309 -0.039077133 0.08763064 -0.2291036 -0.20330235 -0.1914029 -0.112231255 -0.16120648 -0.085619524 0.19780292 0.037739296 0.119116396 0.11321034 -0.040444877 -0.10116629 0.022278763 -0.026656 -0.23559552 -0.15059763 0.07256282 0.05344315 0.39672863 0.16974223 -0.16558418 -0.18385366 -0.14180146 0.04303564 0.087980114 -0.046652775 0.050402425 -0.23970278 -0.036900837 0.08079343 0.19980043 0.20515238 0.016431026 -0.17876019 0.07721966 -0.01571228 -0.055422746 0.07183417 0.09092249 -0.038828 0.06890529 0.048198614 -0.3712318 -0.31437248 0.007888235 -0.2206912 -0.055525657 0.06382665 0.1620356 -0.11070582 -0.012105334 -0.06690883 0.24492964 -0.19435817 -0.008178652
a -0.19893757 -0.12565616 -0.20677982 -0.03676631 0.18261942 0.125357 -0.04047462 -0.21953006 0.08488796 -0.05994602 -0.13265452 0.09647977 -0.08380888 0.20755382 -0.16582121 0.05481898 -0.14014983 -0.20478599 -0.17788537 0.046595387 -0.18147683 0.04896194 0.07234742 0.074838765 0.15358478 -0.048473082 -0.058120355 -0.40439805 0.16784938 0.028042901 -0.08798004 -0.010135787 -0.0014422407 0.1857503 -0.05072385 0.009807701 -0.028339695 -0.038673777 0.0043674326 0.031006109 0.091196164 0.050292246 -0.07065226 -0.03737971 0.091752306 -0.23513885 -0.20996359 -0.1988156 -0.11577459 -0.1738401 -0.09454848 0.20473483 0.045622546 0.12681282 0.11515803 -0.04405573 -0.107739374 0.020726062 -0.02828156 -0.24881685 -0.1540227 0.076002 0.0646971 0.41329777 0.17926851 -0.184029 -0.18443698 -0.14748396 0.052210882 0.094081916 -0.04568503 0.050540492 -0.25723675 -0.03717506 0.082736194 0.20579654 0.21423557 0.015945267 -0.18648578 0.08468266 -0.012661132 -0.060604982 0.06971961 0.09355305 -0.0429992 0.073368825 0.05354728 -0.38968974 -0.32965827 0.00727087 -0.22796182 -0.060633816 0.061057843 0.1712724 -0.10936577 -0.011879232 -0.07134917 0.25866625 -0.20593783 -0.0033835843
i -0.07094419 -0.05076457 -0.078628965 -0.015765443 0.0755321 0.04201072 -0.009483517 -0.08157859 0.032339655 -0.019491859 -0.052289464 0.03805235 -0.031872433 0.08003492 -0.05853837 0.023796754 -0.045941792 -0.0691707 -0.060148444 0.01467699 -0.07062688 0.02152515 0.02732356 0.031583104 0.05589213 -0.015260086 -0.023912009 -0.15182412 0.065705374 0.016733635 -0.036804125 -0.0068285237 -0.0007183827 0.06921552 -0.0176253 0.010391891 -0.013546088 -0.013027265 0.0028098796 0.011262717 0.03685099 0.01341072 -0.030598924 -0.012830928 0.036720075 -0.09147265 -0.07505788 -0.07960293 -0.042641535 -0.061172582 -0.034441102 0.08038529 0.010867453 0.0494328 0.04013148 -0.014800994 -0.039988015 0.008392062 -0.008983222 -0.09092366 -0.061724726 0.029562263 0.02077604 0.15556811 0.060880274 -0.06671684 -0.07158617 -0.056102347 0.01443203 0.029665291 -0.021681445 0.020640915 -0.097016804 -0.010615026 0.024216147 0.07971108 0.08637025 0.008482334 -0.069089115 0.03359381 -0.0030404706 -0.019214729 0.02443937 0.042580023 -0.013695256 0.030181346 0.023403816 -0.1446076 -0.12848264 0.008098627 -0.09056928 -0.02062313 0.027729757 0.0593215 -0.041757066 -0.005835291 -0.028858375 0.08966467 -0.076641776 -0.0019672818
1 -0.24285877 -0.14109506 -0.2301944 -0.039785948 0.22009335 0.14472827 -0.060831394 -0.2540877 0.097576596 -0.07573566 -0.17895317 0.10180196 -0.11393846 0.22492208 -0.18704726 0.059371136 -0.15659103 -0.22823057 -0.20905682 0.062990665 -0.18591785 0.06294789 0.08024784 0.06617032 0.17296739 -0.04340749 -0.06189144 -0.45954823 0.1957161 0.035243753 -0.10523076 -0.023945246 0.0027512342 0.22104572 -0.06123012 0.014763691 -0.030792098 -0.055861026 0.016270097 0.027326144 0.103751905 0.04900443 -0.08891284 -0.040623177 0.102069736 -0.28112397 -0.23951277 -0.22487113 -0.15044564 -0.19005577 -0.10082018 0.22099882 0.04683075 0.13761936 0.13313118 -0.049127758 -0.11000238 0.019031702 -0.04743191 -0.29759553 -0.16107704 0.07504275 0.083346575 0.47576386 0.18327628 -0.21594155 -0.22577727 -0.18303314 0.0535633 0.091121614 -0.03613185 0.06637413 -0.2989191 -0.037076678 0.08627327 0.23650967 0.2655011 0.003670007 -0.19808811 0.104112215 -0.009631818 -0.07773542 0.068577506 0.10779529 -0.04971339 0.086919546 0.0727879 -0.44095162 -0.36585277 0.02549235 -0.26761663 -0.065378495 0.05983733 0.18838932 -0.13248897 -0.0037007546 -0.068410575 0.27760768 -0.25128198 0.007193612
what -0.057737704 -0.038223475 -0.06169626 -0.012358947 0.056097593 0.036785316 -0.009689451 -0.06560164 0.02827721 -0.015102621 -0.034579422 0.026001696 -0.023449061 0.06269043 -0.04163653 0.011719068 -0.034898765 -0.06039775 -0.054011706 0.014551985 -0.052420445 0.011000667 0.025887845 0.022715138 0.044351485 -0.01578142 -0.012915068 -0.11042031 0.043081466 0.008192206 -0.025404593 -0.004127013 0.00082331826 0.056817114 -0.009821153 -0.00082976127 -0.007957677 -0.006448446 -0.0018065368 0.0063447477 0.02459979 0.012892402 -0.017567737 -0.008861687 0.02667597 -0.06242674 -0.056751605 -0.06169153 -0.03698648 -0.053778615 -0.025181247 0.05853815 0.007888376 0.032549933 0.034665275 -0.010879607 -0.026620079 0.0023375675 -0.0059115407 -0.06669962 -0.04150714 0.02544841 0.016955145 0.12132739 0.05271039 -0.047480755 -0.056991145 -0.041216258 0.014634029 0.027903484 -0.015293532 0.020474868 -0.07376051 -0.01149999 0.024570823 0.062646404 0.06284356 0.0062578595 -0.055319667 0.02002648 -0.0020568762 -0.015544191 0.023060853 0.027514841 -0.0070008673 0.019705454 0.016363714 -0.11247337 -0.09269817 -0.0014033196 -0.06508411 -0.014753586 0.01739614 0.052912127 -0.033660598 -0.00074628287 -0.018167553 0.07345689 -0.05421989 0.002553523
dean -0.08394937 -0.057330936 -0.08879294 -0.020658653 0.0812791 0.055827912 -0.02259947 -0.09777463 0.03822461 -0.031192137 -0.056084897 0.04319413 -0.039911013 0.09533364 -0.06996389 0.02133211 -0.058404066 -0.086378515 -0.07994572 0.016274644 -0.085118406 0.018779112 0.031621538 0.028369557 0.07433332 -0.01546305 -0.026452854 -0.1774908 0.07820173 0.018011244 -0.043272976 -0.003112959 -0.006068331 0.08713883 -0.017063033 0.008289612 -0.0131990835 -0.015527308 -0.003160024 0.015823744 0.038487747 0.017968904 -0.028871445 -0.014994754 0.04277372 -0.10803918 -0.09212942 -0.09393221 -0.056067478 -0.07804539 -0.041714728 0.08784781 0.020164387 0.06318386 0.055360846 -0.022717666 -0.05279218 0.0022649313 -0.011731184 -0.11390238 -0.07116882 0.04028396 0.02632301 0.18540703 0.07335636 -0.07757393 -0.07824585 -0.05994057 0.021450203 0.043395452 -0.024956668 0.026500251 -0.116114706 -0.016423598 0.041571636 0.08910271 0.09916351 0.006881991 -0.08361648 0.032721296 -0.009305327 -0.027623067 0.027467432 0.049079943 -0.016823566 0.037221592 0.020950139 -0.17733537 -0.15296161 0.010815097 -0.10338875 -0.026580894 0.026914122 0.07609157 -0.045249704 -0.0065680663 -0.027184812 0.11754763 -0.0889321 0.0016582692
can -0.07503831 -0.04487232 -0.07885979 -0.018580081 0.07859094 0.048497427 -0.014169747 -0.08029128 0.03850394 -0.025230195 -0.05218614 0.030771537 -0.029180877 0.083624564 -0.062683515 0.016903505 -0.051740423 -0.07574096 -0.06976573 0.021688052 -0.07461553 0.02031873 0.024087142 0.025387907 0.060260188 -0.014442824 -0.024508135 -0.15280011 0.06088759 0.017585555 -0.038717285 -0.0025947923 8.1323524e-05 0.06857374 -0.022109458 0.007494852 -0.011534891 -0.013543638 -0.0008646073 0.00971627 0.035020176 0.022636581 -0.029993376 -0.008873009 0.04090096 -0.09147679 -0.08487363 -0.07954479 -0.03977088 -0.0695253 -0.040898852 0.07903034 0.009509024 0.052196383 0.041389305 -0.014497352 -0.0399234 0.0032130908 -0.011951538 -0.09979977 -0.058019005 0.03563817 0.020204727 0.16287114 0.06960156 -0.07273927 -0.06817209 -0.05563761 0.017299604 0.02936727 -0.0127784815 0.023333674 -0.10013158 -0.009233185 0.028689155 0.075173505 0.08496481 0.003643322 -0.07545748 0.030096445 -0.0034212198 -0.025668636 0.022617746 0.04436747 -0.018274318 0.026006408 0.017692808 -0.14806256 -0.13158588 0.004383986 -0.0959689 -0.022576584 0.028575143 0.06906897 -0.045320254 -0.0052328473 -0.026937656 0.09796618 -0.08165506 -0.0071720043
contact -0.0477981 -0.028665883 -0.056990862 -0.008277715 0.05099516 0.033601694 -0.00571332 -0.05890512 0.027699884 -0.016200949 -0.0288711 0.025941493 -0.026101166 0.05945568 -0.0432032 0.016011186 -0.037124462 -0.055656668 -0.04290096 0.016114818 -0.052063745 0.012300156 0.020268258 0.0221743 0.041318588 -0.0050795893 -0.01581586 -0.10358037 0.04287653 0.009799718 -0.018809794 0.0011664006 -0.0047018104 0.04882145 -0.011458224 0.0060820533 -0.004525274 -0.013628751 -0.0049371314 0.010361658 0.017253071 0.012583818 -0.019408267 -0.008618438 0.023476092 -0.055924434 -0.053614423 -0.050480105 -0.027399175 -0.041377112 -0.019148821 0.054833718 0.0070276177 0.03841012 0.03346321 -0.016222732 -0.03348332 -2.0166857e-05 -0.009069545 -0.067976266 -0.042938836 0.019023942 0.02030974 0.11227064 0.047537576 -0.04769333 -0.04822404 -0.038905032 0.007133658 0.020867404 -0.010713495 0.011032037 -0.068069905 -0.0043496406 0.018086523 0.057593975 0.061407685 0.00048853 -0.05145912 0.018333055 -0.0061820094 -0.018401844 0.018376427 0.02646807 -0.012049863 0.02255917 0.015498665 -0.10256113 -0.083431184 0.0010975744 -0.05913768 -0.010993714 0.010865624 0.04318142 -0.027452111 -0.0084146885 -0.021435762 0.06392264 -0.047459222 -0.0056062974
- -0.20668356 -0.12626518 -0.21301167 -0.03554794 0.18899669 0.123948894 -0.04635613 -0.21539155 0.09175547 -0.060712803 -0.15332206 0.09492565 -0.098149754 0.19633263 -0.16632873 0.054185897 -0.13902117 -0.20451146 -0.18417346 0.0509273 -0.16413797 0.050828625 0.07680177 0.06713136 0.15309326 -0.046316236 -0.06296999 -0.4081004 0.17422646 0.029066913 -0.09166215 -0.017109198 0.002232953 0.19777615 -0.055269618 0.012963254 -0.026841698 -0.04683714 0.014616194 0.03398811 0.087415025 0.046332743 -0.078270085 -0.033687603 0.088277735 -0.2424756 -0.20279132 -0.2006911 -0.12921223 -0.16505708 -0.09241339 0.20105478 0.042971656 0.1258568 0.11519418 -0.045220517 -0.098538406 0.015118756 -0.03630596 -0.25348732 -0.14208093 0.069935106 0.07044478 0.41683012 0.167043 -0.18429 -0.19040567 -0.15795536 0.04422645 0.079440586 -0.035127997 0.058834508 -0.2585398 -0.028047472 0.08588926 0.21372138 0.22538887 0.009443734 -0.17711121 0.09017038 -0.013588906 -0.07103138 0.0645567 0.0928593 -0.039700594 0.0791648 0.06411738 -0.39120153 -0.32776546 0.017301165 -0.23273551 -0.055680547 0.060317222 0.16366532 -0.11301696 -0.0077682612 -0.06297148 0.2544645 -0.21368732 0.0021045252
registrar -0.0572102 -0.038476285 -0.062325872 -0.007018681 0.054763258 0.035535563 -0.011818568 -0.05911658 0.018669087 -0.011335795 -0.039430425 0.027847527 -0.02060305 0.062057637 -0.048656557 0.01964488 -0.034111116 -0.053954788 -0.04851682 0.0077092415 -0.05232386 0.01349889 0.018478023 0.02403575 0.046160735 -0.015917024 -0.011580464 -0.111772105 0.04976399 0.0076192287 -0.024966666 -0.005315547 -0.0008752776 0.052525867 -0.016187636 -0.001094121 -0.009307117 -0.01198179 0.0053099683 0.011966682 0.028729176 0.011961974 -0.0153664015 -0.010247123 0.028181653 -0.06753402 -0.052651394 -0.052744787 -0.030701594 -0.045028336 -0.027949562 0.057799365 0.008727886 0.031379044 0.03374902 -0.013785378 -0.031100444 -0.00093922386 -0.008953706 -0.073505305 -0.038054563 0.02547849 0.017635912 0.118323505 0.05089472 -0.054032594 -0.04703658 -0.0380912 0.013507617 0.022068618 -0.017393373 0.01333227 -0.07107245 -0.007730142 0.027614016 0.056668535 0.064709164 0.005432688 -0.054064453 0.024752986 -0.0019497559 -0.013633862 0.018993113 0.030660782 -0.012997995 0.023052054 0.019552233 -0.10707981 -0.09607348 0.0070191645 -0.06392602 -0.0119135175 0.015268583 0.05151901 -0.03266762 -0.004282976 -0.013352671 0.06765778 -0.055128142 0.0007643777
shall -0.2091722 -0.13408707 -0.22190845 -0.04364675 0.19060288 0.13185571 -0.046679024 -0.22527066 0.09071039 -0.056966305 -0.1354535 0.09874524 -0.08585569 0.22441888 -0.16499303 0.054535754 -0.14123853 -0.20569505 -0.19183432 0.0467136 -0.19494556 0.052780636 0.080598146 0.07890531 0.1617794 -0.046060815 -0.06974254 -0.41814712 0.17339712 0.029727217 -0.087327674 -0.0122965155 -0.0055626547 0.1943688 -0.05349693 0.0103758285 -0.032862935 -0.048986867 0.0019288693 0.031646166 0.08808411 0.052803002 -0.07113538 -0.04005275 0.092572786 -0.24612938 -0.2149932 -0.21017776 -0.12738109 -0.18117458 -0.096862175 0.21346518 0.04050711 0.13343102 0.11852761 -0.040789716 -0.10997882 0.018186066 -0.036377393 -0.25811714 -0.15684217 0.08987169 0.06248876 0.43283722 0.17961115 -0.19257617 -0.19587629 -0.15620336 0.054355424 0.090537526 -0.043760624 0.053846497 -0.26456496 -0.03417316 0.078708425 0.22199309 0.22864333 0.018131286 -0.18943174 0.08785345 -0.019958688 -0.058934618 0.07223923 0.10051522 -0.036219142 0.080706045 0.057186455 -0.4041338 -0.34439725 0.014544033 -0.24789983 -0.05561487 0.06467838 0.17659216 -0.11787813 -0.0088479025 -0.0684461 0.2666594 -0.2110677 -0.006281489
how -0.039414015 -0.029008195 -0.043676157 -0.0049972534 0.043270297 0.029772632 -0.0028844988 -0.041377965 0.020397196 -0.0111239115 -0.025843179 0.024772704 -0.018043077 0.045317415 -0.03186873 0.015433286 -0.029387394 -0.038661256 -0.033418275 0.009709195 -0.036929954 0.014498501 0.01000301 0.019676575 0.035139557 -0.006030247 -0.011414548 -0.084384486 0.032005746 0.011353813 -0.013379724 -0.006749567 0.00045636162 0.03534252 -0.0143517535 -0.00032509535 -0.006297919 -0.0042270566 -0.0036789568 0.0114218965 0.017885577 0.01221889 -0.0193733 -0.003977594 0.02362083 -0.050182894 -0.048357606 -0.039436355 -0.019823313 -0.030768465 -0.016336324 0.044265836 0.004658854 0.03315842 0.025965437 -0.010070911 -0.022231154 -2.7360633e-05 -0.0014487572 -0.05720329 -0.03367152 0.022672337 0.016788607 0.09278967 0.036075458 -0.039994404 -0.03623959 -0.024576368 0.0071176994 0.013765348 -0.008374488 0.01437117 -0.058125176 -0.011527376 0.012839083 0.04540613 0.050271038 0.004037767 -0.03495169 0.016523998 -0.0039608884 -0.010313518 0.010949964 0.021393752 -0.0043344456 0.018186005 0.016142387 -0.08231308 -0.07238678 0.00011838174 -0.05020935 -0.013870779 0.010990561 0.040561456 -0.020751292 -0.0065398538 -0.00915472 0.049925115 -0.04136749 0.0036331268
library -0.1362407 -0.083895355 -0.14263302 -0.030602034 0.123578444 0.07919032 -0.029857263 -0.14858803 0.058033418 -0.037615012 -0.086616725 0.05587713 -0.05640582 0.13940477 -0.1016999 0.04014736 -0.09024982 -0.13412072 -0.1166975 0.02422267 -0.12546457 0.028370366 0.04968859 0.046830393 0.10182757 -0.024757672 -0.04492393 -0.26917818 0.11088832 0.017104063 -0.058052596 -0.0020247898 -0.0052293786 0.12743299 -0.035457045 0.010031027 -0.014230869 -0.02653229 0.0004999865 0.026770594 0.059663072 0.032399926 -0.044541687 -0.03102965 0.06153744 -0.1531818 -0.14399172 -0.13548276 -0.08163951 -0.11461105 -0.063626446 0.13796034 0.027278788 0.08976501 0.07418988 -0.029332608 -0.07371135 0.015845735 -0.023520637 -0.16627355 -0.105500646 0.058494736 0.039874747 0.2800961 0.11229208 -0.122077666 -0.12853737 -0.09552084 0.03791698 0.06107042 -0.034419075 0.038685497 -0.17042723 -0.019971777 0.05376951 0.14301556 0.14673695 0.013293994 -0.12357298 0.058360115 -0.008981635 -0.042151112 0.04763412 0.059783548 -0.021186458 0.053050987 0.039541848 -0.26121035 -0.22213511 0.010480708 -0.15398377 -0.040531088 0.0459659 0.11512338 -0.07315328 -0.006714506 -0.04686284 0.17107306 -0.12820809 -0.00070524856
who -0.07701374 -0.042973254 -0.0755069 -0.009890279 0.06611815 0.042024426 -0.012949546 -0.0744894 0.03205411 -0.017707651 -0.044105858 0.035735413 -0.032383326 0.078711145 -0.06349768 0.02454438 -0.04943012 -0.070431925 -0.06765098 0.0177341 -0.06543875 0.013208942 0.03009086 0.023049742 0.05685884 -0.020041332 -0.027831849 -0.15134495 0.06541071 0.010602444 -0.031424448 -0.00078144827 -0.0018674431 0.06625818 -0.021165887 0.0063698944 -0.008699738 -0.016650634 0.00093586114 0.014792119 0.034605768 0.022964325 -0.02346546 -0.015419341 0.033660267 -0.0866894 -0.08126775 -0.07231446 -0.045902804 -0.062545 -0.03476836 0.07076831 0.016869793 0.04999102 0.0426947 -0.014423373 -0.037814315 0.0054955212 -0.0065624625 -0.09476971 -0.054009154 0.025273701 0.025242062 0.15747187 0.06270276 -0.06309461 -0.06708253 -0.057458267 0.018202044 0.031835552 -0.01952221 0.020912934 -0.09174548 -0.017165199 0.030397266 0.076244295 0.08154714 0.0115078455 -0.06448231 0.032722294 -0.0007676005 -0.025101157 0.030836761 0.040975843 -0.017766768 0.027699158 0.024248384 -0.14479437 -0.120658435 -0.00041644913 -0.08853606 -0.021759197 0.019817153 0.06648972 -0.04290829 -0.004188717 -0.028222688 0.09003846 -0.070005864 -0.0045387214
suspension -0.1928696 -0.103841744 -0.1848876 -0.021638252 0.16861783 0.11066729 -0.048665084 -0.19993876 0.07918947 -0.062193632 -0.13746731 0.08210297 -0.09231966 0.17475043 -0.1453768 0.042016476 -0.12328572 -0.17969112 -0.16298772 0.0464622 -0.14345565 0.04068752 0.06711615 0.05316472 0.14183643 -0.037864823 -0.051881332 -0.36294514 0.1581212 0.022926223 -0.080561526 -0.017463466 -0.006748722 0.17024416 -0.052149322 0.008971292 -0.028622372 -0.03616492 0.0135901235 0.029870212 0.07934082 0.038289506 -0.06829228 -0.033409286 0.08152379 -0.21726479 -0.18051748 -0.17823562 -0.12067889 -0.15677479 -0.07787136 0.17992903 0.038397126 0.10446853 0.09902434 -0.0384169 -0.08956509 0.014179511 -0.035557307 -0.23507826 -0.13497634 0.058980916 0.0679907 0.37410516 0.14340042 -0.16502464 -0.17939882 -0.140435 0.043519467 0.07412288 -0.033064984 0.04997743 -0.23977725 -0.027986277 0.06704801 0.18610993 0.2032656 0.010096298 -0.16266102 0.08401579 -0.0067998944 -0.0650367 0.054727357 0.07905775 -0.034287043 0.06467966 0.06337975 -0.3445946 -0.29524395 0.011481756 -0.20420998 -0.05332397 0.04648926 0.144674 -0.108393006 -0.002019888 -0.06391143 0.22358641 -0.19561972 0.0034059174
be -0.19026798 -0.11717945 -0.20776375 -0.040598676 0.18107712 0.12322629 -0.03849366 -0.2088602 0.08114528 -0.05574123 -0.12967011 0.092297725 -0.08637521 0.20805208 -0.15903254 0.053894814 -0.13748449 -0.19103225 -0.171042 0.042504724 -0.17487168 0.04699408 0.07959327 0.06579886 0.15047799 -0.039626613 -0.06592582 -0.3926319 0.15999198 0.026674947 -0.084798284 -0.00405108 -0.0080971075 0.18600008 -0.04560284 0.013746645 -0.028358394 -0.045586612 -0.0004994137 0.03492365 0.08378422 0.045554675 -0.06420488 -0.036389016 0.09232452 -0.23470591 -0.20063014 -0.19704749 -0.11669453 -0.1694703 -0.096107386 0.1972016 0.041572995 0.12290397 0.11439097 -0.043904003 -0.11008089 0.01618806 -0.03244275 -0.24137823 -0.14557289 0.08326354 0.060809538 0.40828413 0.17597781 -0.17592739 -0.18380255 -0.13816257 0.049830183 0.08340755 -0.04405799 0.053159904 -0.2441738 -0.036347102 0.07678765 0.20019281 0.21812174 0.022482872 -0.17775765 0.08107047 -0.01634238 -0.06274405 0.06910665 0.0992568 -0.038663894 0.07468674 0.053868353 -0.37895712 -0.32506317 0.011112201 -0.22395349 -0.05789037 0.06048469 0.16290861 -0.11196142 -0.008385114 -0.06220063 0.24412881 -0.20144202 -0.009107094
6 -0.21694727 -0.11693625 -0.21338955 -0.031444475 0.19820823 0.12350933 -0.045706674 -0.22032876 0.08751512 -0.06458339 -0.15816708 0.08571872 -0.098232694 0.20230675 -0.16822751 0.05080922 -0.13621086 -0.21077493 -0.18212202 0.059033405 -0.16672528 0.046575308 0.07017355 0.062789716 0.1611489 -0.038839396 -0.05799304 -0.40933186 0.17678662 0.02756922 -0.08967965 -0.019876711 0.0024803404 0.19773811 -0.058728795 0.005933292 -0.022405308 -0.046728168 0.01750608 0.026181078 0.08526621 0.046288077 -0.07490797 -0.04327872 0.08900413 -0.24262597 -0.20888333 -0.20182288 -0.13155305 -0.17006801 -0.092902265 0.1925232 0.047439594 0.11715866 0.115268305 -0.04374692 -0.0969534 0.016982634 -0.040076055 -0.26292318 -0.14346716 0.06953322 0.07189516 0.42427024 0.16037787 -0.18767814 -0.19873908 -0.16115116 0.046641506 0.08638596 -0.036058553 0.055804644 -0.26858842 -0.036088277 0.083102554 0.21231312 0.22726597 0.002915368 -0.1799586 0.09367783 -0.015551772 -0.06772894 0.06293147 0.09361998 -0.04165736 0.08167789 0.065565154 -0.3926586 -0.3248819 0.023656366 -0.22950482 -0.053378142 0.053954907 0.16884615 -0.1226296 -0.004426091 -0.06401128 0.2495567 -0.22180596 0.00044845731
months -0.19788262 -0.110251226 -0.18419474 -0.021452077 0.1773293 0.11383406 -0.043614835 -0.20558266 0.08321086 -0.06034741 -0.1463033 0.08673869 -0.092891976 0.18076807 -0.15206026 0.042121775 -0.12634611 -0.18296266 -0.16241448 0.05345158 -0.15341882 0.052705906 0.07095508 0.054194678 0.14132676 -0.03928201 -0.05423938 -0.3743455 0.15876408 0.02280788 -0.08525811 -0.0139654605 -0.004074707 0.18340288 -0.05358413 0.008584635 -0.019750027 -0.035777114 0.0074121137 0.021447076 0.07999856 0.03634962 -0.07470188 -0.027468493 0.08586182 -0.22560115 -0.187031 -0.18734986 -0.124354266 -0.1531752 -0.08414682 0.17925483 0.04329776 0.11463357 0.09886788 -0.039697267 -0.08819107 0.019782728 -0.037949268 -0.24163939 -0.1275007 0.060239535 0.060512114 0.3773801 0.14542499 -0.17623295 -0.18226571 -0.140156 0.04094246 0.07719062 -0.0259129 0.04899661 -0.24150774 -0.03276661 0.07267559 0.19319282 0.21025965 0.0076141837 -0.15931854 0.07881611 -0.008597224 -0.061828937 0.05785476 0.08717297 -0.039842952 0.07493449 0.06388458 -0.361456 -0.29830018 0.016645385 -0.20799349 -0.04796426 0.043821573 0.14358208 -0.115139954 -0.006684177 -0.06396716 0.22684084 -0.201996 0.002960377
first -0.09526173 -0.054309055 -0.10122123 -0.011840235 0.09326462 0.054057464 -0.023401842 -0.10209124 0.037895888 -0.025367577 -0.07066267 0.04121354 -0.04104246 0.09530012 -0.08028674 0.018964842 -0.06878748 -0.09922219 -0.085060515 0.02972876 -0.081596255 0.019728968 0.033407245 0.032398388 0.078642495 -0.02008479 -0.025670202 -0.19802135 0.08292995 0.017524252 -0.038399935 -0.0056285486 0.0037537343 0.0905742 -0.02351242 0.0012491854 -0.014717819 -0.020103395 0.0010803111 0.0150328195 0.04777929 0.02067146 -0.03425273 -0.020142375 0.042930692 -0.117367275 -0.09386872 -0.09850657 -0.056094225 -0.075899675 -0.047436066 0.09658723 0.02585967 0.05354498 0.05405706 -0.018606618 -0.04389039 0.0056617367 -0.020700345 -0.12482662 -0.06483241 0.03846622 0.037708443 0.20157303 0.080923505 -0.083012715 -0.097922 -0.07463023 0.022728147 0.037407782 -0.013489651 0.026690947 -0.1292345 -0.011740296 0.04052577 0.102029525 0.10934132 0.00211571 -0.0839401 0.04697252 -0.00986132 -0.03555215 0.034359116 0.03952308 -0.022762276 0.03879733 0.029539976 -0.1856445 -0.16025351 0.010291151 -0.107087806 -0.0313004 0.03270933 0.07777718 -0.061868154 -0.006721167 -0.034756213 0.11716182 -0.10765206 -0.0032209463
day -0.16381082 -0.08820138 -0.16142534 -0.017231418 0.1530286 0.09667085 -0.032853756 -0.16692673 0.072500154 -0.05339947 -0.11957041 0.06620751 -0.07129957 0.15411308 -0.13100605 0.03717548 -0.108603984 -0.15563549 -0.1361594 0.034792572 -0.12853746 0.039858922 0.0619055 0.043787956 0.11797208 -0.031318825 -0.046887163 -0.31301865 0.13411067 0.020942707 -0.07428502 -0.018459432 0.003326882 0.15443839 -0.042577013 0.011780462 -0.018335598 -0.029736158 0.012033102 0.0175702 0.067809805 0.029663302 -0.054132298 -0.033861503 0.07240055 -0.18592727 -0.16155417 -0.1529693 -0.102503136 -0.13373274 -0.07451211 0.1538287 0.033362623 0.08740817 0.088033445 -0.028415797 -0.08204427 0.019624196 -0.024964303 -0.19477564 -0.107829556 0.055376317 0.051889718 0.31613564 0.12817943 -0.14036898 -0.15242937 -0.11629707 0.03873831 0.0666756 -0.026505912 0.037718672 -0.2052594 -0.027602036 0.06269504 0.16422212 0.17066519 0.0037173615 -0.13565083 0.07238596 -0.010179008 -0.054919507 0.055649873 0.07230885 -0.037260912 0.06511706 0.053693127 -0.2977638 -0.24745905 0.019371444 -0.17305489 -0.039127346 0.03936383 0.12265706 -0.09681907 0.0027740926 -0.04436897 0.18813045 -0.16471785 0.0018107921
school -0.1441445 -0.09260359 -0.1475479 -0.031032935 0.13039464 0.09022338 -0.02558475 -0.15374032 0.06786755 -0.04015432 -0.09656954 0.06314234 -0.06561397 0.14792256 -0.11989766 0.03990439 -0.104683965 -0.14633323 -0.12936597 0.030912403 -0.12805621 0.02972675 0.05108174 0.04764671 0.10930995 -0.036680702 -0.050448004 -0.2940547 0.1152016 0.01779122 -0.06198106 -0.011019954 -0.002204621 0.14098473 -0.03478009 0.012202118 -0.018346442 -0.03153885 -6.7703163e-06 0.024209075 0.058587104 0.03815482 -0.04964935 -0.03144026 0.06488891 -0.17194332 -0.14842938 -0.14657085 -0.0907826 -0.12048173 -0.06877104 0.14300932 0.033966143 0.091204695 0.087075174 -0.0289239 -0.08047928 0.018171396 -0.024970496 -0.18326561 -0.10884436 0.05561292 0.045894504 0.30314735 0.12923764 -0.12820408 -0.13388924 -0.104096256 0.03591361 0.060706757 -0.03630033 0.03935487 -0.18251234 -0.023256289 0.05729722 0.1537475 0.15897234 0.012970253 -0.13463697 0.06429737 -0.01278117 -0.043426227 0.048167452 0.06504783 -0.032603297 0.05217188 0.03989366 -0.2834828 -0.24290928 0.0038656227 -0.16354814 -0.04114472 0.048635956 0.11958489 -0.081753455 -0.009101643 -0.05378572 0.18201824 -0.14358081 -0.0036732513
year -0.1582129 -0.092526935 -0.15762916 -0.020892192 0.14753515 0.08918887 -0.034066793 -0.16369227 0.0726362 -0.04632817 -0.11592061 0.07099336 -0.071099594 0.15234949 -0.119553074 0.043040168 -0.10575686 -0.1568447 -0.14237405 0.04014196 -0.13080923 0.043437254 0.05402856 0.0463904 0.123383 -0.031398356 -0.04854694 -0.30874068 0.13278234 0.020925594 -0.06659516 -0.011441774 -0.005113962 0.14629894 -0.043861467 0.010663302 -0.023233835 -0.03332066 0.0033275762 0.017719151 0.06690347 0.034809563 -0.06048886 -0.033362255 0.07236847 -0.18755248 -0.15242338 -0.15205422 -0.10177472 -0.12898703 -0.073437534 0.14723498 0.038601257 0.090648286 0.08775387 -0.033029 -0.0811653 0.015313919 -0.027234115 -0.19172922 -0.1140649 0.05753926 0.048031434 0.31799048 0.12911424 -0.1461066 -0.15325287 -0.121049024 0.035098933 0.06528459 -0.022699323 0.03975664 -0.19654189 -0.02705961 0.0634592 0.15945762 0.17761377 0.008780435 -0.1362792 0.06273744 -0.012043271 -0.04525642 0.05501834 0.06691193 -0.035075698 0.05914683 0.0488517 -0.29390517 -0.24862224 0.01127151 -0.17199197 -0.03846721 0.03706235 0.124187 -0.09424326 -0.0032926716 -0.048668858 0.18989064 -0.16003874 0.0034325568
– -0.17030871 -0.111507215 -0.18773304 -0.039952002 0.16849753 0.113351524 -0.042117704 -0.1894266 0.07650179 -0.051914968 -0.112530395 0.07281313 -0.079387695 0.18226579 -0.13491705 0.04735698 -0.12353427 -0.18046793 -0.15789619 0.037491713 -0.16170143 0.033305038 0.07476248 0.06523312 0.13965969 -0.04475312 -0.05848215 -0.35541564 0.13606243 0.028026374 -0.07183306 -0.0036170315 -0.008236357 0.16476071 -0.043208525 0.004262422 -0.030071232 -0.03822202 0.0022575585 0.027388275 0.07095872 0.046221364 -0.06276282 -0.036755055 0.078861 -0.20115362 -0.18466705 -0.17749105 -0.109126754 -0.14995407 -0.08051299 0.17630929 0.034716614 0.11239763 0.09626926 -0.036593705 -0.10017804 0.02221412 -0.02838518 -0.21338855 -0.13071278 0.07736245 0.06268838 0.36990726 0.1533939 -0.15860863 -0.16356419 -0.12927537 0.047666553 0.0822302 -0.038773958 0.052167736 -0.21458046 -0.029499557 0.063904144 0.17672244 0.18816741 0.02097798 -0.1662485 0.07640902 -0.007507276 -0.050493952 0.05957106 0.085196316 -0.036637902 0.06182405 0.048519835 -0.3420143 -0.29439586 0.0056914752 -0.20964207 -0.05162396 0.054925285 0.14696017 -0.09210277 -0.0018822869 -0.05742998 0.21892717 -0.16718753 -0.003242912
telephone -0.09380811 -0.05687852 -0.09807062 -0.012519565 0.08594896 0.054403618 -0.020126933 -0.092350386 0.043871135 -0.026114227 -0.06535191 0.044704087 -0.03729179 0.09113482 -0.06937721 0.019411523 -0.06744048 -0.09459033 -0.078702874 0.015405422 -0.0773566 0.022302676 0.03344765 0.031646166 0.07128684 -0.019943163 -0.029589642 -0.18032797 0.07938126 0.013346437 -0.04190413 0.00025472726 -0.0038126756 0.08503303 -0.027347304 0.011677483 -0.016660137 -0.016112648 0.0005836304 0.01801049 0.032990288 0.027023865 -0.028531492 -0.011967629 0.04742311 -0.10165896 -0.09972878 -0.09218086 -0.054287344 -0.07348387 -0.048034523 0.09148779 0.02279114 0.056379918 0.048483938 -0.014950686 -0.044638414 0.010914378 -0.008630864 -0.1177591 -0.06411097 0.04286271 0.033406325 0.18742377 0.0840091 -0.07927141 -0.08600169 -0.06026139 0.025212435 0.03911007 -0.01838755 0.02365503 -0.11814508 -0.009760302 0.034325473 0.09622489 0.095902555 0.009320315 -0.08113754 0.035139043 -0.0017080655 -0.030480985 0.02706951 0.043183807 -0.02050193 0.038487207 0.019846655 -0.18102817 -0.15136784 -0.0005758466 -0.105184555 -0.027951637 0.032728493 0.0822853 -0.055066574 -0.003594892 -0.025990162 0.120302685 -0.0955136 0.00016493033
with -0.1619645 -0.10329342 -0.1751115 -0.035289105 0.15974118 0.106651604 -0.034604587 -0.18004672 0.07701855 -0.04917512 -0.10757318 0.07859262 -0.07011798 0.17175959 -0.13270862 0.043286156 -0.11966745 -0.16892324 -0.1511003 0.039126914 -0.15546529 0.035322685 0.0645636 0.054868482 0.13457392 -0.03231644 -0.050067995 -0.3310472 0.13610111 0.023342976 -0.07826569 -0.0088827275 -0.006243574 0.1611378 -0.03893053 0.015918886 -0.021124925 -0.038810663 -0.0009998527 0.029295737 0.07566042 0.043058604 -0.055463452 -0.035963044 0.07429722 -0.19995 -0.17852849 -0.16333725 -0.09957426 -0.1437379 -0.076853715 0.16977543 0.037598506 0.10399664 0.09945152 -0.038253818 -0.096288495 0.014021554 -0.022506598 -0.2025067 -0.13166603 0.066151306 0.04776474 0.3475224 0.14735402 -0.15329851 -0.1564951 -0.11655578 0.046098195 0.077190295 -0.036195707 0.046746522 -0.21428704 -0.028167933 0.06642728 0.17689861 0.17857547 0.020585382 -0.15774792 0.07225755 -0.014433724 -0.047506966 0.059506446 0.08148272 -0.035689414 0.06527555 0.04779115 -0.32338336 -0.27983767 0.008837455 -0.19360569 -0.04732038 0.047034744 0.13920054 -0.09586846 -0.0077332873 -0.052339356 0.21029326 -0.16355915 -0.0005468357
grade -0.12438376 -0.078587346 -0.13361843 -0.021811945 0.11287477 0.07255464 -0.030116435 -0.1364928 0.05807314 -0.039937727 -0.08332846 0.056846872 -0.055729937 0.13574407 -0.10487441 0.037926164 -0.0862192 -0.12886547 -0.11429811 0.029262679 -0.11119081 0.032787163 0.044843253 0.046087112 0.10005454 -0.025880333 -0.0371629 -0.25445783 0.105725855 0.022923568 -0.05681015 -0.00461743 -0.0017450491 0.12425837 -0.02884475 0.009632233 -0.021594265 -0.026099402 0.006683535 0.02044092 0.05651078 0.033817623 -0.041035738 -0.02794093 0.06387337 -0.14752942 -0.13133022 -0.13203375 -0.07352125 -0.11390402 -0.061417364 0.13329421 0.024772134 0.08358272 0.07195102 -0.02544944 -0.07032958 0.010096605 -0.017171538 -0.1609206 -0.09323917 0.05626733 0.040447056 0.26475695 0.109604895 -0.116254725 -0.12328321 -0.09379362 0.034224275 0.058737163 -0.022789257 0.038733095 -0.15908836 -0.020013502 0.047819022 0.1295076 0.14183624 0.0066682086 -0.12098415 0.056022894 -0.0069517987 -0.0369681 0.045590483 0.056020238 -0.021554036 0.043957647 0.033268772 -0.2492697 -0.21165067 0.010752523 -0.15113653 -0.03143696 0.043453492 0.11218601 -0.06852153 -0.0004423661 -0.044662658 0.16636029 -0.13137688 -0.004102341
academic -0.13218576 -0.084124364 -0.13831623 -0.020614905 0.13003789 0.0839953 -0.026822815 -0.15009527 0.055329964 -0.0396606 -0.08668495 0.06443994 -0.061023742 0.14367886 -0.11150806 0.036866646 -0.09460541 -0.14010006 -0.11676626 0.026546797 -0.12356363 0.029094525 0.051847477 0.049180888 0.10997244 -0.02990825 -0.040408626 -0.27260596 0.1163324 0.02496977 -0.0624552 -0.0023440404 -0.0015897194 0.13074075 -0.030557845 0.0077164443 -0.015472823 -0.028111374 0.0047344766 0.023186179 0.062405746 0.03809626 -0.041460022 -0.031044075 0.063480295 -0.1632929 -0.14249602 -0.13953182 -0.07946295 -0.12231093 -0.06805018 0.1400883 0.03046005 0.08752251 0.07930198 -0.025099384 -0.07636423 0.014149154 -0.02403422 -0.17199133 -0.10002222 0.059066884 0.038019013 0.28871408 0.12459808 -0.11783959 -0.12335992 -0.10392312 0.03245563 0.064688526 -0.031674933 0.0361139 -0.17386293 -0.027724108 0.055357747 0.1455978 0.14842027 0.0138138635 -0.123332076 0.052692037 -0.014021593 -0.04096083 0.050135344 0.0632199 -0.027655175 0.05177306 0.041425284 -0.26605213 -0.22797231 0.0053147012 -0.15934855 -0.037031196 0.0447367 0.11640707 -0.074890286 -0.011482983 -0.0454531 0.16909039 -0.13285807 -0.0016267925
subject -0.14332971 -0.09195889 -0.1493459 -0.030509144 0.13821436 0.091459736 -0.03398773 -0.159716 0.06432426 -0.048300408 -0.09183426 0.06273678 -0.06632949 0.15284716 -0.114446744 0.036837675 -0.10093346 -0.14186323 -0.13100955 0.033822168 -0.1295017 0.02907592 0.059620008 0.048257362 0.11468661 -0.037586 -0.047384437 -0.29426035 0.123332575 0.024889663 -0.06785476 -0.010576929 1.0866889e-05 0.13306405 -0.035676014 0.011805933 -0.020550884 -0.0329641 0.005572521 0.02792569 0.058941983 0.031589687 -0.047589485 -0.034168635 0.06426374 -0.1719869 -0.15340592 -0.15182315 -0.092189714 -0.12280144 -0.06573873 0.15305825 0.032457516 0.098355 0.079580545 -0.034097437 -0.078427255 0.010890351 -0.0242582 -0.17911638 -0.11663024 0.06296287 0.045992475 0.303441 0.12332777 -0.12909046 -0.1331584 -0.1036702 0.035244234 0.06914587 -0.034391083 0.035481457 -0.19033664 -0.022659933 0.06071416 0.15050109 0.16014543 0.012256999 -0.13829008 0.06320971 -0.013753266 -0.04015164 0.04898627 0.071233936 -0.023926236 0.0527206 0.037675016 -0.28547016 -0.24185832 0.010509853 -0.16622393 -0.043319315 0.04661639 0.11899496 -0.087970994 -0.004861773 -0.051698618 0.19141075 -0.14906739 -0.0054237456
dismissal -0.093597345 -0.05435291 -0.09135453 -0.0139708575 0.0853333 0.04838584 -0.01723841 -0.09581848 0.042162616 -0.02607157 -0.06860944 0.042262908 -0.040557787 0.08934037 -0.071420185 0.018209562 -0.061145436 -0.09192763 -0.07423366 0.01843669 -0.06763971 0.025420215 0.028038703 0.027024126 0.06570549 -0.018253464 -0.0287767 -0.17738703 0.07034508 0.0101425 -0.040598482 -0.007380818 0.0009203149 0.082147956 -0.020273274 -7.350922e-05 -0.0121054845 -0.021386618 0.0019293844 0.01804871 0.043115396 0.021160329 -0.036191348 -0.011103992 0.04311096 -0.106827445 -0.08944543 -0.08762466 -0.05595543 -0.07462238 -0.036991056 0.087838344 0.024708388 0.049964596 0.045069624 -0.022577846 -0.037797496 0.005043119 -0.015342927 -0.10940477 -0.057398953 0.027493466 0.029570788 0.17985857 0.065664984 -0.08246013 -0.08385046 -0.07055631 0.0156821 0.034437884 -0.009513805 0.026882634 -0.10856122 -0.00908568 0.029662076 0.08997292 0.102591075 0.0010788644 -0.08238263 0.040852778 -0.005927988 -0.034695983 0.027188398 0.038501713 -0.019857032 0.033960473 0.02398153 -0.16329001 -0.13861972 0.009094555 -0.10225561 -0.018250648 0.025110919 0.07240941 -0.049950946 -0.00020613133 -0.03258504 0.110811785 -0.097661264 0.0002077826
pm -0.1935002 -0.119738355 -0.2033093 -0.04227922 0.18190107 0.12180328 -0.0454159 -0.21379448 0.07962724 -0.05239851 -0.13181716 0.08084879 -0.08423111 0.20010225 -0.15810469 0.04502799 -0.13692321 -0.19779502 -0.17804411 0.04025727 -0.1865987 0.04137739 0.082092695 0.07491502 0.15726523 -0.051153935 -0.06093207 -0.3951754 0.16013867 0.025456673 -0.07860131 -0.0033770134 -0.012864475 0.17540188 -0.044650346 0.0050820024 -0.025614852 -0.043332376 0.0007419931 0.04020864 0.08403311 0.045021754 -0.07112126 -0.034425974 0.09683784 -0.2231842 -0.20135595 -0.19671133 -0.12049525 -0.17489469 -0.09406357 0.20002154 0.03430868 0.12022577 0.11386168 -0.034447204 -0.10865081 0.02374673 -0.028485918 -0.23894762 -0.14529367 0.08018135 0.06761072 0.4057193 0.16828479 -0.18096559 -0.18379122 -0.14199287 0.05282236 0.091705896 -0.045012057 0.0584322 -0.24765909 -0.030936942 0.07779205 0.19645223 0.20815544 0.025277365 -0.17687814 0.07924545 -0.008894654 -0.06227238 0.07323888 0.09237395 -0.030181758 0.07844435 0.05171701 -0.38369897 -0.32761112 0.005408666 -0.23262204 -0.05502152 0.065314494 0.16323261 -0.105939195 -0.0069283186 -0.064804204 0.24331099 -0.1960513 0.0024264257
campus -0.10810179 -0.06701526 -0.115383916 -0.021742292 0.10240215 0.06478351 -0.023435393 -0.12000471 0.048749134 -0.02694695 -0.06613451 0.048135646 -0.043883782 0.11533043 -0.08103828 0.028949192 -0.07585893 -0.10197077 -0.09313369 0.019338427 -0.10058255 0.028905781 0.042757228 0.035130348 0.087667994 -0.019855851 -0.03684738 -0.21736084 0.08990796 0.017462503 -0.046903275 -0.00097383844 -0.0008786465 0.09588314 -0.028509146 0.012351052 -0.013348764 -0.023589816 -0.0039742207 0.021112058 0.043059066 0.023160027 -0.033768144 -0.019571042 0.051934257 -0.12337702 -0.113941416 -0.11171472 -0.05877799 -0.090178706 -0.047144692 0.10788996 0.017844617 0.07064663 0.065398335 -0.017631065 -0.059518535 0.0093130255 -0.020057252 -0.13234116 -0.087066665 0.04722666 0.03255374 0.22682038 0.09270925 -0.09324121 -0.10383057 -0.07816265 0.031220775 0.053081524 -0.018272951 0.02829397 -0.13995561 -0.016262934 0.03790149 0.11194183 0.115433775 0.012599166 -0.1025395 0.04466217 -0.013045044 -0.027420612 0.032253522 0.049842555 -0.022802398 0.03563821 0.023225486 -0.20417245 -0.18128015 0.00571596 -0.12252097 -0.027071383 0.03674746 0.085500084 -0.065946616 -0.0023499632 -0.034921717 0.13781662 -0.100752085 -0.0016026471
time -0.09613248 -0.06262496 -0.10499249 -0.02374237 0.09699448 0.06018956 -0.025691375 -0.11068148 0.04893466 -0.030525591 -0.06970801 0.050937362 -0.044553317 0.10565835 -0.08313916 0.029792845 -0.07092775 -0.10663083 -0.09100092 0.018470826 -0.091111995 0.02773115 0.03669664 0.035969853 0.0829487 -0.023590168 -0.026826827 -0.20325027 0.08427151 0.012386036 -0.04147954 -0.0046216017 -0.005063763 0.09839726 -0.02583743 0.009278235 -0.01019104 -0.017069468 0.003952247 0.013762506 0.049181994 0.019930733 -0.03357318 -0.01643303 0.044603672 -0.12281014 -0.109801255 -0.09814884 -0.059040047 -0.093675524 -0.043679737 0.099890366 0.016224826 0.06410585 0.06095623 -0.021516755 -0.057107143 0.010594283 -0.016639194 -0.124303326 -0.07734502 0.046876352 0.025886565 0.21211603 0.09183185 -0.09255418 -0.0920169 -0.07182296 0.022063915 0.04874373 -0.02454172 0.03245602 -0.13446093 -0.018228052 0.04323679 0.10633992 0.111250244 0.0064408556 -0.09956032 0.039586764 -0.0051605785 -0.028005708 0.03690312 0.054564368 -0.020309353 0.03960922 0.023895392 -0.19396293 -0.17396094 0.008905543 -0.11933112 -0.0313472 0.037206396 0.084421925 -0.060343023 -0.003962979 -0.03647696 0.13112241 -0.10556351 -0.0042561735
may -0.14411572 -0.087248534 -0.15167183 -0.031287026 0.13790604 0.09084829 -0.032419942 -0.15930343 0.0676583 -0.043100078 -0.09491475 0.06580318 -0.061750207 0.15994683 -0.123333514 0.037454132 -0.099748746 -0.15158115 -0.13408303 0.032192577 -0.13193102 0.03794611 0.058444727 0.05165066 0.115613416 -0.03578629 -0.04221568 -0.2999718 0.1234301 0.01748187 -0.06153356 -0.0008963593 -0.0078031193 0.14218646 -0.031556755 0.014635564 -0.025681878 -0.037092768 0.0048837396 0.026159555 0.06711524 0.040522933 -0.050723456 -0.028314602 0.063810326 -0.17941259 -0.15714815 -0.14385578 -0.08658306 -0.13025518 -0.072395794 0.14944698 0.030570561 0.09368047 0.08153347 -0.029162558 -0.08543427 0.017526107 -0.025313579 -0.18101408 -0.108435534 0.065441884 0.043689046 0.30727184 0.12668885 -0.13583654 -0.1374923 -0.106514774 0.037243422 0.06420228 -0.034615114 0.035842907 -0.18578057 -0.029018812 0.054152746 0.15439388 0.1616256 0.018190194 -0.13832952 0.059646916 -0.015102218 -0.04055893 0.049455643 0.06911051 -0.029963294 0.05954559 0.035677522 -0.29206395 -0.24941455 0.006779143 -0.17121777 -0.037659235 0.045435354 0.12213933 -0.081889 -0.004920143 -0.050789572 0.19073696 -0.15277663 -0.002022037
from -0.16335647 -0.10353184 -0.17132121 -0.027850702 0.15280513 0.102363296 -0.036129016 -0.17091294 0.067946814 -0.04258299 -0.1053673 0.07833146 -0.070285946 0.17401256 -0.12892216 0.040777873 -0.108001314 -0.1583594 -0.147898 0.03291995 -0.14304319 0.034562293 0.057470597 0.05733162 0.12355245 -0.033297688 -0.048740104 -0.32634094 0.13073766 0.02317248 -0.06963876 -0.0076943957 -0.004708273 0.14785029 -0.04269366 0.008696823 -0.0247417 -0.03222433 0.003621823 0.033282775 0.07488207 0.034729455 -0.05356225 -0.030433709 0.07993719 -0.19070596 -0.17262034 -0.1641888 -0.09942542 -0.14428523 -0.073068246 0.16139437 0.029196152 0.10536787 0.08787923 -0.030107873 -0.0833227 0.018190444 -0.023934178 -0.20069604 -0.12403754 0.06897166 0.04660821 0.34096754 0.13961472 -0.14609319 -0.15174015 -0.11594176 0.04181122 0.0722333 -0.031945422 0.042249013 -0.20939918 -0.032055374 0.06468416 0.16464686 0.17928237 0.018418659 -0.15487202 0.07317892 -0.0134832505 -0.04976831 0.0577995 0.08229878 -0.03359816 0.06277556 0.0481392 -0.31145793 -0.26375496 0.006120461 -0.18631217 -0.046507474 0.052592713 0.13469009 -0.09560632 -0.008445055 -0.05611696 0.20087339 -0.16034688 -0.0064478223
offenses -0.048374113 -0.032889463 -0.055727314 -0.008560717 0.043221947 0.027061585 -0.014321095 -0.05218982 0.025813205 -0.014965203 -0.039250873 0.020527195 -0.020639466 0.059337486 -0.03535079 0.010509533 -0.037520662 -0.052575402 -0.047649004 0.013566583 -0.050936144 0.014747827 0.01876087 0.015233351 0.042574525 -0.0153840305 -0.018282695 -0.101893395 0.039340064 0.012661566 -0.026425079 -0.0021418459 -0.0019038279 0.04554704 -0.012458025 0.00038578053 -0.0031521549 -0.0071490663 0.005099692 0.006705549 0.016981302 0.016473666 -0.01639095 -0.012280405 0.02168019 -0.057277415 -0.05725606 -0.0553646 -0.029520554 -0.048999164 -0.025028031 0.05424759 0.009099754 0.035408612 0.025453718 -0.011132217 -0.031357452 0.002363646 -0.008299479 -0.06564449 -0.038988616 0.026146894 0.020198861 0.10706273 0.04633329 -0.04759366 -0.047859576 -0.038054846 0.011176645 0.019597443 -0.009687647 0.014688908 -0.06096803 -0.009638562 0.018239269 0.053104047 0.055475157 0.005087649 -0.049807414 0.020335943 -0.0068159024 -0.010554649 0.013427952 0.026826274 -0.0066753076 0.019317448 0.0129258055 -0.097752154 -0.086112455 -0.0011984406 -0.057665218 -0.017213391 0.021456927 0.046051856 -0.03411724 -0.0003016998 -0.022249416 0.06794678 -0.050513823 -0.003701012
second -0.17574175 -0.09896366 -0.17173412 -0.0241123 0.16265318 0.10311783 -0.041906904 -0.18289644 0.06701217 -0.05269067 -0.12857136 0.06919339 -0.07866523 0.15800516 -0.1302482 0.034746688 -0.115580685 -0.16787504 -0.15280026 0.0476675 -0.13101949 0.044635538 0.060381714 0.049340174 0.12675314 -0.027826687 -0.041417416 -0.32875693 0.14060177 0.016698714 -0.067956544 -0.01996891 -0.0016687098 0.15939179 -0.04256669 0.0074483664 -0.015165248 -0.033912994 0.008248729 0.022838166 0.077281535 0.032105863 -0.058322452 -0.026527114 0.07093861 -0.19193205 -0.17350109 -0.1660852 -0.10811539 -0.13765572 -0.070490725 0.15490972 0.040679924 0.092113785 0.09076305 -0.03391154 -0.077020116 0.014305728 -0.034064874 -0.21085964 -0.119341746 0.058345057 0.059002962 0.3390909 0.1270931 -0.15323515 -0.15754744 -0.1313845 0.03260095 0.071495436 -0.031128747 0.044903055 -0.21031903 -0.023932973 0.060661376 0.1672373 0.19011088 0.009575253 -0.14095414 0.07893461 -0.0041756127 -0.055771206 0.055193175 0.07067784 -0.03359148 0.060142517 0.057876047 -0.3137899 -0.262226 0.015151561 -0.19245255 -0.047452793 0.044290394 0.13589723 -0.094703846 0.0019023506 -0.05161487 0.19795212 -0.18049063 0.0041190265
as -0.12389081 -0.07830279 -0.13593881 -0.02183696 0.121558435 0.083346836 -0.031176522 -0.13675001 0.054915078 -0.035283808 -0.08913889 0.05583333 -0.054145213 0.14194416 -0.10203015 0.038524833 -0.09027276 -0.13140064 -0.1165624 0.031104945 -0.12205759 0.034137517 0.0505555 0.041316845 0.10440004 -0.029542694 -0.04240953 -0.2594843 0.11187804 0.014647722 -0.059688374 -0.005684846 0.0012292358 0.119491905 -0.0304704 0.0076559265 -0.017737329 -0.03250931 0.0042297808 0.025392333 0.053948823 0.029075878 -0.0410333 -0.02871146 0.06563263 -0.15279838 -0.1375272 -0.12764664 -0.07317889 -0.113669775 -0.06417125 0.13526157 0.026287058 0.07873822 0.07517783 -0.030288655 -0.075520344 0.012920234 -0.015037172 -0.15892068 -0.09385486 0.050272178 0.041912954 0.27391937 0.11412653 -0.11911557 -0.12381436 -0.091832 0.029952724 0.054130748 -0.029983971 0.038729448 -0.15984507 -0.019537438 0.057279654 0.1353026 0.1375986 0.017491927 -0.124320276 0.054593425 -0.009878107 -0.041309733 0.04227183 0.06607524 -0.019603565 0.05242914 0.03321061 -0.25231084 -0.21501121 0.0108504165 -0.1511135 -0.035292648 0.036409367 0.10544461 -0.07498916 -0.0075528324 -0.040772595 0.16878854 -0.1303613 -0.0011253287
course -0.13371614 -0.083425894 -0.14167273 -0.028582893 0.11824029 0.08606368 -0.031425938 -0.14761956 0.056360982 -0.037589606 -0.08855012 0.060120154 -0.06107321 0.1388973 -0.108243026 0.032901864 -0.09508669 -0.13668147 -0.11787403 0.027664386 -0.11608591 0.032965887 0.051301092 0.045792848 0.10914057 -0.02506956 -0.036957182 -0.27037606 0.114512205 0.015525076 -0.053994842 -0.0038241302 -0.004748152 0.12909375 -0.033352118 0.0046764095 -0.02329974 -0.032798238 0.0038276473 0.02647514 0.053717554 0.034299493 -0.04454788 -0.022115199 0.063951045 -0.15152161 -0.14166503 -0.12930387 -0.080453776 -0.11881889 -0.061531506 0.13633251 0.026950186 0.082621045 0.07415322 -0.031554367 -0.07611813 0.01017648 -0.023880111 -0.163748 -0.103498295 0.051248923 0.037369117 0.27645585 0.117338166 -0.1161619 -0.12140927 -0.09979424 0.03223554 0.062090512 -0.025768 0.032999955 -0.17364351 -0.016901901 0.05534438 0.13981505 0.14281394 0.014684277 -0.12141418 0.06029838 -0.007244564 -0.044356436 0.047957517 0.06049358 -0.024630759 0.048633173 0.037736688 -0.2546712 -0.22446351 0.0088912705 -0.15451004 -0.034338754 0.037518326 0.11751826 -0.0766223 -0.00044024238 -0.046733167 0.17371526 -0.13606626 -0.006242663
activities -0.12399846 -0.07510689 -0.13800117 -0.021894645 0.11725332 0.073415235 -0.029686924 -0.1397979 0.054873977 -0.04003858 -0.08739335 0.057459112 -0.05758224 0.13794489 -0.10656312 0.03377647 -0.090563044 -0.12525673 -0.11865378 0.034504082 -0.11992392 0.02994507 0.051432736 0.046339046 0.105176285 -0.02659916 -0.037070088 -0.25406533 0.10235735 0.02093937 -0.05931116 -0.0025800942 -0.00063471444 0.115033485 -0.035019953 0.012954325 -0.017767403 -0.024981814 0.0015916411 0.020442588 0.05748492 0.026483119 -0.046405137 -0.027010268 0.05854158 -0.15008694 -0.13072303 -0.12867543 -0.071234085 -0.10681588 -0.056916803 0.13235466 0.023884198 0.086955175 0.06864228 -0.021109434 -0.07198228 0.0075441943 -0.014560201 -0.16224234 -0.09306188 0.051361118 0.036840245 0.26912543 0.11463454 -0.11564686 -0.11591873 -0.09087037 0.028160106 0.05797987 -0.02255249 0.036451958 -0.16579218 -0.01925409 0.052113995 0.12889571 0.13866577 0.009318429 -0.12226318 0.051459495 -0.014695032 -0.038484883 0.041731175 0.06368815 -0.023021527 0.04762956 0.03471765 -0.24802919 -0.21466462 0.0066799293 -0.14788301 -0.034236442 0.03966214 0.11332009 -0.07585876 -0.0017728821 -0.04025526 0.16410276 -0.12856428 -0.0012225288
not -0.16534215 -0.10317603 -0.17404619 -0.029468562 0.15850772 0.09898096 -0.03981098 -0.18402734 0.071105726 -0.052134387 -0.11454763 0.07239502 -0.075951785 0.17483106 -0.13677865 0.048670087 -0.11901102 -0.17075114 -0.15193734 0.03318098 -0.15083839 0.03707522 0.06847825 0.060005967 0.1347863 -0.03260909 -0.050145496 -0.33926475 0.14056468 0.020982971 -0.07118522 -0.0063411 -0.004739615 0.15854923 -0.037552796 0.0067222975 -0.026949938 -0.037943456 0.002464449 0.02703828 0.07132776 0.035725553 -0.06149057 -0.03452473 0.078612715 -0.19679426 -0.16994044 -0.16876082 -0.098215304 -0.14494082 -0.083252214 0.1685697 0.03857787 0.10814906 0.09777121 -0.036599092 -0.091626994 0.020350678 -0.02124154 -0.2057366 -0.123088695 0.06702112 0.04902824 0.3473714 0.14552855 -0.15499108 -0.15915567 -0.11711978 0.04153213 0.076116 -0.03693445 0.048813086 -0.21121916 -0.028511576 0.07104105 0.17387345 0.18542418 0.017295701 -0.15890437 0.06602441 -0.017225582 -0.04706052 0.054961346 0.07599681 -0.032419782 0.059851497 0.046485815 -0.32533285 -0.28163692 0.006744458 -0.19014637 -0.050402604 0.049514975 0.14077133 -0.09706962 -0.0032884344 -0.05951523 0.2116113 -0.17111994 -0.007714789
service -0.1343271 -0.083969325 -0.1454158 -0.020581948 0.122267604 0.087626696 -0.023754124 -0.14451373 0.062758066 -0.03851268 -0.0935025 0.061840836 -0.06208981 0.13845173 -0.10833335 0.034597035 -0.09711229 -0.13374795 -0.12448767 0.035867434 -0.12718013 0.032810975 0.049427416 0.047400326 0.11030031 -0.030374661 -0.045069672 -0.2670495 0.11683439 0.018060302 -0.05400162 -0.010662113 -0.0065130396 0.12788337 -0.03195448 0.007710839 -0.023512533 -0.027973134 -0.000811832 0.019917117 0.05705264 0.03409999 -0.045776643 -0.031907808 0.06311048 -0.16096303 -0.1355006 -0.13607435 -0.079764344 -0.117653035 -0.05865463 0.138223 0.028648293 0.09039209 0.075433396 -0.026803775 -0.07205097 0.013175442 -0.020912765 -0.1704882 -0.1041532 0.05524491 0.04121225 0.28787082 0.11567423 -0.12064758 -0.12536009 -0.10167891 0.038113046 0.059970733 -0.022956904 0.037157577 -0.17212111 -0.019544736 0.05100197 0.14212662 0.14473866 0.009432375 -0.1212687 0.05386299 -0.007395213 -0.038505983 0.04987022 0.06671656 -0.021085074 0.055327624 0.040529985 -0.25782418 -0.22123255 0.0027983014 -0.15951905 -0.033155337 0.037712414 0.11868669 -0.078317806 -0.004898065 -0.039506268 0.17490782 -0.137607 0.00069793063
noon -0.1600769 -0.096099935 -0.16109821 -0.033555787 0.15325074 0.09579625 -0.038418803 -0.1647416 0.06979156 -0.043451745 -0.10050084 0.06759688 -0.065981865 0.16110624 -0.12825495 0.032715067 -0.11591948 -0.15718527 -0.14680316 0.032556772 -0.14360881 0.030499022 0.0681891 0.057060167 0.118114606 -0.044098824 -0.046849612 -0.32063654 0.12025997 0.02550641 -0.060118616 -0.0051404736 -0.007345502 0.14155269 -0.04038761 0.0020043005 -0.028453588 -0.033324398 -0.0033689733 0.030318009 0.06980493 0.036572207 -0.055646718 -0.02909451 0.07879428 -0.17734008 -0.1608502 -0.16106579 -0.0925487 -0.14458482 -0.080235995 0.16277128 0.025343884 0.10181475 0.09014451 -0.033625357 -0.088603474 0.012849335 -0.026855579 -0.19443654 -0.11600277 0.06818002 0.05663408 0.33561325 0.13714765 -0.13961282 -0.1474039 -0.10840913 0.041856453 0.073611654 -0.03954363 0.049217083 -0.19259526 -0.024577621 0.05650814 0.16089322 0.1706943 0.018089637 -0.15341437 0.072263524 -0.009558463 -0.04420065 0.05220665 0.0692491 -0.02569261 0.054090206 0.035680573 -0.3129531 -0.2582083 0.013364 -0.1878407 -0.051405564 0.053336363 0.13538331 -0.08637046 -0.007395419 -0.056533042 0.20563751 -0.15014495 -0.00010351251
requirements -0.086553976 -0.05593382 -0.10053103 -0.013765209 0.08296268 0.054735217 -0.017078547 -0.09867683 0.037250865 -0.030901194 -0.05578606 0.038504317 -0.041437324 0.09180991 -0.078131184 0.023761133 -0.059333816 -0.088011 -0.07662935 0.022607666 -0.088124804 0.018467758 0.030073274 0.030748764 0.06704741 -0.022884728 -0.03360321 -0.1829256 0.08054042 0.015017908 -0.039638378 -0.00014436801 0.0003679836 0.090511076 -0.023992864 0.010927029 -0.012714421 -0.02103529 0.0056770323 0.020433683 0.040015407 0.027473085 -0.032511767 -0.021884698 0.042340294 -0.106269725 -0.090613805 -0.089470394 -0.050891194 -0.083665825 -0.04703021 0.09210024 0.018774098 0.057926543 0.053170465 -0.017726822 -0.053859014 0.0068766796 -0.01753312 -0.10927811 -0.06913337 0.035231724 0.024651246 0.19317387 0.08232931 -0.08083919 -0.09058241 -0.06318287 0.026868997 0.035713077 -0.024067372 0.022847388 -0.11294687 -0.013476102 0.04102211 0.09972115 0.098257035 0.012716719 -0.08550373 0.03776564 -0.008712911 -0.022513755 0.026694613 0.039747886 -0.015432739 0.02992731 0.02964774 -0.18031588 -0.15363345 0.005769711 -0.10915852 -0.030391235 0.032334983 0.080676764 -0.05488005 -0.00758743 -0.029181432 0.11750419 -0.09470784 -0.0019313482
by -0.1441672 -0.090805724 -0.15174522 -0.02947741 0.13566832 0.095026866 -0.032062422 -0.15810014 0.06796124 -0.043468714 -0.09853282 0.06835419 -0.06041874 0.15601848 -0.11603375 0.037301574 -0.09864727 -0.14389151 -0.13460879 0.03299867 -0.12978366 0.037216473 0.05483323 0.04735743 0.11289414 -0.03569958 -0.041356035 -0.28931105 0.12315885 0.024480352 -0.058797523 -0.0011097988 -0.002778596 0.13163899 -0.03958034 0.007885984 -0.016820634 -0.030648433 0.0029862435 0.022900006 0.06151977 0.033035632 -0.054687403 -0.030526008 0.06871327 -0.16866885 -0.1563684 -0.14429095 -0.08422122 -0.12909944 -0.066298045 0.14543419 0.024894249 0.09504231 0.0799035 -0.026586706 -0.081678584 0.017982854 -0.019020267 -0.18275265 -0.10754457 0.056439005 0.047290307 0.3058515 0.13270941 -0.12682472 -0.13404898 -0.099981256 0.03368721 0.06741524 -0.03593335 0.035973042 -0.18535262 -0.024362415 0.059873536 0.15563472 0.15710586 0.019031696 -0.13181028 0.05741231 -0.012946091 -0.039412156 0.05511982 0.07364663 -0.027501961 0.051391613 0.037647504 -0.2851818 -0.23775609 0.009108375 -0.17430373 -0.040358018 0.04605024 0.12663989 -0.08498977 -0.011140304 -0.054057598 0.18785593 -0.14294086 -0.0016899765
admission -0.08100654 -0.050516047 -0.08727367 -0.015098891 0.0862328 0.054965056 -0.015257367 -0.09546448 0.033857476 -0.026649065 -0.06179958 0.04425248 -0.042162627 0.09709357 -0.06736743 0.026726639 -0.05905646 -0.08616959 -0.07563203 0.021682814 -0.08356352 0.023945421 0.037418835 0.0343223 0.0737766 -0.019972045 -0.031171415 -0.17216551 0.06909996 0.014282254 -0.037969492 -0.004253079 0.0012572001 0.08448214 -0.0222343 0.010583789 -0.007864655 -0.022273343 0.0018587189 0.012833186 0.04104522 0.019718539 -0.025843384 -0.0125283105 0.042475022 -0.10526749 -0.09052486 -0.08959067 -0.050008994 -0.08099948 -0.045985565 0.08955195 0.02041695 0.051294636 0.05395136 -0.014062908 -0.05034347 0.0057003363 -0.014962848 -0.10895673 -0.06658043 0.032874238 0.025905013 0.18326584 0.081454724 -0.08405984 -0.086593725 -0.06433524 0.026263416 0.041900422 -0.01731327 0.027605806 -0.10882257 -0.014428941 0.039234 0.09195557 0.101012096 0.0111866165 -0.08447621 0.037741844 -0.00953824 -0.027855564 0.035493925 0.03914354 -0.014152967 0.034362547 0.02420952 -0.175621 -0.14591783 0.009162568 -0.106552005 -0.024752684 0.0319314 0.070621535 -0.04536571 -0.0013557124 -0.028803684 0.11178131 -0.08880905 -0.006713379
must -0.14211468 -0.08974917 -0.1471142 -0.02629671 0.13561793 0.09099241 -0.026086457 -0.1569191 0.06288592 -0.03921557 -0.093799055 0.069629714 -0.06459181 0.14910243 -0.11957735 0.04176708 -0.09603588 -0.1402819 -0.12613295 0.03483012 -0.13015701 0.036018226 0.06041376 0.048167694 0.11116596 -0.03137874 -0.048836354 -0.2920812 0.12008867 0.021498067 -0.06391903 -0.0014780933 -0.008605983 0.14011282 -0.037533514 0.013098358 -0.023136953 -0.03596416 -0.0022070815 0.026691457 0.06279634 0.039667692 -0.053610746 -0.028888926 0.07070635 -0.1718139 -0.14998187 -0.14947234 -0.086554945 -0.12600869 -0.06426975 0.1440745 0.027988175 0.08829126 0.07957685 -0.030820051 -0.077167936 0.017257897 -0.02438829 -0.18001954 -0.106432386 0.06297858 0.046333026 0.2996711 0.12442428 -0.12829933 -0.1352146 -0.10095306 0.0383149 0.06588876 -0.02650148 0.03862698 -0.18689683 -0.026998669 0.05337144 0.14456283 0.15414801 0.013692844 -0.13741098 0.05803805 -0.013526685 -0.04236726 0.05352914 0.07319659 -0.026966732 0.055582687 0.042469807 -0.27631867 -0.24107833 0.004173413 -0.16449463 -0.04284754 0.04909832 0.11933629 -0.0816924 -0.0075903693 -0.05169997 0.1785601 -0.14270812 0.0012920218
third -0.1287714 -0.07551436 -0.13136198 -0.015905356 0.11731848 0.072379775 -0.036025748 -0.14124264 0.055799216 -0.045208257 -0.0925189 0.05512909 -0.063358516 0.11987361 -0.10339054 0.03451357 -0.08401536 -0.12820503 -0.1124156 0.032021593 -0.09899198 0.03659614 0.045919295 0.0368223 0.09596038 -0.024817096 -0.03989436 -0.25888875 0.1092623 0.012077506 -0.05991015 -0.008708463 -0.0047885003 0.1174653 -0.036386836 0.005174432 -0.012109853 -0.031813573 0.009072814 0.018526668 0.050656263 0.025678884 -0.047368314 -0.0184982 0.056747656 -0.15433462 -0.12995555 -0.1265233 -0.08086513 -0.10178266 -0.056054458 0.11690843 0.02943607 0.079655044 0.07066452 -0.020173293 -0.062311847 0.01167686 -0.020158695 -0.16117868 -0.09528719 0.048865695 0.04699808 0.25790522 0.107535474 -0.1127999 -0.12052307 -0.09885486 0.031556565 0.049078334 -0.016576605 0.035845432 -0.16595556 -0.018962273 0.050556295 0.12693985 0.14835057 -0.00040106213 -0.11050026 0.055736244 -0.009592476 -0.037226427 0.045112804 0.0585205 -0.02386597 0.051853307 0.045070883 -0.24514347 -0.1975105 0.0062667234 -0.13876969 -0.0343771 0.032585457 0.098820634 -0.07668359 -0.00035552404 -0.04080867 0.15995347 -0.13287735 -0.00013686325
graduate -0.09129473 -0.056064144 -0.0877993 -0.016169684 0.085323274 0.05599562 -0.014888802 -0.089924954 0.038013447 -0.021110652 -0.059958085 0.044523437 -0.033407446 0.0967589 -0.067058526 0.019622386 -0.0627577 -0.0874159 -0.074541256 0.020056734 -0.07967874 0.024489053 0.03290291 0.03518034 0.07090942 -0.018246667 -0.026168404 -0.17382081 0.07525273 0.00881454 -0.04260328 -0.003934584 -0.0072776093 0.08451815 -0.01911948 0.01077681 -0.01751428 -0.01707292 0.0051268185 0.016611187 0.035316553 0.025608052 -0.031583644 -0.019328523 0.03804578 -0.10350081 -0.0873961 -0.09289823 -0.055582058 -0.07308247 -0.04375094 0.08610883 0.018083258 0.05331947 0.051605504 -0.0131150065 -0.04770696 0.00774637 -0.0105107725 -0.1133713 -0.0697011 0.036888205 0.026351424 0.18627672 0.07902626 -0.08253497 -0.08558666 -0.06672888 0.018891333 0.035627674 -0.02044438 0.022190114 -0.10870671 -0.011946385 0.034544256 0.08732518 0.0983356 0.009399203 -0.08544369 0.037532512 -0.003129336 -0.028426956 0.035936914 0.045295678 -0.02065974 0.037021615 0.019148776 -0.16596538 -0.14691222 0.0074331313 -0.09741596 -0.026422713 0.022187475 0.073951565 -0.04531436 -0.0032840988 -0.024368688 0.11460886 -0.09365251 -0.0008368947
transfer -0.09582336 -0.055955436 -0.09386768 -0.01730033 0.08232234 0.05922535 -0.0233417 -0.10305324 0.0408133 -0.02867487 -0.059293814 0.046150595 -0.04437922 0.10147266 -0.07620263 0.024102673 -0.06821504 -0.096685044 -0.07886511 0.026250694 -0.08211369 0.022645567 0.03644841 0.031005276 0.076435335 -0.017311964 -0.02691304 -0.19312693 0.081637025 0.010902885 -0.042305805 -0.0056480835 -0.00718081 0.08344456 -0.026677834 0.011159771 -0.0155128315 -0.019302674 0.0047515105 0.014899352 0.042252608 0.023122275 -0.028709749 -0.016353427 0.039919525 -0.10790755 -0.09675427 -0.09301248 -0.054455984 -0.08134466 -0.04777317 0.09422394 0.014152413 0.06021087 0.054213412 -0.015092797 -0.055815868 0.012341219 -0.016384691 -0.11619688 -0.07458529 0.036706604 0.024405543 0.1954805 0.083368205 -0.0800457 -0.09228274 -0.067295544 0.024170946 0.04250054 -0.017642088 0.023628281 -0.11705508 -0.014303999 0.035654955 0.09626839 0.10589365 0.008283863 -0.09253295 0.038585734 -0.009669599 -0.027940324 0.030937886 0.048131295 -0.019368207 0.03862207 0.029248903 -0.18737686 -0.15207084 0.007316782 -0.10755738 -0.026028244 0.023877462 0.075564936 -0.057953194 -0.00062173896 -0.03602132 0.11824007 -0.09292898 -0.0057778745
average -0.12470258 -0.07274981 -0.12546395 -0.028412782 0.11428741 0.07470425 -0.03075492 -0.13253756 0.0556052 -0.0433572 -0.07861097 0.056559727 -0.04751156 0.13300271 -0.10067284 0.03219733 -0.08822136 -0.12070835 -0.11036021 0.032458317 -0.11250979 0.034056067 0.053560726 0.049183067 0.09359716 -0.025678236 -0.034096867 -0.24863923 0.10443504 0.01745022 -0.054333 -0.0052876994 -0.004711828 0.12183742 -0.026480023 0.008085186 -0.019819384 -0.021490334 0.0016881414 0.017770434 0.059780166 0.030590925 -0.044590905 -0.02997429 0.058512866 -0.14923052 -0.13488708 -0.12844044 -0.07977998 -0.106233306 -0.061931383 0.1311107 0.02953807 0.07737156 0.07530485 -0.030997286 -0.073963016 0.012743257 -0.01872755 -0.15164894 -0.09275224 0.051231652 0.03825647 0.26192173 0.10583432 -0.11546862 -0.12062501 -0.08581266 0.029023373 0.060499538 -0.024671167 0.029578961 -0.16267742 -0.017260047 0.05500051 0.1333591 0.13835606 0.009327316 -0.11265793 0.051965173 -0.010254278 -0.03597602 0.04382658 0.05786216 -0.029583653 0.046038114 0.03070685 -0.24096768 -0.2076785 0.010858372 -0.1509385 -0.03994935 0.03802319 0.10803607 -0.06502716 -0.00982914 -0.0351468 0.16388403 -0.12156643 0.0015423325
general -0.11096126 -0.072941795 -0.12047652 -0.017658345 0.10382425 0.06673652 -0.027282976 -0.1179802 0.048323154 -0.040120803 -0.0772446 0.046801362 -0.047188073 0.115116216 -0.09270492 0.030167468 -0.07986579 -0.116105966 -0.099268936 0.024028242 -0.10526686 0.027523097 0.0450852 0.043275584 0.082559295 -0.019814838 -0.034924462 -0.23076472 0.093657374 0.011677845 -0.052219823 -0.0085774325 -0.00033871832 0.106695905 -0.029503925 0.009474292 -0.012026141 -0.024097787 -0.000595251 0.017274145 0.054160196 0.032368593 -0.04199478 -0.02319952 0.053709634 -0.12832405 -0.115047805 -0.11314404 -0.07140405 -0.10005668 -0.054682117 0.118154526 0.02724245 0.07464893 0.06891087 -0.021449646 -0.060505964 0.011340849 -0.013008611 -0.14061564 -0.081986494 0.04035142 0.039582018 0.23851964 0.09672421 -0.09738286 -0.11063263 -0.08251318 0.028034318 0.046269476 -0.018646102 0.033357825 -0.14727776 -0.022332625 0.050762545 0.11863545 0.12767406 0.0043630227 -0.1074483 0.04600329 -0.0040699793 -0.033695117 0.037859164 0.053543635 -0.02063041 0.04718006 0.032117307 -0.21461767 -0.186398 0.0059156013 -0.12895496 -0.02917818 0.033059698 0.100855455 -0.057985477 -0.0023953007 -0.038645774 0.14824449 -0.11081963 -0.0054855472
education -0.07743925 -0.0477116 -0.08779055 -0.010498454 0.07561349 0.0512078 -0.018601095 -0.08421728 0.033168893 -0.02599756 -0.054092165 0.035197314 -0.032721426 0.08774478 -0.06187422 0.024795217 -0.057609927 -0.081698895 -0.07485404 0.019647105 -0.070697404 0.019752553 0.026692292 0.03336496 0.06680924 -0.012819577 -0.030384857 -0.16464363 0.07216145 0.007491937 -0.03191636 -0.0030598182 0.002684022 0.0715439 -0.021461284 0.004593531 -0.01435328 -0.012575177 0.0015743967 0.010269624 0.038583644 0.02351171 -0.032138262 -0.0133390045 0.03896135 -0.10113266 -0.09000505 -0.079127096 -0.044242784 -0.07364498 -0.03350863 0.08763196 0.015735978 0.056013823 0.04541981 -0.021828681 -0.04698606 0.002854353 -0.013793216 -0.099277556 -0.060808614 0.031802356 0.023932107 0.1706364 0.069522664 -0.07623226 -0.08148513 -0.053592127 0.021707125 0.036448687 -0.020013038 0.018135129 -0.107347414 -0.0140709765 0.038329646 0.082015134 0.08885161 0.008702261 -0.07985924 0.03527294 -0.003290189 -0.028955527 0.033697218 0.042663336 -0.011823405 0.027320186 0.026010526 -0.15728033 -0.13435602 0.0041173534 -0.09272498 -0.01964397 0.022139728 0.07182882 -0.04268394 -0.00836952 -0.024796251 0.10137915 -0.08065142 -0.007074956
program -0.09939485 -0.06258632 -0.104356624 -0.014550911 0.08591299 0.062765956 -0.017680036 -0.108184315 0.039832342 -0.031529356 -0.06509536 0.044975676 -0.036816716 0.10246152 -0.08137254 0.023287116 -0.068252824 -0.092074074 -0.081711575 0.02698208 -0.0909812 0.023686068 0.033536173 0.03836868 0.07809668 -0.020132536 -0.026688252 -0.19752017 0.080626376 0.010100634 -0.047241826 -0.0028666237 -0.0035065936 0.093996935 -0.02310306 0.0017234372 -0.011625651 -0.022413883 0.0011158338 0.013999129 0.045476615 0.024971709 -0.030771619 -0.02151284 0.048006695 -0.1086948 -0.0973126 -0.09348379 -0.059129413 -0.08331178 -0.045046907 0.10289243 0.01858273 0.05867254 0.059848573 -0.016822804 -0.05654979 0.009279111 -0.016250232 -0.11750829 -0.074364975 0.03789898 0.027516106 0.20345445 0.08452516 -0.08845235 -0.09608872 -0.075160205 0.020364264 0.042646352 -0.021224713 0.021062454 -0.11789609 -0.015371403 0.036804598 0.098047316 0.100999005 0.0086977985 -0.092810504 0.037768718 -0.007187613 -0.033163264 0.03771534 0.049928423 -0.014906692 0.03987789 0.025148017 -0.18593124 -0.16169159 0.008099805 -0.116266094 -0.021991145 0.032203723 0.08276002 -0.059846915 -0.0018390851 -0.026959509 0.124230236 -0.093073055 -0.0059966687
semester -0.11862544 -0.07813218 -0.12247331 -0.0179583 0.11132155 0.073876545 -0.029153626 -0.12672155 0.054971196 -0.03758117 -0.076994605 0.05853538 -0.05346104 0.12968719 -0.091720805 0.036230616 -0.078063376 -0.12022409 -0.11090105 0.025282988 -0.10904778 0.02726695 0.044973556 0.04765076 0.09683744 -0.029556839 -0.037872795 -0.23589915 0.094894424 0.019814074 -0.05267186 -0.0009734261 -0.0060364236 0.11279491 -0.027660895 0.013598834 -0.021595042 -0.020623958 0.0019240023 0.025301024 0.0556713 0.024505837 -0.037869923 -0.024842288 0.052101236 -0.13943034 -0.12074099 -0.12264422 -0.06949983 -0.104845725 -0.05714319 0.12483946 0.022491824 0.080475114 0.06856148 -0.024704114 -0.06725208 0.011718743 -0.014412031 -0.15256752 -0.09614372 0.048563458 0.039514333 0.25269714 0.10153263 -0.10406623 -0.11862847 -0.085088685 0.030258542 0.05826753 -0.027691882 0.033403892 -0.1511299 -0.019738624 0.051499985 0.12143907 0.12682882 0.0075382967 -0.11563001 0.052310858 -0.004259541 -0.0396441 0.04298392 0.052759368 -0.02572463 0.03997538 0.027754156 -0.23202285 -0.1962785 0.010450871 -0.13508582 -0.029881958 0.035441004 0.10083772 -0.06361679 -0.009296151 -0.043544415 0.1577858 -0.12620245 0.00021984531
email -0.06624045 -0.042536817 -0.06788453 -0.013522705 0.06346659 0.038078338 -0.01649135 -0.075143546 0.028608501 -0.017052168 -0.0457023 0.034064483 -0.027885938 0.06967692 -0.050250314 0.021598266 -0.046239898 -0.07338194 -0.062825166 0.01240187 -0.05779955 0.014846764 0.021573856 0.022867106 0.056976017 -0.019067548 -0.016801924 -0.13826455 0.05832189 0.010795893 -0.030271113 -0.0028505437 -0.0017627664 0.0647495 -0.014446789 0.0019649137 -0.007308392 -0.015026829 -0.0038677042 0.015394973 0.03303697 0.012091273 -0.017722044 -0.011502073 0.032503795 -0.08124707 -0.06989873 -0.07316037 -0.04517171 -0.060410313 -0.028393792 0.06981168 0.01444957 0.048444204 0.034653924 -0.0134269865 -0.04026734 0.001372354 -0.007126611 -0.08242374 -0.056466036 0.03337519 0.022812348 0.14431241 0.064191155 -0.06640399 -0.06598032 -0.053185273 0.013262016 0.029200917 -0.018379413 0.015533978 -0.0832987 -0.010803748 0.0242182 0.07351549 0.07556938 0.0051872963 -0.06038211 0.029022463 -0.010455627 -0.022065738 0.023076762 0.035326067 -0.011930658 0.028954886 0.022654418 -0.13321093 -0.11507485 0.0031869514 -0.082918644 -0.017093994 0.020288393 0.054947942 -0.0438376 -0.0058221184 -0.023126082 0.085167624 -0.06703618 -0.0059203273
you -0.11936635 -0.07821183 -0.12704945 -0.023240533 0.117610924 0.0740805 -0.0276698 -0.13485835 0.049129255 -0.03438792 -0.0819942 0.057713646 -0.054269455 0.12848975 -0.098672986 0.028333217 -0.08443814 -0.12264546 -0.10612663 0.029327506 -0.11326654 0.02900985 0.045188345 0.04378227 0.0926035 -0.026163159 -0.037322864 -0.24423134 0.10645027 0.013558915 -0.051087353 -0.0092860805 -0.0020759879 0.11604962 -0.027735148 0.013593523 -0.021055214 -0.022074556 0.001449937 0.023633812 0.053988665 0.03315645 -0.040095665 -0.019382011 0.053216096 -0.14590815 -0.1294793 -0.12056705 -0.071267076 -0.10844658 -0.06186539 0.12135226 0.020904973 0.07802427 0.07294184 -0.028841384 -0.06600573 0.009777018 -0.0148200905 -0.14858085 -0.09851034 0.052869763 0.03548021 0.26042867 0.10636201 -0.106721714 -0.11539404 -0.084644265 0.029645074 0.056838352 -0.02892514 0.03360858 -0.15636882 -0.025177184 0.045747507 0.12355677 0.12961094 0.012268232 -0.118374474 0.050337188 -0.005284766 -0.040173292 0.046834886 0.060663655 -0.02568873 0.04268261 0.034966618 -0.23787117 -0.20005885 0.008991383 -0.14578477 -0.036575407 0.039556246 0.109290525 -0.072269104 -0.0030662448 -0.044211406 0.15175214 -0.12619652 -0.006924032
email: -0.108587086 -0.0645203 -0.11316174 -0.022795834 0.094958454 0.067232355 -0.025619097 -0.11103956 0.046634052 -0.036124844 -0.065149404 0.044466786 -0.04150506 0.10812203 -0.088511154 0.026045047 -0.0750266 -0.1024582 -0.08979379 0.019223325 -0.09068842 0.022362215 0.03585394 0.035559747 0.08490965 -0.018975805 -0.035700172 -0.21302728 0.089101136 0.017983034 -0.043681417 -0.009440148 -0.0041905125 0.09579081 -0.02913915 0.006172627 -0.011606607 -0.01708436 0.006563745 0.016002914 0.041833334 0.024405412 -0.032176644 -0.018846523 0.049459826 -0.12732272 -0.110683404 -0.10915474 -0.061779547 -0.09347329 -0.050116554 0.110569924 0.024113998 0.070961095 0.055786036 -0.01851357 -0.052533083 0.0117947655 -0.013094971 -0.1324663 -0.083707884 0.0404122 0.037208628 0.22151345 0.09050319 -0.09679727 -0.10275859 -0.0710616 0.029816622 0.048176378 -0.027788088 0.026271531 -0.12824687 -0.014388134 0.046050884 0.103809915 0.110931955 0.009260696 -0.10181865 0.039681412 -0.013881301 -0.0358887 0.035168804 0.049136125 -0.017489698 0.034292113 0.023624798 -0.20773105 -0.1738296 0.0057614143 -0.11868972 -0.031479556 0.03183642 0.09017842 -0.05514381 -0.0063699195 -0.029599756 0.1296068 -0.101682305 -0.0043503046
an -0.08494838 -0.05568533 -0.08672676 -0.015016507 0.07649251 0.05106946 -0.021454727 -0.092246085 0.03786397 -0.029491205 -0.056484148 0.03934104 -0.035204276 0.087441064 -0.06979639 0.019782687 -0.054876164 -0.08287664 -0.07698789 0.020364752 -0.07237698 0.01496284 0.030011546 0.02865057 0.067153536 -0.01719985 -0.03108644 -0.16703379 0.07285409 0.01046205 -0.037937917 0.00036780947 -0.0002768622 0.076531775 -0.015719235 0.0060230996 -0.014599482 -0.015149386 0.0024205344 0.012397144 0.03259715 0.019473307 -0.02816969 -0.013010847 0.0417588 -0.10116098 -0.09158322 -0.08758643 -0.051184103 -0.07625242 -0.03910189 0.08774611 0.019781252 0.05377275 0.04897087 -0.013754972 -0.05054374 0.007718355 -0.017081402 -0.10400367 -0.06388461 0.036079198 0.025937812 0.17870726 0.0717498 -0.07844902 -0.08106462 -0.065552026 0.01684186 0.03724166 -0.015096085 0.027922321 -0.104292996 -0.011726315 0.03495062 0.09117222 0.09159787 0.0101995915 -0.082131095 0.03994365 -0.0032023503 -0.020559704 0.033377163 0.04204247 -0.015081491 0.027641168 0.02608693 -0.16158299 -0.13957165 0.00904689 -0.10035592 -0.021095378 0.022532742 0.066951275 -0.05121668 -0.0066396752 -0.027528444 0.11059969 -0.088431165 0.0012262376
dental -0.091409884 -0.061499722 -0.1078886 -0.019635135 0.09501982 0.06265318 -0.017136171 -0.10732576 0.044503197 -0.029605083 -0.06433647 0.041094992 -0.038755383 0.108149365 -0.07775797 0.027290002 -0.072637014 -0.10178792 -0.09033799 0.019428587 -0.09097778 0.017956836 0.03323691 0.03645906 0.07646774 -0.024673337 -0.035395455 -0.19680938 0.08447702 0.012350493 -0.045195423 -0.0021481512 -0.00040350572 0.094567955 -0.018914506 0.012139678 -0.009165134 -0.023491938 -0.003929085 0.018189864 0.043131597 0.028716737 -0.037446354 -0.025289273 0.046267267 -0.1153867 -0.10203902 -0.09451141 -0.05834826 -0.08418342 -0.04502051 0.0982812 0.02402277 0.064662986 0.060391776 -0.022016898 -0.050199527 0.009069756 -0.019019539 -0.12589167 -0.078137584 0.036540214 0.030993527 0.21015479 0.08700904 -0.08997312 -0.09443846 -0.067495465 0.02478291 0.04037089 -0.02073853 0.023084769 -0.12649415 -0.015855875 0.041803002 0.09838462 0.11134024 0.0042774323 -0.093435094 0.043034103 -0.012630981 -0.03303942 0.038708508 0.05108846 -0.023456309 0.035371047 0.027068716 -0.19557513 -0.16394763 0.004216094 -0.11194779 -0.03280034 0.027376188 0.08099655 -0.055827014 -0.0015410959 -0.030787712 0.12796183 -0.09572639 -0.005984359
am -0.12865223 -0.08214264 -0.13783582 -0.029839845 0.12415366 0.08095689 -0.031165384 -0.13804354 0.060081188 -0.034122672 -0.082522854 0.058345735 -0.051429603 0.13384743 -0.103615694 0.031143673 -0.09531294 -0.13585106 -0.11796939 0.024218744 -0.1255164 0.03338709 0.04819549 0.045172304 0.10342013 -0.032965735 -0.038131688 -0.2618222 0.10181975 0.024640242 -0.04999755 -0.0070337267 -0.0020742705 0.12676738 -0.032219447 0.0021989027 -0.018297134 -0.028384278 -0.0034559905 0.019975422 0.061382633 0.028761268 -0.04536683 -0.024136093 0.06462389 -0.15179625 -0.13898931 -0.13335365 -0.07759307 -0.11989401 -0.05685989 0.13191499 0.028492462 0.08662464 0.07299647 -0.025812116 -0.07398873 0.01664927 -0.017809602 -0.16543983 -0.09910896 0.0586193 0.042259343 0.27783677 0.11024838 -0.12177663 -0.12422399 -0.089852296 0.032730024 0.060241267 -0.026831519 0.042676132 -0.1684597 -0.02465253 0.046423193 0.13130939 0.13942724 0.01202747 -0.12681806 0.059439655 -0.0062195435 -0.040255718 0.043619025 0.06623903 -0.026892932 0.053178772 0.036810894 -0.26027364 -0.22195733 0.0032434002 -0.15403247 -0.040446416 0.041987192 0.114365414 -0.078273356 0.0005710094 -0.047971297 0.16409715 -0.12566252 -0.004336493
open -0.065456845 -0.033896517 -0.06042304 -0.010034212 0.060981877 0.034833677 -0.014517608 -0.07166035 0.022915136 -0.014017366 -0.037602924 0.029365601 -0.02397578 0.06642427 -0.049601093 0.012635951 -0.038035642 -0.066822 -0.05268978 0.008462161 -0.052712683 0.009576114 0.019725494 0.022671422 0.050321084 -0.009305087 -0.019232616 -0.11974002 0.051138878 0.012087709 -0.026337538 0.00065968296 -0.00210731 0.055662863 -0.01562992 -0.0007655549 -0.010294591 -0.008665459 -0.0018925429 0.006702333 0.026391396 0.01758188 -0.01639263 -0.012594975 0.031115431 -0.06875177 -0.069504574 -0.06205713 -0.04163974 -0.058912978 -0.027465388 0.06135864 0.011894512 0.041988842 0.034247503 -0.010447923 -0.031289052 0.0079170745 -0.010140901 -0.07167461 -0.050416272 0.024871808 0.018344788 0.13317804 0.049230035 -0.050554164 -0.061291218 -0.042465106 0.014206713 0.02830982 -0.01328605 0.0214297 -0.07957746 -0.004848683 0.019527115 0.06597302 0.06332879 0.0033628002 -0.06149383 0.020665258 -0.0027242778 -0.01732441 0.022768246 0.034826584 -0.011120223 0.018545832 0.014388174 -0.121522866 -0.099812515 0.0017501483 -0.0702422 -0.018783731 0.016979687 0.050335728 -0.039432857 -0.003182729 -0.023637291 0.08126695 -0.06252156 0.0011764308
examination -0.0846718 -0.05084595 -0.083934665 -0.015019099 0.07962519 0.05485258 -0.019963104 -0.09090964 0.03566701 -0.025164807 -0.057225548 0.03646044 -0.036557525 0.088137634 -0.07115164 0.023035787 -0.06189919 -0.0849489 -0.0721822 0.013708601 -0.07335771 0.020517757 0.028897759 0.034780182 0.066169925 -0.02163124 -0.023813609 -0.17549834 0.07348821 0.017304182 -0.038816076 0.0010981832 -0.0019021187 0.08027169 -0.024048507 0.010706364 -0.014340171 -0.0213775 0.004032554 0.011547047 0.033592656 0.016387241 -0.028508035 -0.021095727 0.038028657 -0.104917884 -0.08354 -0.087802105 -0.05195394 -0.07104876 -0.040999904 0.08919724 0.016621536 0.050836302 0.05088792 -0.013529895 -0.05092202 0.010244072 -0.01617125 -0.1062347 -0.06754049 0.03187798 0.02094685 0.176985 0.07494935 -0.080609426 -0.08483919 -0.061147325 0.01636195 0.03763942 -0.014180724 0.026500583 -0.1124829 -0.017629867 0.03405988 0.09349109 0.09744408 0.0051645134 -0.079540275 0.040888008 -0.010673311 -0.026168568 0.032249477 0.043136947 -0.016405523 0.033206485 0.0229893 -0.17061278 -0.1387446 0.0068592555 -0.09618945 -0.021709373 0.026200917 0.07082412 -0.045902826 -0.006698089 -0.028160593 0.11206891 -0.084941015 -0.00027396937
registration -0.100703396 -0.062502876 -0.10198718 -0.016425256 0.08955991 0.056883674 -0.018893212 -0.10117252 0.04548956 -0.030886423 -0.06391057 0.04476 -0.04225623 0.101890385 -0.07793558 0.022796398 -0.06433756 -0.09697951 -0.08440364 0.023635985 -0.09199664 0.020949807 0.03786795 0.03935163 0.07767515 -0.025063034 -0.02667115 -0.19187036 0.08476904 0.019194027 -0.042241286 -0.0056303027 -0.003997501 0.08882882 -0.019667223 0.001763811 -0.017160526 -0.02101857 -0.0008631541 0.020219786 0.039651588 0.022238795 -0.028703935 -0.022860805 0.040624563 -0.11804992 -0.10033522 -0.10059935 -0.05975736 -0.080864035 -0.046796788 0.09419804 0.021444988 0.066269495 0.05307964 -0.018305412 -0.04879776 0.008392678 -0.019710235 -0.12290779 -0.078479886 0.038597498 0.025058007 0.2001188 0.08418937 -0.083204485 -0.09163763 -0.07492658 0.019774381 0.044389866 -0.01873708 0.029366324 -0.12100494 -0.018139677 0.04017376 0.09720154 0.11038572 0.011098651 -0.087445565 0.036686394 -0.005668965 -0.029571997 0.030529121 0.042494252 -0.019697564 0.03974191 0.030699475 -0.19348395 -0.1562512 0.0071244044 -0.108124256 -0.02584292 0.03245003 0.08180092 -0.05234263 0.0011123874 -0.028801672 0.12506221 -0.098638296 0.0012347265
load -0.10083537 -0.059634708 -0.103098266 -0.016782101 0.09558509 0.06303364 -0.015846843 -0.11006615 0.04680211 -0.028981745 -0.061574146 0.04635255 -0.046237614 0.10498726 -0.082861096 0.025345985 -0.07327141 -0.09747288 -0.093410626 0.020007184 -0.088502325 0.020642238 0.035740107 0.037878286 0.07591933 -0.019449538 -0.033371706 -0.1973213 0.07832048 0.010317836 -0.045331948 -0.0064030704 -0.003696738 0.09767518 -0.02296219 0.0026645532 -0.010991699 -0.017235966 0.0021087944 0.014288638 0.04492868 0.022756036 -0.03752629 -0.021301266 0.042054 -0.11662182 -0.10748272 -0.09783274 -0.059214417 -0.09136657 -0.047860917 0.10005864 0.0151840225 0.067573056 0.060692653 -0.022924202 -0.05784315 0.013563978 -0.019976597 -0.12143823 -0.0807392 0.043327507 0.030895032 0.21422534 0.08306519 -0.0924478 -0.090773605 -0.07418672 0.021095196 0.046164803 -0.019856617 0.029939009 -0.12686403 -0.017639747 0.036254857 0.100060835 0.10501837 0.014843291 -0.088797845 0.045457706 -0.004996682 -0.032433968 0.037641264 0.05177894 -0.021075666 0.03787389 0.03242127 -0.1904316 -0.16190761 0.009620662 -0.11663308 -0.030918377 0.036521014 0.08045642 -0.06204418 -0.008828405 -0.03841578 0.13318646 -0.10123902 -0.006148906
borrow -0.06526525 -0.04782284 -0.070669994 -0.010027144 0.062695384 0.03765843 -0.018049147 -0.07659632 0.02625496 -0.01775474 -0.045796406 0.035048302 -0.029688202 0.068861134 -0.059300367 0.022955582 -0.044490352 -0.06774439 -0.061268076 0.017902948 -0.06362441 0.014947949 0.02975544 0.029669542 0.049736075 -0.014455447 -0.02214881 -0.1434627 0.058328632 0.01586062 -0.03366 -0.0048398226 -0.0036106757 0.06260071 -0.0218732 -0.00035848902 -0.015405494 -0.015682114 -0.00035809295 0.009156491 0.033631 0.0135220075 -0.026158318 -0.010452099 0.029603036 -0.08769989 -0.068957426 -0.06796675 -0.038440447 -0.055718143 -0.028037185 0.071648955 0.009868319 0.040186927 0.039715536 -0.01546828 -0.041951984 0.0051806937 -0.009910961 -0.09054609 -0.057594486 0.031188073 0.021125477 0.14197037 0.060921077 -0.06394466 -0.06683454 -0.05258388 0.012966789 0.034332685 -0.017015807 0.021289987 -0.083596155 -0.0084628025 0.026661346 0.06964244 0.07139091 0.007287491 -0.06580382 0.02487616 -0.006939028 -0.027028244 0.026359605 0.03481045 -0.013974777 0.025076132 0.018188268 -0.13326097 -0.11590592 -0.00088125735 -0.081193924 -0.017031226 0.026273554 0.05819494 -0.03744285 -0.004653138 -0.02733539 0.092715494 -0.07161865 -0.0010486617
book -0.09154622 -0.057410963 -0.09176451 -0.014156816 0.0804875 0.056269005 -0.023919635 -0.09991037 0.041599642 -0.030318951 -0.057326503 0.040582724 -0.0373736 0.094672464 -0.066443086 0.023202784 -0.061359167 -0.09314957 -0.07889279 0.022577835 -0.0874718 0.020398872 0.03278948 0.036433306 0.07050895 -0.021270504 -0.027275974 -0.18567383 0.0709566 0.017168926 -0.041830286 0.0020206582 0.0027016588 0.08932548 -0.020363977 0.009205816 -0.01094278 -0.02344917 0.00016699175 0.014112737 0.036802422 0.025036301 -0.035843298 -0.012642931 0.044948272 -0.10526377 -0.094038256 -0.09245858 -0.05524011 -0.079251006 -0.04057004 0.09735716 0.022745559 0.05708557 0.048705798 -0.017940225 -0.046787735 0.0074277036 -0.008586397 -0.11123465 -0.069635905 0.033757765 0.024432585 0.19317508 0.07518656 -0.082103625 -0.08079982 -0.069615 0.022852497 0.04339383 -0.015395477 0.024461199 -0.10909503 -0.020935923 0.032680444 0.0982205 0.095768645 0.004512661 -0.08300097 0.034189764 -0.008196216 -0.031830437 0.02789597 0.0490554 -0.021007203 0.03161742 0.025914703 -0.17053169 -0.15474975 0.0064216973 -0.10698185 -0.021027524 0.03173836 0.07466251 -0.04907611 -0.0044683916 -0.026011972 0.11639113 -0.08600722 -0.0010760527
