1905 100
the -0.06633569 0.07407806 0.0180783 0.009502132 0.0043866555 -0.13915102 0.05667532 0.17123549 -0.028828895 -0.055872276 -0.03714861 -0.09949627 -0.038734354 -0.0024110936 0.03345238 -0.047263484 0.05241621 -0.07645457 -0.040435117 -0.16197583 0.053282987 0.04499989 0.05167353 -0.056564428 -0.043119542 -0.012090944 -0.08224651 -0.008623575 -0.05466525 0.024196839 0.066558406 -0.00018688005 0.031153955 -0.039065782 -0.036441226 0.06937023 0.020254087 -0.07039154 -0.054622777 -0.08378469 0.031813834 -0.06755474 0.010245535 -0.029119985 0.09116716 -0.03397042 -0.064740315 -0.023835497 0.06727633 0.025923697 0.04505785 -0.028098414 -0.0037282407 -0.005360562 -0.021754641 0.031306643 0.08440193 0.032640077 -0.07190875 0.06164101 0.02934091 0.024576629 -0.020407114 -0.0070947185 -0.061443947 0.07047372 0.026430674 0.080208 -0.11397472 0.12103752 -0.036773987 0.022394791 0.06061886 -0.038697425 0.07550183 0.022989249 0.030091524 0.02953617 -0.07917546 0.0022627378 -0.035622746 0.013033692 -0.051145665 0.110896744 -0.05476589 0.0019917516 0.05940354 0.080509886 0.07818289 0.006735703 0.09543805 0.046270296 -0.016043263 0.035205994 0.13835643 0.033545468 0.034259237 -0.04592067 0.039487474 -0.010037396
EOS -0.046907138 0.046891853 0.011975618 0.0056553665 0.015894355 -0.084224544 0.02954799 0.10213702 -0.016817888 -0.036420703 -0.025923321 -0.06677875 -0.025680792 0.0020733164 0.02632947 -0.019647887 0.035643186 -0.038007353 -0.022826556 -0.0907061 0.029909736 0.018655807 0.034269862 -0.043159556 -0.021991622 -0.0018921049 -0.053250905 -0.0047071143 -0.029622514 0.02367337 0.053438596 -0.004547253 0.012306015 -0.025246825 -0.015801203 0.045430545 0.013931326 -0.031379066 -0.022607617 -0.037042804 0.032694384 -0.05127943 0.0015821895 -0.014535244 0.050981816 -0.011999974 -0.027731238 -0.020958263 0.03792578 0.012256957 0.03897261 -0.028681317 -0.00035253845 -0.0003454505 -0.017707575 0.02929754 0.05616762 0.02965262 -0.040745076 0.03860672 0.0089338785 0.017441662 -0.014004874 -0.0046527884 -0.032489613 0.04590485 0.024369387 0.038417142 -0.057568077 0.07770881 -0.027996618 -0.0008215237 0.04205316 -0.011049709 0.041230235 0.005733903 0.006378311 0.01485818 -0.039641064 0.002618869 -0.03015332 0.009825441 -0.028761026 0.053935964 -0.027607713 -0.0021730806 0.030204168 0.040420447 0.050537743 -0.0048963483 0.05662891 0.025307044 -0.008644013 0.013605411 0.07264372 0.019870995 0.03049331 -0.025047945 0.012420346 -0.005564135
SOS -0.035361145 0.04304538 -0.00043217684 -0.0015566509 0.014413757 -0.06448062 0.023413494 0.0916835 -0.022076195 -0.022081286 -0.02917687 -0.056957204 -0.008471669 -0.003170969 0.02748196 -0.031724036 0.032014735 -0.03207532 -0.025967397 -0.088796526 0.01809706 0.016214024 0.020145817 -0.039077885 -0.018764429 -0.009859817 -0.03577131 -0.0027696681 -0.031425096 0.019862588 0.045396756 -0.0067424974 0.005339652 -0.019850941 -0.027195113 0.036651272 0.0054633054 -0.032259002 -0.028656261 -0.04428895 0.01705255 -0.0386553 0.009298161 -0.0071181343 0.053693164 -0.014134231 -0.028797863 -0.02126555 0.030042125 0.008470671 0.029933358 -0.0205453 -0.007242918 -0.011269593 -0.024155121 0.013169622 0.041577354 0.017369391 -0.04378686 0.025314994 0.021240057 0.008656472 -0.0012675197 0.0016455689 -0.04108851 0.046349887 0.022438189 0.045979895 -0.06758927 0.073028795 -0.018103952 0.012023607 0.039182335 -0.014589774 0.035477057 0.020088987 0.023193482 0.019319478 -0.044521265 0.0061286823 -0.0174192 -0.0024967154 -0.03983496 0.055812623 -0.025932964 -0.006026643 0.023233313 0.039510448 0.052803036 0.00016466255 0.0467659 0.030454414 -0.0016323171 0.015773488 0.07754426 0.021034008 0.029397778 -0.020734452 0.029888647 -0.017287016
of -0.061163735 0.06811767 0.009721213 -0.002477323 0.015267333 -0.109237805 0.042148836 0.13789229 -0.012921052 -0.04878312 -0.025132474 -0.07335478 -0.02345233 -0.0132804075 0.03942819 -0.038528793 0.0494162 -0.066605285 -0.034149535 -0.115234554 0.039152127 0.029289167 0.044815622 -0.035408895 -0.050295334 -0.0042958437 -0.05910397 -0.00761724 -0.03575436 0.022482967 0.059842344 -0.003311203 0.009704488 -0.028650781 -0.023165355 0.065975845 0.01950552 -0.05781815 -0.053600974 -0.053000413 0.036655884 -0.053048857 0.022216901 -0.02273852 0.081078306 -0.024362199 -0.042070758 -0.029212952 0.046841554 0.010687588 0.04632462 -0.025484052 -0.010303272 -0.014093354 -0.029668054 0.028377488 0.06603122 0.04115008 -0.04890302 0.038027167 0.025024433 0.024819486 -0.0048552626 0.0003370953 -0.044084597 0.048751485 0.020843063 0.06789092 -0.09076735 0.08583983 -0.027133012 0.007905031 0.04827296 -0.014272426 0.054813337 0.012872107 0.012743911 0.030324731 -0.06667489 0.011300146 -0.033613525 0.013962127 -0.04095855 0.0855821 -0.040480267 -0.002299649 0.05123034 0.073920816 0.06296018 -0.009226714 0.06807642 0.035601187 -0.016533343 0.026268056 0.1128369 0.022808643 0.03967007 -0.03842882 0.02799427 -0.019062959
and -0.062765256 0.06428668 0.0020521227 -0.002480531 0.0145003125 -0.10775235 0.04335407 0.1427606 -0.025485178 -0.03736145 -0.043595187 -0.081059165 -0.036083747 -0.004579141 0.027808888 -0.043987688 0.039026707 -0.060936477 -0.0221299 -0.13720044 0.041775737 0.024876025 0.045331914 -0.037931345 -0.04657271 -0.0068010935 -0.06800363 -0.008572042 -0.05036053 0.02541054 0.07062409 0.002460124 0.020532703 -0.03947274 -0.020601545 0.056694392 0.0076387483 -0.05094795 -0.048909646 -0.06770284 0.037473433 -0.070217974 0.0051659187 -0.011980177 0.08566047 -0.037326615 -0.045468606 -0.028185649 0.059115555 0.007957537 0.048082225 -0.024271755 0.010259483 -0.010394153 -0.026073992 0.02328346 0.05818625 0.024007166 -0.05877691 0.037629336 0.03154173 0.014301581 -0.010485262 0.0008773303 -0.057218 0.057687417 0.033430208 0.0734708 -0.09956047 0.11248523 -0.040389713 0.018783096 0.05044272 -0.021805113 0.06464279 0.026528163 0.017807474 0.033553842 -0.058446378 0.00040596124 -0.038093697 0.0014736665 -0.046421286 0.086139955 -0.049307805 -0.00844369 0.053595908 0.07587833 0.06076677 -0.003752764 0.08422279 0.035481557 -0.010409324 0.026814954 0.11291147 0.01742998 0.042471882 -0.028697688 0.033773914 -0.011883609
to -0.06590476 0.06595564 0.009803814 -0.010471581 0.0016309499 -0.11651873 0.0470419 0.14602919 -0.026851106 -0.052293237 -0.042087313 -0.08745595 -0.037269913 -0.01757757 0.031500563 -0.04798868 0.037366167 -0.073184945 -0.03054747 -0.13450512 0.030987678 0.033199582 0.04605204 -0.04103252 -0.051368993 -0.010593493 -0.06761855 -0.02259856 -0.03964033 0.030993806 0.070757404 -0.008504656 0.013973965 -0.037410747 -0.029836839 0.071280725 0.01659275 -0.051058806 -0.042334378 -0.07244064 0.04594755 -0.07171474 0.008024613 -0.024218319 0.078882486 -0.03310307 -0.050314 -0.021136988 0.054321736 0.0132354675 0.04847862 -0.037245054 0.007595363 0.0034232961 -0.035183087 0.033881806 0.07950334 0.027232021 -0.06567439 0.037758444 0.034895018 0.020453667 -0.0040952708 -0.0068287165 -0.048829045 0.062200263 0.024335189 0.06737337 -0.10357731 0.094920106 -0.033634517 0.018785678 0.061593372 -0.02002383 0.06083894 0.02818034 0.009913004 0.02981111 -0.06646494 0.014018292 -0.023309305 0.0013443917 -0.043836355 0.080738954 -0.043223377 -0.009071641 0.03999443 0.084644854 0.06877373 0.0037027143 0.091348365 0.049415532 -0.023857497 0.028222073 0.12222994 0.030541187 0.036000643 -0.04248434 0.035642434 -0.020948753
university -0.012350253 0.018337982 0.0034999768 0.0005391671 0.004025025 -0.039607454 0.021887032 0.05003443 -0.011077493 -0.018611392 -0.008020929 -0.027791241 -0.011677682 0.006740623 0.0065310574 -0.014675429 0.025447955 -0.01707989 -0.008407277 -0.05628369 0.0146202 0.010043563 0.023333026 -0.017328074 -0.01399649 -0.00017424952 -0.027789924 -0.009284599 -0.014090625 0.006523756 0.029768702 0.009423192 0.006063439 -0.006212067 -0.017275687 0.022670431 -0.0036769724 -0.029630791 -0.022497647 -0.033598673 0.020307064 -0.028568896 0.014914969 -0.015995579 0.03161734 -0.00076656183 -0.025469776 -0.020299943 0.014626973 0.002338686 0.016755221 -0.018477364 -0.0092245415 0.0012245353 -0.018195214 0.0024179653 0.022542266 0.0038022208 -0.028762406 0.008166976 0.009140824 0.00346477 0.0011980581 0.0021671415 -0.021314098 0.027428484 0.0026317 0.016859038 -0.041626055 0.031929646 -0.015409479 0.010827073 0.016061692 -0.0048148166 0.029019898 -0.00043808058 0.0115706 0.016603066 -0.026088055 0.010252647 -0.0043075467 -0.003234572 -0.024459478 0.035578452 -0.016714798 -0.005766609 0.026066253 0.021868441 0.01783629 -0.00077026244 0.027254496 0.014442308 -0.009999332 0.010401767 0.0384603 0.009391037 0.022479894 -0.017363634 0.01048433 0.000984456
for -0.03542549 0.04396807 0.018277535 0.008286817 0.0044534476 -0.08600564 0.03620584 0.10235093 -0.021466652 -0.041058715 -0.029171381 -0.06439363 -0.017583014 -0.00892587 0.025482934 -0.026883796 0.03769466 -0.050687484 -0.027251514 -0.108892694 0.028930755 0.03244347 0.03038537 -0.04653299 -0.040631853 0.001985636 -0.05783106 -0.0031445958 -0.036901865 0.026816739 0.041343324 0.0036767526 0.0128761325 -0.02731611 -0.025656914 0.045459434 0.0021550404 -0.044578057 -0.043220866 -0.049064543 0.03602182 -0.050621964 0.011088053 -0.012285725 0.06830381 -0.02804277 -0.044060383 -0.025119547 0.050149992 0.011973242 0.026142767 -0.022892453 0.009626712 -0.0111031635 -0.025225364 0.033080153 0.043174434 0.030092763 -0.044248056 0.04125722 0.028092658 0.013351307 -0.014298031 0.009700719 -0.036462713 0.050950196 0.008603558 0.057983566 -0.07401152 0.07196952 -0.02478721 0.009331527 0.045677096 -0.021536348 0.04198182 0.017068611 0.022903636 0.014640512 -0.04767288 -0.0013315225 -0.029981084 0.0062047713 -0.044991165 0.06993482 -0.030230807 -0.0020003149 0.03925535 0.065783955 0.061785202 -0.0021031843 0.06390198 0.025771735 -0.02086304 0.029971784 0.083091944 0.01791872 0.026265096 -0.029582366 0.029214585 -0.014730144
in -0.05461947 0.05903654 0.013377727 0.009365583 0.0162338 -0.08598873 0.043342233 0.10535901 -0.022928728 -0.031265717 -0.026327394 -0.07107237 -0.013767433 -0.0099713905 0.035697337 -0.029372249 0.027517535 -0.05362867 -0.028360281 -0.10528453 0.031340487 0.03648209 0.039353993 -0.045394816 -0.03001346 -0.0031509004 -0.058073185 -0.01913371 -0.030654801 0.010375854 0.056344714 -0.005245666 0.019649802 -0.010983277 -0.023464942 0.052227933 0.005993743 -0.03643078 -0.03254178 -0.06263844 0.025589002 -0.046198398 0.013199528 -0.017577227 0.059783656 -0.024871912 -0.037652735 -0.018185236 0.0379987 0.0070963074 0.035769336 -0.02149023 0.00012560636 -0.0082724085 -0.015918195 0.022208868 0.05597972 0.027910203 -0.040785097 0.028645275 0.013750064 0.011780224 -0.0011682732 -0.0007925383 -0.049076203 0.045455895 0.0146140205 0.056045894 -0.08451894 0.08297715 -0.038340375 0.011467988 0.047633603 -0.012991282 0.040254 0.009311538 0.008464176 0.013001921 -0.060732864 0.0056279805 -0.024586072 -0.0006153457 -0.030965663 0.07106408 -0.02737646 0.001355698 0.036191415 0.05071529 0.052069683 0.0042983363 0.05881709 0.03273596 -0.010657473 0.02202644 0.09752131 0.027949007 0.031749554 -0.018620167 0.031683616 -0.016629353
or -0.04468547 0.036922295 -0.00047970936 0.0089413645 0.005435879 -0.08521472 0.02496648 0.102104224 -0.018070389 -0.034913655 -0.024996744 -0.06162949 -0.021697883 -0.0048815655 0.019322887 -0.018748203 0.03353861 -0.0564605 -0.011794501 -0.09727164 0.027698463 0.028076416 0.02063432 -0.035881564 -0.020533642 -0.009244762 -0.05635414 0.0015484132 -0.028965242 0.012118372 0.053240705 0.004252805 0.017746804 -0.008825517 -0.029826783 0.046772875 0.009337334 -0.035010543 -0.02964164 -0.042809185 0.02944183 -0.03800623 0.00794904 -0.019703599 0.053592425 -0.01751178 -0.036313742 -0.014429885 0.041315284 0.018274272 0.03431133 -0.0112182 -0.0013535094 0.005219472 -0.01357826 0.012663438 0.043835193 0.021144966 -0.035808723 0.030899059 0.014261615 0.022503374 -0.00036087912 -0.0014198624 -0.04200416 0.03534206 0.012156435 0.03430163 -0.06518455 0.06902765 -0.022840844 0.013381828 0.033548303 -0.027958577 0.043269504 0.0063146455 0.016176738 0.014204109 -0.037830602 0.006773162 -0.017436756 0.0030015912 -0.034499057 0.06879988 -0.027842404 -0.006252215 0.022456665 0.05227514 0.0542544 0.0061335415 0.046823557 0.035177454 -0.0066368976 0.028963044 0.0856103 0.010208365 0.01680783 -0.016143642 0.033111498 -0.007053554
- -0.023388024 0.034060422 0.011007788 -0.011345129 -0.0047611417 -0.07743051 0.020604406 0.091685556 -0.015908392 -0.03534847 -0.0118423905 -0.057039596 -0.0062774336 -0.004338373 0.022700768 -0.018045256 0.027350591 -0.042714186 -0.015844608 -0.0905941 0.023324205 0.015845345 0.028389364 -0.027920816 -0.03407229 -0.0015218194 -0.03863664 -0.015404792 -0.019077592 0.019860407 0.034934156 0.0004895985 0.025389427 -0.014207508 -0.011100828 0.04533616 0.009360814 -0.03311562 -0.038028307 -0.044528406 0.020216558 -0.03877844 -0.00022460781 -0.005301808 0.043222133 -0.029346703 -0.033163402 -0.019121451 0.02628485 0.010572222 0.01707851 -0.021518918 -0.0083611095 -0.0026544742 -0.009007673 0.019114638 0.03490805 0.016887467 -0.025919711 0.029981652 0.007822291 0.0071894834 -0.005109171 0.0018114625 -0.047399316 0.040141266 0.0026420876 0.031532206 -0.052982684 0.060746048 -0.012838542 0.016518071 0.029665798 -0.0033536893 0.04083675 0.023445167 0.020578055 0.004294087 -0.04455543 0.01375448 -0.011300104 0.014397336 -0.023401765 0.06096616 -0.03608372 0.0038488756 0.021395644 0.04996032 0.051089898 0.007981689 0.055441547 0.026929604 -0.0084775975 0.025907021 0.05934906 0.016056465 0.03049335 -0.02696856 0.024637187 -0.017583251
a -0.022025574 0.043742273 0.007615552 0.0048426436 0.007482042 -0.069988266 0.021731032 0.08481088 -0.016321357 -0.029161725 -0.015661092 -0.044089302 -0.017995778 -0.0070852684 0.024931936 -0.027448429 0.021043666 -0.043377977 -0.019598404 -0.08213595 0.016720194 0.009815217 0.022119094 -0.035814468 -0.033937663 -0.011989143 -0.046110805 -0.00028768997 -0.018456783 0.013485641 0.032734673 -0.007467354 0.010874086 -0.014287768 -0.016273167 0.035130475 0.0067403344 -0.031704314 -0.03396793 -0.044490177 0.011445434 -0.036510624 0.010389849 -0.004309915 0.041920118 -0.01846095 -0.017520687 -0.015969867 0.027885515 0.017415816 0.027578166 -0.021254556 0.006640336 0.0024310178 -0.02114952 0.01735305 0.038750555 0.024631906 -0.03441642 0.022006758 0.016395895 0.012056843 -0.0065665883 -0.0019480115 -0.034711372 0.03984752 0.020839104 0.043513995 -0.062345907 0.06003399 -0.023518 0.01646971 0.03278692 -0.009242067 0.036120936 0.017449766 0.004550143 0.022091238 -0.039820787 0.0011750995 -0.019170718 0.014768684 -0.033550613 0.04726992 -0.016022371 -8.6002474e-05 0.018625923 0.034770012 0.04809447 0.006491879 0.049399193 0.019210063 -0.018893074 0.021166738 0.06994567 0.007921708 0.01300821 -0.021998603 0.013736665 -0.01016182
students -0.033919048 0.030004442 0.015968308 -0.009331223 0.011183694 -0.057921644 0.022311527 0.08694044 -0.0016290202 -0.030960167 -0.027428705 -0.054079924 -0.02446145 -0.007999496 0.013271961 -0.029832674 0.024201361 -0.034571145 -0.008800314 -0.07532249 0.017562715 0.020162106 0.021547306 -0.019262975 -0.023561165 0.0037963204 -0.047375906 0.0014390216 -0.024833396 0.021994844 0.028037313 0.0026082871 0.010756187 -0.015137259 -0.021523785 0.024636481 -0.0014635196 -0.039269526 -0.023748688 -0.037704162 0.018243968 -0.028193273 0.0063283043 -0.013411255 0.03449668 -0.026250774 -0.018468555 -0.021457408 0.023640042 0.013890291 0.032693997 -0.0218955 0.0014373267 -0.00905033 -0.013037054 0.012915677 0.03443963 0.021754146 -0.023996353 0.031516515 0.0043879487 0.00601198 0.00029861004 0.0021095295 -0.033356953 0.033348586 0.02301625 0.03441388 -0.06254459 0.058843575 -0.014302814 0.013598545 0.033560827 -0.020188788 0.033708222 0.010791996 0.015297525 0.007188992 -0.044438295 0.005434477 -0.02613693 0.010244224 -0.02736748 0.059411306 -0.028724054 -0.0006133827 0.033213817 0.03695728 0.033493523 0.0010895692 0.048016317 0.019473733 -0.0024949976 0.008970917 0.06488892 0.014675612 0.02963055 -0.012273867 0.024689026 0.00028163387
is -0.04968563 0.05383225 0.00020512768 -0.002697664 0.0029365455 -0.082539625 0.021262048 0.087743744 -0.01864488 -0.031631395 -0.031058872 -0.050898466 -0.030374214 -0.01123909 0.033038557 -0.01983109 0.03733647 -0.041044973 -0.018405182 -0.09571112 0.032596078 0.026339099 0.03309753 -0.028262667 -0.021450968 0.0041751657 -0.05902611 -0.015260661 -0.026253913 0.022443086 0.051007576 0.0058394736 0.019138852 -0.023282416 -0.01299628 0.038141545 -0.0018911196 -0.028832994 -0.030689029 -0.049476035 0.022337263 -0.047687802 0.01566278 -0.0103669865 0.05117376 -0.027380252 -0.037051722 -0.02008444 0.04338826 0.0062955697 0.03138082 -0.017808253 -0.006997736 -0.0004834138 -0.019354263 0.024372159 0.05182391 0.02217847 -0.042999517 0.039040968 0.022766592 0.021756219 -0.0046658367 0.00943754 -0.02624128 0.0392471 0.024886485 0.047609534 -0.059906986 0.068110496 -0.027425932 0.0049233353 0.027208712 -0.015248103 0.05055264 0.02255121 0.011154568 0.023617893 -0.041203175 0.0024092833 -0.019062199 0.00066786254 -0.024070598 0.06661366 -0.025630616 0.004899239 0.03955102 0.058122765 0.0472097 -0.007061693 0.06379283 0.034705654 -0.010510148 0.019109806 0.0701296 0.012279945 0.034335066 -0.025928032 0.01589468 0.0010971479
college -0.0078648385 0.027136011 0.0051734913 -0.009567978 0.011192938 -0.036435332 0.018937469 0.046025597 0.00438441 -0.023878982 -0.0012485222 -0.033918634 -0.015598807 -0.010766766 0.0024501553 -0.002212814 0.023820596 -0.023213355 -0.00304225 -0.042207118 0.019325694 0.015789606 0.011015445 -0.018320398 -0.019792866 0.002954957 -0.019099917 -0.00653994 -0.002695211 0.0030703668 0.010312799 -0.0019135012 0.005641328 -0.015019913 -0.015236382 0.00719752 0.01290939 -0.009188627 -0.014154449 -0.01158199 0.018806033 -0.019489799 0.012621655 -0.0036851347 0.028119491 -0.001571657 -0.019758135 -0.011610227 0.016157487 0.008616011 0.017287632 -0.002308153 0.004006446 -0.01059003 -0.010740675 0.0012126738 0.03135285 0.015628995 -0.01643885 0.017397359 -0.00049553957 0.00017761951 -0.0010436174 0.007683629 -0.012209143 0.024404284 0.0046210773 0.013528829 -0.02692353 0.02730491 -0.01579674 -0.004879078 0.02219443 -0.008615479 0.016150532 -0.003211585 0.01613799 0.0088526085 -0.016307704 0.005842307 -0.016106648 0.003916694 -0.010922978 0.016900457 -0.006908943 0.0025085665 0.020345675 0.027081242 0.016282367 -0.0076439492 0.032250825 0.012656619 0.0007463569 0.015083044 0.032631066 -1.8260333e-05 0.011268905 -0.0007884868 0.0033834311 0.0063916785
student -0.034091372 0.03380904 0.007708909 0.007733011 0.00059208367 -0.057361215 0.013578244 0.06825838 -0.014631052 -0.012379375 -0.022218222 -0.04809965 -0.018571652 0.0028114833 0.009314862 -0.023709305 0.012653023 -0.024845794 -0.009232363 -0.057919007 0.014679157 0.021973908 0.011350633 -0.02486606 -0.026052747 -0.0049678604 -0.034851663 0.0026416779 -0.018513013 0.001900319 0.024038605 -0.006601441 0.010545404 -0.002256103 -0.01954233 0.037006147 0.013256921 -0.033701707 -0.030973937 -0.02284458 0.025358655 -0.03457796 0.00050744886 -0.0020834568 0.040510952 -0.0051112394 -0.030421952 -0.022846496 0.026985645 -0.003149065 0.016109558 -0.016708039 0.01012865 0.007013237 -0.015090753 0.020188883 0.03997468 0.013325192 -0.018014403 0.02821105 0.014342106 0.005426736 -0.011870166 -0.0030827625 -0.0153136 0.02085062 0.008046388 0.03880747 -0.041034836 0.053599093 -0.025416592 0.005482866 0.030285355 -0.016750744 0.0359774 0.019004883 0.008815791 0.009969596 -0.031009803 -0.0017811425 -0.022793846 0.002862271 -0.025024379 0.046407875 -0.026622806 0.005898739 0.014466027 0.02685307 0.041028183 0.0088568255 0.033730555 0.02226141 -0.014225913 0.0051475447 0.04605319 0.01858657 0.023879888 -0.0063678697 0.022649191 4.157093e-05
offense -0.022077126 0.01801381 0.006455843 -0.0019400483 0.008488095 -0.05516414 0.015291039 0.078920856 -0.0077327457 -0.021320136 -0.019312294 -0.052618686 -0.018065099 0.010518216 0.0058739893 -0.009219266 0.010712078 -0.03166235 -0.017349023 -0.07581427 0.031464737 0.0204697 0.0193812 -0.013688874 -0.022781126 0.0049917023 -0.022865925 -0.01957193 -0.025711564 0.01154592 0.03347733 -0.005145145 0.015474303 -0.027618952 -0.010862655 0.03812225 0.011650532 -0.027736807 -0.035347622 -0.044395518 0.016045056 -0.038741622 -0.0026050021 -0.0032656447 0.0477189 -0.016360205 -0.032143716 -0.02065371 0.03543152 0.011712759 0.011854038 -0.024477135 -0.0004412726 -0.0007785418 -0.00605498 0.018598398 0.0266301 0.005041752 -0.032627136 0.021158142 0.018777804 0.012732864 -0.003262596 0.005733015 -0.03246297 0.033705167 -0.0015435352 0.039680235 -0.038454637 0.057906132 -0.004757818 0.014391165 0.027644362 -0.011507158 0.03214103 0.0011948812 0.020619793 0.0034914883 -0.025100728 0.0020117185 -0.013315833 -0.0047724475 -0.03472963 0.03431971 -0.029550206 0.00038514298 0.012912616 0.031785145 0.03152555 -0.0009917169 0.04594862 0.024965562 0.0038555693 0.024291819 0.046396133 0.020787263 0.0066440366 -0.019944923 0.0077727893 -0.0035413944
bicol -0.016281817 0.027110027 0.006836407 -0.0072691524 0.011211123 -0.040973775 0.02302447 0.046296977 -0.011021673 -0.018793691 -0.016817395 -0.03206591 0.0003268831 -0.0054665925 0.018051105 -0.022401983 0.01632921 -0.022100097 -0.0005177129 -0.050077472 0.019748759 0.0053941305 0.005614395 -0.021356886 -0.016556038 -0.0056266827 -0.025176276 -0.011606417 -0.012003209 0.00675112 0.018120188 0.0045453813 -0.002708604 -0.011263777 -0.004023995 0.026896404 -0.007302946 -0.01035479 -0.008822861 -0.025402073 0.019965094 -0.029133689 0.012841217 -0.0012805874 0.025232818 -0.014576634 -0.019344388 -0.012590909 0.018272411 0.0059227366 0.022021445 0.0021377993 0.00919568 -0.0056912005 0.0016281863 0.008920885 0.026467785 0.013426926 -0.019024512 0.018015232 0.0027539965 0.0008462207 -0.0124103 0.0020886476 -0.00960392 0.0197806 0.008346507 0.022531332 -0.021127086 0.024063224 -0.009180368 -0.0035008125 0.020342436 0.0010654918 0.026575407 0.013194973 0.014727166 0.015116401 -0.013151048 0.011974723 -0.014051741 0.012291402 -0.010305764 0.025441496 -0.004755013 0.005242374 0.024189072 0.026134389 0.031697925 0.0009212092 0.03479636 0.015709065 0.001287972 0.0052214162 0.040973697 0.01505848 0.009826298 -0.01195972 0.014325747 -0.011398438
are -0.021771464 0.025798662 -0.00032941427 0.003169114 0.013254398 -0.069753945 0.026743826 0.087648906 -0.01857456 -0.03184786 -0.02601872 -0.05100173 -0.015198968 0.005135396 0.025509875 -0.021540735 0.026394252 -0.029275728 -0.0063671074 -0.067428365 0.027488887 0.011795159 0.017366264 -0.033064768 -0.017318727 -0.006560601 -0.04812983 0.0006238054 -0.0138345305 0.010331599 0.04482756 1.1282673e-05 0.006709207 -0.01578935 -0.016709689 0.031093365 0.008689724 -0.025755273 -0.01898314 -0.04764889 0.018014219 -0.040743627 0.015966197 -0.0051914896 0.039303772 -0.014105406 -0.033575393 -0.014951663 0.03972907 0.006166002 0.020524228 -0.023250936 -0.0025302186 -0.0032232385 -0.011595858 0.02732017 0.035213973 0.021084527 -0.023071945 0.026853845 0.015821846 0.021726174 0.0018782847 0.007739852 -0.035088837 0.042908344 0.01920477 0.045256834 -0.05589339 0.060869947 -0.013253681 0.0035544112 0.036393087 -0.011992659 0.04352766 0.007627777 0.0069096573 0.02123895 -0.046278965 -0.0024889605 -0.023776125 0.0036948728 -0.029514913 0.057396512 -0.014069984 -0.0010985906 0.02645715 0.04345144 0.037049755 -0.007971534 0.05295543 0.018437488 -0.0040159086 0.02678762 0.06550224 0.017345497 0.02517709 -0.021776233 0.023011789 -0.007388682
be -0.028983494 0.044570293 0.00888063 0.0060869176 -0.0023369028 -0.062241808 0.036326494 0.08174195 -0.011342706 -0.033482958 -0.02212678 -0.048299585 -0.009899912 -0.004084196 0.02263855 -0.022695988 0.035573933 -0.046173137 -0.022570575 -0.08406108 0.021253994 0.026011935 0.015093621 -0.03313782 -0.03467462 0.00051939365 -0.045748364 -0.017223831 -0.019807834 0.024311183 0.035626173 -0.0052458285 0.014119809 -0.016922887 -0.02902727 0.045491964 -0.0012524402 -0.04008517 -0.031161666 -0.047690686 0.023920022 -0.02808504 0.014724953 -0.0047291825 0.04797113 -0.016889116 -0.032070994 -0.027016466 0.037124794 0.01158016 0.018228222 -0.021571202 -0.009743101 -0.008631249 -0.012309348 0.027705275 0.04652043 0.022826664 -0.02783564 0.026546756 0.014731014 0.0041904175 -0.009225562 -0.002301389 -0.031000683 0.043162264 0.0063601434 0.034804467 -0.06600731 0.059406787 -0.025609031 0.00952822 0.036413867 -0.020742703 0.032825347 0.012882354 0.017678766 0.021261178 -0.043510735 0.0012332124 -0.023645448 0.004460831 -0.027713526 0.05646176 -0.018266914 -0.0025296933 0.02768392 0.03958075 0.0414517 -0.007572314 0.04906766 0.0250654 -0.019470306 0.02790572 0.05894671 0.00527792 0.013753377 -0.012891229 0.026351666 0.0006334397
1 -0.021849187 0.02968728 -0.0016203108 0.008033367 0.005693865 -0.05466588 0.018413655 0.0738029 -0.0029437498 -0.022419611 -0.0131552955 -0.04624126 -0.006091819 0.005287047 0.018113201 -0.02458249 0.015406399 -0.029056052 -0.021949116 -0.06892474 0.022844052 0.018042283 0.00860515 -0.010059148 -0.025488982 -0.010352024 -0.026419457 -0.01193834 -0.030646184 0.008387824 0.03135165 -0.009838036 0.0147642465 -0.017926557 -0.017603 0.036942583 0.00903821 -0.014280172 -0.025715286 -0.033797577 0.020836066 -0.033544958 -0.004641953 -0.0019863306 0.03936843 -0.02915928 -0.03198364 -0.018199291 0.032671556 0.01288834 0.024124272 -0.024255617 0.0007882026 -0.007385982 -0.014338266 0.023583319 0.03695193 0.012768305 -0.03486915 0.016203398 0.01379047 0.016160639 0.0007181378 -0.00889772 -0.043160714 0.03722008 0.0063065644 0.029323481 -0.04080518 0.04831863 -0.0072016036 0.005709058 0.020463238 -0.0103713 0.03946818 0.020884972 0.015570774 0.01606067 -0.03974445 0.006077272 -0.020180292 0.006046634 -0.027615387 0.03982145 -0.029419603 0.009429296 0.02510314 0.036377136 0.033713825 0.01150973 0.033195045 0.024502913 -0.0044109463 0.02523172 0.06021573 0.010964196 0.01896568 -0.019616498 0.0072527938 -0.010244082
dean -0.011014536 0.020190611 0.013229218 0.008633873 -0.0066839857 -0.017757678 0.0041154195 0.029818963 -0.0045318548 -0.0035563037 -0.0037630834 -0.013729399 0.00353537 -0.0011096046 0.0005549876 -0.0138847185 0.017277807 -0.020050166 -0.009046646 -0.024503186 0.0057419976 0.00078039424 0.0055255014 -0.009372135 -0.0074687186 0.004657706 -0.020518892 0.00020979867 -0.0009512729 0.007362856 0.020115942 -0.0044338442 0.010163832 -0.013722479 -0.0034727647 0.0025770331 -0.0002302281 -0.021700574 -0.011519778 -0.020042008 0.0036182748 -0.012186897 0.0071222493 -0.007458624 0.008720146 -0.013240855 -0.009798989 -0.010711597 0.0021950714 0.002038642 0.017251201 0.0006165501 -0.01071262 0.0018389394 -0.011735944 -0.0025163502 0.016043581 0.0073896185 -0.019754766 0.0037796174 0.0035094314 0.012109119 -0.011079044 0.008000127 -0.012031488 0.013999427 0.0142197395 0.01768145 -0.024176508 0.02627903 -0.0039673992 0.008907161 0.011191514 -0.010014698 0.014912646 -0.001553328 0.006153457 0.011181205 -0.008518851 0.01190936 -0.0141867595 -0.0035265307 -0.003977494 0.020709692 -0.01569354 0.0012708872 0.012402625 0.013964009 0.009669404 0.004888194 0.027486019 0.00031181262 -0.0038133692 0.0038642248 0.016723284 0.0035141853 0.0031788237 0.0020447345 0.0017031028 0.00070891465
with -0.035394963 0.042969346 0.009122335 0.010103556 0.007538563 -0.07364189 0.024265908 0.08628392 -0.015924878 -0.03492699 -0.02855449 -0.057728626 -0.01111345 -0.0014627519 0.028434468 -0.017204177 0.019329296 -0.0374521 -0.0077034547 -0.077178456 0.026379652 0.025893604 0.01393736 -0.020692708 -0.018653695 0.0043733944 -0.050969016 -0.0007885855 -0.01757932 0.013310118 0.03263827 0.005862713 0.0033540272 -0.021330528 -0.01386463 0.044703376 0.014950738 -0.037935063 -0.037214536 -0.03146328 0.027257126 -0.041992158 0.0011366954 -0.01772156 0.042862102 -0.020547388 -0.028098943 -0.01771189 0.029444834 0.0021471889 0.03771733 -0.021196453 -0.007260265 0.0050197225 -0.013121024 0.02699363 0.03668696 0.013923241 -0.034686975 0.026082315 0.006172518 0.011232623 -0.0048801326 0.007326053 -0.023173876 0.037954576 0.01077067 0.036483265 -0.061486837 0.067637414 -0.029371666 0.009537304 0.03031786 -0.021860415 0.028841022 0.01732428 0.0027427906 0.014717607 -0.036575403 0.013739311 -0.025767403 0.009220021 -0.019270532 0.04605224 -0.029054081 0.0048111835 0.03225402 0.046133004 0.04971204 0.00081474666 0.05024891 0.022419853 -0.01842909 0.021452753 0.06940302 0.0055277855 0.022097118 -0.01947529 0.019743428 0.000103741026
contact -0.010319563 0.0029498318 0.00972486 -0.008095395 -0.008097784 -0.017631859 -0.0018273336 0.0212129 -0.00069033843 -0.010025697 -0.011930313 -0.012206231 -0.005440244 0.0026185985 0.011962696 0.0018509659 0.01668611 -0.01874646 0.006561783 -0.02126938 0.0142406 0.0069036875 0.0086170295 -0.017446704 -0.015672097 0.008621991 -0.013164851 0.0010938348 0.0014233075 0.0029079805 0.019632872 -0.0010754815 -0.0073423344 -0.011062432 -0.006280486 -0.0021078887 0.009732961 -0.005158904 -0.015683534 -0.0004375895 0.014278038 -0.0030553767 0.009912911 -0.014138533 0.011633366 -0.014358002 -0.01151154 -0.0051200874 0.0070787356 0.0034573902 0.010383188 -0.0012409985 0.0047119246 0.006860346 -0.009664654 0.0122632515 0.017326145 0.015758988 -0.0034027928 0.0032010817 -0.00017665178 0.002631863 -0.0035983706 0.010926228 -0.007075026 0.013344332 0.0065428116 -0.0011653531 -0.006220757 0.023481715 -0.006694205 0.0037676822 0.00070212584 -0.009786564 0.01728491 -0.0007196263 0.010542588 0.005935379 -0.010862918 0.005107718 -0.008452327 -0.0011045709 -0.0052405517 0.017533172 -0.0072926176 0.0006525647 -0.0019627032 0.020437695 0.0001607681 0.006682547 0.016648917 -0.0019914648 -0.007101471 -0.0040836204 0.009508069 0.009961935 0.015896877 -0.0022146604 0.0053532887 0.008528729
registrar -0.015162993 0.010299898 0.0070628114 -0.007193451 -0.00911184 -0.030006342 0.018119957 0.032485988 -0.009052596 -0.018589491 -0.005440313 -0.012486157 -0.0060284007 0.00021265793 0.0005499172 -0.00078315637 0.011702027 -0.00335834 -0.01500874 -0.02994522 -0.00316536 0.0051795794 -0.0012931642 -0.003922973 -0.01453917 -0.007378472 -0.008309392 -0.010704511 -0.0050029163 -0.0029399684 0.022837711 0.009268824 0.005799305 0.00052386214 -0.0017157202 0.002698428 0.012367325 -0.021280136 -0.00060291385 -0.009631903 0.0030909167 -0.015127942 0.013907038 -0.010999257 0.022483593 -0.0129288975 -0.0010202059 -0.007021716 0.017570391 -0.00055225764 0.015821615 0.0048366664 0.0012141201 0.00043512954 0.00022925493 0.01391754 0.023155589 0.016406918 -0.0033120487 0.016673127 0.013911208 0.0046761134 -0.004586634 0.0029859005 -0.010570717 0.0126263825 -0.004523223 0.00083283446 -0.020361306 0.02908545 -0.009963547 -0.005127188 0.0147197265 -0.0038432786 0.013393317 0.006638258 0.007937183 0.011871764 -0.0099396985 0.003713205 0.003555695 0.0034705992 -0.013562265 0.023607984 -0.0020881956 0.003657396 0.005000727 0.018189486 0.018878238 0.0068908725 0.017529693 -0.0027560801 -0.0027452556 0.006099321 0.023316324 -0.006090086 0.017255247 -0.012633657 0.012528277 -0.012074767
shall -0.018484967 0.03924128 0.007455967 -0.0033681977 0.005079541 -0.05518004 0.014901164 0.07479771 -0.007877612 -0.01972008 -0.02591594 -0.03221438 -0.014074926 -0.004137899 0.006516361 -0.015000417 0.028607644 -0.02576681 -0.019361643 -0.072483614 0.013552381 0.016258093 0.010602711 -0.033181503 -0.02313287 -0.0023768502 -0.044723265 -0.009705903 -0.018904231 0.019379113 0.033231236 -0.00012297557 0.0011215147 -0.02001057 -0.015030579 0.03691974 0.0103964 -0.02961751 -0.022237828 -0.043052245 0.016769731 -0.03547947 0.01534106 -0.0138647035 0.033525165 -0.02426989 -0.024564192 -0.022173336 0.025170675 0.0034488095 0.020434711 -0.016648563 -0.008484381 -0.0032245081 -0.011267716 0.010775966 0.02656739 0.012999382 -0.03908531 0.02139237 0.019139225 0.008391937 -0.003906816 0.0060622646 -0.015774777 0.034402065 0.021829981 0.021257045 -0.055422843 0.04386589 -0.025736267 -0.0019621968 0.0185014 -0.01671963 0.03182941 0.0060895504 0.0002495035 0.018414378 -0.03086342 0.009363576 -0.0073982514 0.012064556 -0.024910964 0.047982756 -0.025785903 0.0020175339 0.027108148 0.04700213 0.030459879 0.0023177303 0.034260936 0.016945967 -0.0008808427 0.011205494 0.05329618 0.0022211566 0.009176572 -0.0070365127 0.010804807 -0.001877952
library -0.02771212 0.020373665 -0.004136519 0.00717811 0.010494963 -0.034191284 0.024344066 0.048034478 -0.017313996 -0.007967097 -0.01896926 -0.020210981 -0.004493025 -0.004765974 0.0035493283 -0.01530963 0.022166124 -0.030172529 -0.007304041 -0.05448928 0.021941932 0.009071959 0.022981409 -0.023723265 -0.024645112 -0.0116525255 -0.029496426 0.00022931883 -0.014252686 0.018317796 0.026252335 0.0048870435 0.009711176 9.607886e-05 -0.013614155 0.028257508 -0.0070564183 -0.016920991 -0.016957574 -0.023666924 0.019715436 -0.024880605 0.004093404 -0.009031596 0.027020372 -0.014274452 -0.010221442 -0.017571973 0.02739363 0.0049022282 0.018888483 -0.0062586493 -0.0006590847 0.000503489 -0.012576355 0.016321689 0.025041597 0.009357607 -0.029827226 0.005713309 0.009256303 0.0024491067 -0.0056707175 -0.0030398683 -0.02704 0.022378216 0.014392325 0.018630883 -0.04108415 0.039686713 -0.013619065 -0.0012075283 0.01756599 -0.010143351 0.018315444 -0.003587472 0.015156932 0.013698161 -0.024644129 0.011425567 -0.009128211 0.010487333 -0.01835546 0.039721727 -0.014894491 -0.0061293254 0.011218207 0.036081195 0.024308223 0.0002975327 0.037525035 0.0076044407 -0.0077887275 0.0018247296 0.031420834 -0.00095617655 0.017635753 -0.008688574 0.017991675 -0.002031528
by -0.026225753 0.037303377 0.003992817 0.003380429 0.014122186 -0.055396646 0.027946498 0.062285494 -0.0036480566 -0.017642008 -0.013619604 -0.051506117 -0.015583964 -0.0009376709 0.010674478 -0.025825838 0.028269729 -0.03955436 -0.018731527 -0.056380842 0.011782465 0.025619587 0.019515656 -0.020587778 -0.023785824 -0.008929074 -0.04419964 -0.006564066 -0.024925783 0.008875978 0.039652172 -0.0077006677 0.0023865055 -0.018575763 -0.021743288 0.020373685 0.0036496222 -0.018665997 -0.014784069 -0.038615007 0.009545124 -0.033190142 -0.001046073 -0.016372608 0.03246827 -0.010953798 -0.03166871 -0.013426273 0.028862875 0.012183599 0.021199105 -0.023169866 0.0049923793 -0.008005746 -0.008049209 0.017229054 0.043053664 0.018702773 -0.031152474 0.029110689 0.005655737 0.0022617995 -0.003303931 -0.0021626155 -0.029469676 0.026426043 0.001618385 0.031163279 -0.04791919 0.0479742 -0.01549847 0.010445375 0.032382697 -0.021206874 0.025096508 0.00038486303 0.0006708908 0.009283069 -0.03376635 -0.0032801118 -0.020071452 0.0021584444 -0.01739715 0.045669653 -0.01243336 -0.008300398 0.017523672 0.035808485 0.04281656 0.00032841196 0.04151459 0.020445535 -0.0054384656 0.005753649 0.058079597 0.017333282 0.023748294 -0.011501527 0.008063672 -0.011118031
suspension -0.011791615 0.023598198 -0.008965292 0.0038959926 -0.0039052707 -0.043019768 0.022151876 0.056172147 -0.0053722723 -0.013333112 -0.016795581 -0.039720077 -0.00022283768 0.0110521745 0.0035763073 -0.008073564 0.027868291 -0.03045468 -0.011462838 -0.06157082 0.027935548 0.011000351 0.020332731 -0.005991058 -0.015527179 -0.012810009 -0.027913675 -0.007532754 -0.016029024 0.014165209 0.036236007 0.0042950017 0.022997681 -0.025470566 -0.017822158 0.030845817 0.00933569 -0.02229155 -0.031036498 -0.034094367 0.0064136223 -0.016815525 0.0070532365 -0.016480142 0.039097074 -0.012081415 -0.027167011 -0.018260604 0.0256645 0.01580342 0.004725545 -0.015410082 -0.007330252 -0.0052977637 -0.0039916057 0.008341635 0.025138984 0.014442503 -0.028993435 0.025026748 0.016999038 -0.0027941929 -0.0071044043 0.0032304835 -0.037462734 0.017863512 -0.0012986647 0.02286032 -0.030332582 0.05294785 -0.00769636 -0.003928788 0.029709702 -0.0029932081 0.027459173 6.491276e-05 0.009402125 0.0089945495 -0.03757151 0.00781759 -0.011839069 -0.0034009803 -0.029679282 0.043006305 -0.027104042 -0.0061507947 0.024280958 0.03192316 0.029625105 -0.0021662756 0.032335043 0.023792047 -0.010767896 0.009708546 0.039876457 0.006491951 0.0057824245 -0.025224918 0.022342684 0.0017183153
as -0.032657195 0.022640124 0.0035300297 -0.0039072633 0.015203328 -0.0536873 0.015464457 0.066639185 -0.021667961 -0.020635318 -0.023293411 -0.045005202 -0.0092456285 0.0039675045 0.020520963 -0.026885705 0.028387055 -0.042882845 -0.021079734 -0.07395481 0.017414046 0.017313853 0.015120456 -0.022366317 -0.012249902 0.002987605 -0.03624923 0.0031867116 -0.018742256 0.010155196 0.024983909 0.0070865117 -0.00018415062 -0.016199801 -0.006535123 0.028371464 0.006799983 -0.035898697 -0.018560594 -0.027231675 0.008377032 -0.034994606 0.016187666 -0.007139927 0.039354775 -0.014430909 -0.03427867 -0.0043141805 0.025121419 0.0021447425 0.025189308 -0.012637973 -0.006309049 0.0036032612 -0.015606414 0.009234784 0.041072413 0.022880493 -0.02097737 0.024165725 0.013575684 0.0028232434 -0.0020559037 0.009445296 -0.026709886 0.027592553 0.008080159 0.031690907 -0.05546997 0.057001498 -0.016641473 0.016334387 0.020335626 -0.01800165 0.024680916 0.002455254 0.012853627 0.017723542 -0.031165296 0.008339042 -0.024933536 0.0034427007 -0.032179043 0.04763389 -0.023885388 0.008909781 0.019121 0.044184815 0.03920049 0.0018240969 0.040280372 0.028275639 -0.0061834035 0.02335698 0.05903704 0.018366594 0.023480482 -0.024807166 0.011119142 -0.005671066
not -0.029682038 0.035743333 0.0074863294 0.0075676437 0.0019363813 -0.05844811 0.029414866 0.07535699 -0.0073385327 -0.01925857 -0.021020558 -0.052402265 -0.012581605 -0.013250952 0.015046531 -0.030711588 0.021703383 -0.04277563 -0.0063992376 -0.073740326 0.030236559 0.0085042305 0.015127464 -0.023764784 -0.025294518 -0.0021235726 -0.040980227 -0.007420922 -0.026638063 0.002169353 0.039471015 0.00061486557 0.015857756 -0.021892302 -0.011357586 0.022025079 0.0131637445 -0.023855753 -0.03056205 -0.02758146 0.012716114 -0.04164081 0.00976313 -0.007472221 0.033001672 -0.02444321 -0.015245515 -0.013503434 0.029216671 0.010357605 0.019911991 -0.0127062835 0.002415524 0.0080091655 -0.01956856 0.018736053 0.042160586 0.011538664 -0.040190365 0.03259342 0.021680323 0.0069295573 -0.0014085495 0.0005414529 -0.03174515 0.029247176 0.0073643094 0.03940159 -0.04813673 0.045026634 -0.019359801 0.004210922 0.03453114 -0.014937087 0.03982171 0.011996356 0.006125193 0.021359159 -0.03180831 0.0007968537 -0.021536635 0.001393297 -0.030830637 0.05004109 -0.03113725 -0.005455934 0.027032338 0.03858966 0.04271384 -0.00387646 0.042602386 0.022886494 -0.003824553 0.018000213 0.06860275 0.016370546 0.011686635 -0.019308178 0.008827235 -0.012592974
from -0.029422123 0.020576522 0.015195373 0.0023247465 0.0041555883 -0.059239496 0.011732886 0.05652532 -0.0009251549 -0.023882156 -0.013697857 -0.044231668 -0.0041835704 0.000117701136 0.016385833 -0.022432936 0.022190005 -0.03420161 -0.0055008796 -0.05730826 0.01947578 0.019717019 0.021416904 -0.030630132 -0.011192767 -0.0016796482 -0.039546568 0.0033219967 -0.019941058 0.019498318 0.028612338 0.0073173046 0.011000615 -0.016798463 -0.017878056 0.037261356 0.006391846 -0.032898374 -0.02174057 -0.03408268 0.018554658 -0.03725955 0.016431117 -0.009426613 0.045218572 -0.0092560435 -0.02763873 -0.010413153 0.024980469 -0.0033440073 0.030060302 -0.0028378763 0.009366077 -0.0058722324 -0.02055863 0.019131184 0.025316468 0.025095738 -0.025469413 0.027247151 0.018505076 0.01065136 -0.00900016 0.0014405632 -0.014154448 0.02062933 0.009529001 0.027356356 -0.040043302 0.05551813 -0.021416796 0.009467813 0.021196397 -0.009570464 0.03718423 0.012145221 0.0049658054 0.0095813675 -0.022776132 0.01383616 -0.008585926 0.0007453918 -0.024798807 0.03581632 -0.024358325 0.0034675044 0.015077348 0.028665628 0.040968306 0.009312992 0.04673389 0.01975367 -0.01723045 0.0064682662 0.05371827 0.0017480386 0.010314021 -0.013111188 0.012892256 -0.016069504
email: -0.008262901 0.006812005 -0.005974123 -0.0017238862 0.004470975 -0.030526971 0.0055648633 0.043474663 0.003233987 -0.019539516 -0.0003029011 -0.015642056 -0.014583218 -0.0034042427 0.010964086 -0.00394301 0.007900879 -0.024020877 -0.0011654905 -0.043050535 0.0054737246 0.008055735 0.01644026 -0.018345067 -0.0054525835 -0.0027709024 -0.015286809 0.0038445673 -0.007866313 0.014637957 0.016276905 -0.008794508 0.016234957 -0.011605333 -0.0023619018 0.010903122 -0.005568056 -0.021136504 -0.007499006 -0.01816673 0.010513803 -0.025898237 0.0006032693 -0.012753927 0.02911101 -0.016178094 -0.0075709303 -0.009739701 0.013998052 0.013033395 0.008413737 -0.014389313 0.0011132951 0.0065755732 0.0049475157 0.003877359 0.021049878 0.0137948245 -0.021685898 0.018916812 -0.00011956786 0.0067857597 0.00026571951 0.005146429 -0.020067153 0.017092897 0.0146509 0.025547002 -0.035513453 0.035501808 -0.0042333947 -0.000681393 0.025140436 -0.010967765 0.013438109 -0.0021709497 0.0031636253 0.007005634 -0.020608827 -0.0030245627 -0.0013782725 -0.0030098935 -0.01897804 0.030378314 -0.001887 0.0034718737 0.01134316 0.01960554 0.01616181 0.006950823 0.014407411 0.009820272 -8.445115e-05 0.006720567 0.029564505 0.010821485 0.019856233 -0.0051000854 0.018186718 -0.011041346
first -0.0076573566 0.011176401 -0.002896295 0.00052361476 -0.0024677324 -0.035175618 0.012911013 0.044274557 -0.011399677 -0.02024431 -0.011311218 -0.014964928 -0.015551247 0.010495548 0.00721423 -0.0069211368 0.008567108 -0.022049548 -0.00499701 -0.028110176 0.003684412 0.0065414375 0.01085976 -0.0057284907 -0.0043025757 -0.006141237 -0.008555337 -0.01001964 -0.012771261 0.015383411 0.021071611 -0.00868815 0.005463497 -0.0183183 -0.008773896 0.022748733 -0.004003036 -0.007653749 -0.007723966 -0.02239852 -0.001266211 -0.018239051 -0.00026723655 -0.0010281671 0.030043593 -0.007044723 -0.015133832 -0.0047786 0.007165476 0.002508773 0.00732976 0.0009807145 -0.0063153994 -0.009166744 -0.0023717007 0.0109213 0.009383481 0.0017724369 -0.015060246 0.0077057118 -0.0019729289 -0.0004282227 -0.0057115764 0.006989148 -0.015113841 0.01669528 0.0045354804 0.01299945 -0.019821115 0.027444098 -0.00058941887 0.0024248292 0.0052585094 -0.003815787 0.025970064 0.00034192877 0.001290276 0.002598974 -0.008883301 0.0020705955 0.0022684354 -0.006275966 -0.0031697073 0.012211037 -0.0019717186 0.00207741 0.013552929 0.012908346 0.02779274 0.007674153 0.0143205 0.001198072 0.003773805 0.0026751566 0.018066183 0.009109345 0.0034589516 -0.016450541 0.018269094 -0.005503507
6 -0.025052797 0.023513194 -0.0032464503 -0.0057739965 -0.003047131 -0.062224403 0.010060323 0.08006961 -0.0024624055 -0.024792805 -0.012739121 -0.05188496 -0.003331844 0.0105358865 0.015634457 -0.025140245 0.016637346 -0.026825042 -0.018394312 -0.0635645 0.03190524 0.018314132 0.011130824 -0.01207398 -0.025897374 -0.011587634 -0.022441389 -0.018843407 -0.023030141 0.010936415 0.021487635 -0.0023041216 0.02010636 -0.025253728 -0.021387175 0.039676007 0.0031638818 -0.03249731 -0.026589818 -0.03533288 0.024466103 -0.030247657 0.0121486755 -0.019595366 0.04511908 -0.0125623075 -0.023761086 -0.017173732 0.029005053 0.0065489225 0.008892576 -0.023990208 0.0005728219 -0.006022267 0.0009994009 0.014723649 0.03797969 0.016812308 -0.017570643 0.010896332 0.015942 0.006257665 -0.0030666115 -0.00031086 -0.03969654 0.038720205 0.0053915284 0.03423892 -0.051553614 0.056707487 -0.001566229 0.004905027 0.033094548 -0.009429776 0.040285934 0.021264775 0.0126655325 0.008835555 -0.043504223 0.016447866 -0.016864946 0.005836959 -0.026609518 0.05131919 -0.013014645 0.001318733 0.024302216 0.043766674 0.039947312 0.010292125 0.037784122 0.018481866 0.00010563097 0.012913461 0.04908775 0.022840131 0.006746539 -0.020728868 0.012752562 -0.0016463021
school -0.008485277 0.011958905 0.009243057 -0.00046500895 -0.0055427235 -0.03565744 0.010703094 0.03618535 -0.006782535 -0.018763306 -0.005200556 -0.014584955 -0.010607578 0.0010375598 0.008763212 -0.012286239 0.0060685426 -0.018212771 -0.0036546697 -0.031087732 0.01793511 0.0136777675 0.016043834 -0.022723673 -0.013650125 -0.008070166 -0.013998183 0.0052059847 -0.015868004 0.008462181 0.023866937 0.0019688713 0.005959302 -0.014224716 0.001276768 0.009595185 -0.0033746033 -0.022177815 -0.020295992 -0.022963798 0.001128384 -0.016952535 0.0018928639 -0.009210574 0.028449148 -0.004733325 -0.012564 -0.009861412 0.025740046 0.004247584 0.018816633 0.0015198498 -0.0095909685 -0.010591746 0.0027441208 0.011764394 0.018465439 0.015234032 -0.022049231 0.00686496 -0.0005321782 0.013897388 -0.0069317194 -0.007158739 -0.021185404 0.023396429 0.00495571 0.011982487 -0.029422011 0.028620359 -0.0142192645 0.0011282762 0.019421484 -0.0065345177 0.014413087 0.007809178 0.011110869 -0.0014015236 -0.026608733 0.009448285 -0.017870694 0.00291639 -0.023145575 0.0349334 -0.016771832 -0.0065547144 0.0119630145 0.020557143 0.0275662 0.008829117 0.023608265 0.013687819 -0.00039785932 0.00878872 0.02630073 0.0061984407 0.013030381 -0.0008498252 0.006284302 -0.014051006
day -0.0146486005 0.03404998 -0.0057091475 -0.0013088671 -0.002779289 -0.042016286 0.026278814 0.059845004 -0.0029322337 -0.011568398 -0.008876739 -0.0452706 -0.0061886166 -0.00028623844 0.010301848 -0.0101899095 0.015587958 -0.017334247 -0.013577907 -0.05593905 0.01626726 0.002846372 0.0038428572 -0.010931025 -0.025648598 -0.0010053684 -0.022761242 -0.015174608 -0.02137257 0.0048010987 0.017249964 -0.0001035579 0.021625439 -0.022643775 -0.01615281 0.036070604 0.015289033 -0.011362941 -0.032220732 -0.02448553 0.007702316 -0.018680321 0.010165701 -0.012493889 0.040911954 -0.023387015 -0.01613505 -0.0069010844 0.029707246 0.01255272 0.0123127485 -0.0099096745 -0.006462244 -0.009784461 -0.0048682825 0.003283487 0.026982553 0.014536931 -0.0138962045 0.010194364 0.009115151 0.0025527317 -0.0098713795 -0.0008478265 -0.021767583 0.019562561 0.0057874075 0.035853986 -0.039805193 0.040814567 -0.002996887 0.006481866 0.021749213 0.0009909357 0.034943245 0.012663529 0.014016601 0.0071530025 -0.019716462 0.011014137 -0.017354144 -0.002380924 -0.021638444 0.027923653 -0.015085069 -0.00999215 0.01650048 0.035080057 0.03365504 0.0060417973 0.023200618 0.021269485 0.0010015274 0.017336324 0.052516617 0.012983324 0.020965781 -0.0057406523 0.01290148 -0.007308886
you -0.015415263 0.012555604 0.010303968 -0.0054631853 0.00043579325 -0.03700379 0.021771966 0.04557266 -0.007390411 -0.016910635 -0.013658511 -0.027278328 -0.014399457 -0.0068414365 0.0100588165 -0.006998765 0.015219571 -0.013597303 -0.0077376966 -0.04406713 0.0037006345 0.016359566 0.01866918 -0.021937 -0.008885809 0.0072978227 -0.02917982 -0.0063537974 -0.021021359 0.01052109 0.015963528 0.0023535055 0.01563412 -0.015798781 -0.018992897 0.019755736 -0.005220856 -0.027563425 -0.023683993 -0.021421172 0.009368663 -0.018392991 0.00418913 0.0025999418 0.03309056 -0.0151839275 -0.0063748127 -0.018446937 0.01522305 0.0068642125 0.014542268 -0.0120159695 0.00018406693 -0.00018244589 -0.017409673 0.004880771 0.013477115 0.015057162 -0.019413052 0.0065648337 0.013786024 0.006669444 -0.0018906527 0.005949776 -0.019629847 0.025962083 -0.00021652477 0.015437458 -0.037478536 0.032740783 -0.019093262 0.012564402 0.022333635 -0.015631068 0.024732558 0.012654301 -0.0013186588 0.012850662 -0.02840109 0.012789831 -0.0044059088 0.0028034074 -0.023943223 0.026514897 -0.013303514 0.0013009493 0.022809813 0.020061957 0.012962039 -0.009801741 0.023905579 0.013912039 -0.005752074 0.0073856 0.04397095 0.006927669 0.018002242 -0.005994079 0.0032918302 -0.0064786933
(052) -0.022216799 0.007982004 -0.0020061256 0.0071205646 0.0017766367 -0.018211 0.0077355052 0.028743576 -0.0013069559 -0.008915269 -0.0098959785 -0.024436131 -0.012678358 0.0031606383 -0.001813406 -0.019528983 0.0013154027 -0.0072654765 -0.0015566754 -0.024632184 0.021351496 0.0010627806 0.014544999 -0.008921631 -0.0030890978 -0.005175124 -0.0075434 -0.008632057 -0.0015004922 0.013829377 0.01493395 0.00421078 0.0138774775 -0.0044672643 0.0010205744 0.016234765 -4.7422e-05 -0.0059144525 -0.0064274273 -0.019840593 0.009876278 -0.016363237 0.011009698 -0.011803425 0.014873972 -0.008328457 -0.0074830274 -0.015763871 0.021113092 0.00058830134 0.017497951 -0.003980475 0.0068594725 -0.0056028636 -0.0063973735 0.010004773 0.014546877 0.014397633 -0.021778563 0.01358513 0.0049542715 0.0036132126 -0.001140473 -0.0012934431 -0.019108763 0.0050692433 0.009372386 0.020912128 -0.030151587 0.038026664 -0.0043407273 -0.004486697 0.013517156 -0.0023676206 0.0070658685 0.006739613 0.012352247 0.012844743 -0.010716452 0.0059372904 -0.0103486935 -0.0044487547 -0.0032575463 0.013572096 -0.012658744 -0.0042167716 0.017030356 0.010924765 0.019427508 0.0021298218 0.014821305 -2.8030248e-05 -0.012383653 0.011653852 0.01697413 0.012098047 0.00635286 -0.015818581 0.0024940032 0.0029792264
telephone -0.011657557 0.015788712 -0.008903751 -0.0093672555 -0.0031975473 -0.016802482 -0.0012606317 0.012125133 -0.012393172 -0.008349295 0.0018132448 -0.023026148 -0.010014419 0.0009171515 0.007507014 -0.015904253 0.014535907 -0.018910326 0.0016603896 -0.010853421 0.013138476 0.01182717 0.015333789 -0.004245784 -0.01334023 0.004707321 -0.019839684 -0.007501649 0.0005391212 -0.0036143824 0.003998923 -0.0035918157 0.008323564 0.0020333563 -0.0017223024 0.014315273 -0.0019659838 -0.0040767128 -0.01472963 -0.012420129 -0.0023587926 -0.010294993 0.008918466 0.00048813055 0.0075785806 -0.003323903 0.0011170445 -0.011672605 0.0049626795 0.0020600979 0.002694322 0.005013415 0.008391522 0.009468144 0.0073131598 -0.0040635597 0.010735818 -0.0015850858 -0.01562693 -0.0017299181 0.0071269344 0.0033849275 -0.009727162 0.008629541 -0.008356701 0.008824483 0.0015577554 0.006583839 -0.01928356 0.027003273 -0.0028955005 -0.0046282206 0.014698622 -0.0034195867 0.0062620216 0.011106006 0.00020197124 0.012058523 -0.014491135 -0.00615205 -0.00942304 -0.0029229894 -0.00805325 0.012027233 -0.0017420729 0.005335525 0.005477891 0.015389958 0.008352353 0.001155261 0.010730892 0.0027737191 -0.0081112245 0.000837243 0.016985113 0.006281363 -0.0035589386 0.0020924292 0.0038149124 -0.0060630436
am -0.0273539 0.021416701 0.00059379765 -0.010720171 0.0040388783 -0.054783896 0.010875819 0.049342904 0.0004350287 -0.021099942 -0.024355775 -0.029040422 -0.020391941 -0.0039414354 0.018349284 -0.023829184 0.005255342 -0.036575418 -0.00456355 -0.044608653 0.021153985 0.017048178 0.020647148 -0.024711132 -0.0048170444 0.004696629 -0.025901642 0.0035937908 -0.02584786 0.012669032 0.034285642 0.0003637053 -0.00016465539 -0.014097071 -0.015607977 0.024186697 -0.0014002534 -0.013596197 -0.020303313 -0.022239594 0.012883299 -0.019169398 0.00053169543 -0.018739693 0.026709907 -0.01974844 -0.024699755 -0.010951613 0.023241423 0.009668679 0.025831504 -0.012444593 0.0028693804 -0.0027435732 -0.0012905146 0.019601911 0.026462007 0.01588174 -0.031070292 0.013641817 0.0032929538 0.009189365 -0.013134154 -0.0035276727 -0.021062816 0.027797766 0.00031669508 0.029364616 -0.033960156 0.05009736 -0.01843547 0.014052995 0.03240136 -0.012813918 0.026512768 -0.005748855 0.0012742464 0.009875004 -0.021155242 0.0029309262 -0.021356443 0.010122135 -0.031993866 0.047538057 -0.01101123 -0.005415979 0.019846518 0.039275132 0.02257557 -0.0076907785 0.04523553 0.015324005 0.0042384216 0.0027744798 0.040205404 0.018408993 0.012437794 -0.016854974 0.0055785547 -0.013486096
 -0.031406015 0.038411524 0.004497244 -0.008366791 0.013422682 -0.055480402 0.016971087 0.06367515 -0.008228064 -0.026494585 -0.017835326 -0.04288555 -0.0042768656 0.004045944 0.018621728 -0.024971183 0.019119184 -0.03221276 -0.020952184 -0.066618316 0.01646226 0.018944776 0.009512354 -0.026878435 -0.008937793 -0.0061805625 -0.025366977 -0.006103753 -0.02517542 0.007997499 0.028173214 0.0059225718 0.0019577027 -0.019167498 -0.020918097 0.037642743 -0.0009173907 -0.01931513 -0.023989858 -0.038306408 0.016958812 -0.031228963 0.011762678 -0.017918766 0.0281269 -0.02046676 -0.018672291 -0.017114272 0.0246462 0.012856217 0.027309297 -0.010259527 -0.0025623764 -0.003797747 -0.016166288 0.006386925 0.040808078 0.011622338 -0.03677707 0.024886794 0.019921806 0.009576751 -0.0058270204 -0.0031509008 -0.029782644 0.019690072 0.002660246 0.021555942 -0.049928136 0.059180025 -0.0074263527 0.0027079913 0.024624407 -0.005861899 0.030056367 -0.00015909424 0.009514363 0.013169057 -0.031735197 -0.0016349006 -0.003554362 0.012032134 -0.035713073 0.03734091 -0.01750002 0.002886739 0.010576384 0.044083875 0.027471988 0.0041280063 0.04970791 0.016090965 -0.0018313067 0.011397166 0.036850892 0.012917462 0.013741242 -0.026290344 0.021446638 -0.015919885
an -0.021318188 0.025881223 -0.0039025631 -0.008997316 0.01224384 -0.05838478 0.02537231 0.063958675 5.5289205e-05 -0.014052058 -0.007946502 -0.030831808 -0.02192865 -0.013510518 0.010075579 -0.019177182 0.024968468 -0.0276994 -0.015284261 -0.056289848 0.014701846 0.009502437 0.022940217 -0.032976884 -0.018794535 -0.008757439 -0.02556046 -0.009801055 -0.015935447 0.0047248024 0.039713245 -0.0055300724 0.011964329 -0.009758993 -0.004579532 0.023376798 0.00059233943 -0.032770965 -0.015470104 -0.037380118 0.021947242 -0.030836757 0.014345095 -0.015872668 0.03683087 -0.013555272 -0.031512473 -0.00488717 0.023400083 0.013701363 0.021605434 -0.007947614 0.0019372142 0.006877274 -0.020710794 0.02332389 0.04030768 0.016562697 -0.023390206 0.025056535 0.016846381 0.006486106 -0.003373092 0.00095633406 -0.018710785 0.035700064 0.0040126834 0.030137993 -0.053901855 0.046468038 -0.026763301 0.009522199 0.023711665 -0.012842201 0.035053033 0.0005200058 0.009747982 0.0097771725 -0.03493296 -0.003213656 -0.022151416 0.012337797 -0.030447766 0.047112845 -0.02353039 -0.0013684301 0.024149712 0.025743678 0.026779119 -0.0080178585 0.028802173 0.014106412 -0.011351562 0.014791705 0.052141797 0.0031810862 0.013792732 -0.018558243 0.008764619 -0.013188362
dismissal -0.01259232 0.0040588607 -0.00791002 -0.008242234 0.0045748744 -0.03216921 0.004370145 0.037025925 0.0031959354 -0.015813073 -0.00015586622 -0.026645709 -0.0045986916 0.007892267 0.003262317 0.001696114 0.008569105 -0.00863903 0.0005244235 -0.0375061 0.0025492306 -0.0019403154 0.0058416463 -0.015473113 -0.009620294 -0.01056864 -0.01252736 -0.0046092817 -0.002149176 -0.003467648 0.010293397 0.006256608 0.015420583 -0.009717085 -0.005678616 0.007766553 0.0037049418 -0.018669983 -0.019184308 -0.013260347 0.0073654004 -0.006865276 -0.008175114 -0.00239664 0.019301321 -0.013090196 -0.010578511 0.0004784697 0.00502901 0.0035969007 0.011304708 -0.005504496 0.0026917867 0.0058978363 0.0025892418 0.010277445 0.022479719 -0.0011504084 -0.003683133 0.012961674 0.00012463928 -0.0009231362 0.0042439536 0.005941246 -0.024011862 0.013684594 0.0028748715 0.014570949 -0.012267928 0.01515894 0.004404703 -0.007774715 0.018060349 0.0058897473 0.009932004 -0.0052170837 0.011867131 -0.004584095 -0.022903152 0.0015207067 -0.012587996 0.010263342 -0.0024550902 0.01894236 -0.00087205914 0.010190478 0.014215455 0.020110592 0.021797203 0.008048307 0.021535603 0.015161571 -0.009920139 0.01603412 0.030077554 0.01536657 -0.0024676502 -0.010849967 0.00764696 0.0013432623
campus -0.022699764 0.016672129 0.009173055 0.009449643 -0.0003193531 -0.02743057 0.018127292 0.03443727 -0.0037987924 -0.022067757 -0.009647835 -0.01649217 -0.0029204518 -0.0122762015 0.0026041807 -0.0066187973 0.013541406 -0.022424983 5.797401e-07 -0.030555554 0.0021693686 0.018863745 0.0014555255 -0.016263077 -0.0010296928 -0.0012546591 -0.024137016 -0.002411608 -0.014530865 -0.0006266354 0.009261409 0.005513489 -0.004338475 -0.0022128366 -0.014182554 0.020019352 -0.0019025934 -0.02027832 -0.00511961 -0.026672514 0.011280854 -0.018010862 -0.0020936783 -0.013984818 0.027012078 -0.012370604 -0.007691572 -0.017736347 0.016081717 0.001963814 0.006262891 -0.009706836 -0.009007501 -0.0049629654 -0.009646525 0.005502613 0.013411647 -0.00012443076 -0.009497353 0.010313818 0.0129502565 0.009305446 0.0052880077 -0.003022162 -0.023652801 0.017226059 -0.0030973244 0.02155145 -0.016002363 0.027612885 -0.0019028939 0.011615921 0.01792593 -0.0013972861 0.025583038 0.0058786497 -0.0028019345 -0.0012577992 -0.017725948 0.002234247 0.0015497509 -0.0074230223 -0.014964868 0.032985248 -0.012340676 -0.009554485 0.013875016 0.013623216 0.011938881 -0.0064838533 0.021866592 0.01758376 -8.8389934e-05 0.015649784 0.03680676 0.010230382 0.0037939618 -0.00092087954 -0.00045138286 -0.0079621095
time -0.0093167545 0.027684877 -0.0019175137 -0.008202665 0.011932025 -0.037746143 0.008838752 0.04958021 -0.0010890912 -0.01076451 -0.012990793 -0.016124193 -0.0002031898 0.004494682 0.018989822 -0.017481955 0.014727469 -0.02152697 -0.0015672635 -0.0298627 0.016748447 0.014466533 0.017967219 -0.008982285 -0.012548121 -0.010582699 -0.024028666 0.0055915345 -0.01748935 0.008880045 0.024702141 -0.006725864 0.0139878625 -0.006575718 -0.007282652 0.025941875 0.0045879316 -0.016306084 -0.023621628 -0.010304415 0.00060298416 -0.00997126 0.010725788 -0.007349418 0.015655534 0.0005817586 -0.015757283 -0.0038616857 0.013698845 -0.00062307913 0.014472504 -0.01633238 -0.007074886 -0.011482723 -0.002555544 0.0098705385 0.020252554 0.016199803 -0.01980482 0.00618359 0.0104945665 0.00064351334 -0.0033426385 0.010713206 -0.01664148 0.024505548 0.012189054 0.015029176 -0.034473624 0.04043443 -0.009412043 0.0029508388 0.016744377 -0.013025497 0.022338787 0.00212862 0.010458846 0.0040126033 -0.020056283 0.00690806 -0.015884649 -0.0002968506 -0.023591135 0.029183269 -0.010610415 0.0023104728 0.014832092 0.022499032 0.022750875 -0.0012152713 0.03122586 0.009007754 -0.010251333 0.0033633749 0.023359671 -0.0012668216 0.013895981 -0.005864072 0.004485172 -0.014107853
may -0.028498344 0.029580092 -0.004809203 0.0048595485 0.010963628 -0.037726615 0.009080819 0.056857668 -0.014090909 -0.008134247 -0.01925514 -0.034738623 -0.0061077327 -0.004459204 0.018250162 -0.019940078 0.021443548 -0.035861813 -0.0043400032 -0.05250418 0.008997448 0.013065886 0.01352941 -0.019633215 -0.01855175 -0.012049651 -0.035522174 -0.01143198 -0.024062207 0.0047849976 0.033851914 -0.0015954543 -0.001162532 -0.01592714 -0.0074544353 0.02104882 0.0023822016 -0.02634822 -0.011766143 -0.03437469 0.006270539 -0.016916826 -0.001112048 -0.005952327 0.03087493 -0.00071032747 -0.014181051 -0.009013301 0.024074446 0.008462545 0.01999533 -0.013604257 0.004642773 0.004844094 -0.0013171682 0.011058433 0.025045002 0.019882225 -0.031224038 0.017071072 0.0031011673 0.0127808405 -0.014909562 0.0032694442 -0.0104586985 0.02060884 0.00059511286 0.016272612 -0.03421663 0.034004204 -0.007945668 0.003788789 0.028725313 -0.010632967 0.016888361 0.0019225382 0.008080774 0.005217297 -0.018867228 8.636688e-05 -0.017350469 0.0046388283 -0.023920033 0.025958583 -0.021182 -0.0018500015 0.01781646 0.03234701 0.0341738 0.0067651146 0.037377212 0.015725655 -0.012444404 0.020652302 0.042525154 0.0138704805 0.0133362785 -0.0075415014 0.018265052 -0.012984758
academic -0.023128524 0.022653818 0.00699608 -0.009500599 0.009136034 -0.035530183 0.014448107 0.044619303 -0.015142949 -0.008019356 -0.021840183 -0.03658396 -0.005855406 -0.01210104 0.008480677 -0.016036434 0.0131010935 -0.03020838 -0.004930626 -0.043995522 0.016927747 0.010260646 0.019877844 -0.027488807 -0.008865345 -0.007311059 -0.023482367 -0.010868413 -0.015984045 0.0015287978 0.018473502 0.010445987 0.008150157 -0.0074190185 -0.016550325 0.02592355 -0.0046639265 -0.021761576 -0.02218464 -0.030114785 0.014749414 -0.02527104 0.008350377 -0.0036210278 0.020703414 -0.011477755 -0.019476486 -0.020077689 0.008722515 0.0061606085 0.021081708 -0.009060926 -0.004594578 0.0025132683 -0.0076280525 0.001095014 0.031324968 0.020414226 -0.028855987 0.015255197 0.015440262 0.004730572 -0.0052530584 -0.0040530446 -0.010342603 0.02715474 0.010653423 0.017153202 -0.034770105 0.031140078 -0.023033364 0.0124026155 0.017831517 -0.009954898 0.027931886 -0.0026815364 0.012262874 0.0014489313 -0.028324258 0.008111403 -0.014562932 -0.0006549435 -0.023001876 0.02656123 -0.017043766 -0.0039259717 0.025589852 0.03515028 0.023733806 -0.00063271594 0.022477945 0.021444146 -0.011305608 0.016476402 0.048078936 0.014253377 0.012055288 -0.005729876 0.0181615 -0.009069373
grade -0.012682559 0.021276647 0.009504376 -0.00041400272 0.0052539613 -0.03304224 0.0005598291 0.02813181 -0.010179986 -0.010224105 -0.012555596 -0.019719575 0.0007070444 0.008334464 0.015149878 -0.0061123646 0.007920044 -0.012956282 -0.008772083 -0.039279662 0.016222175 -0.0006678099 0.012379092 -0.015903277 -0.015709845 -0.002884964 -0.023529697 0.006362766 -0.01615092 -0.0039649424 0.020755114 0.0046975906 0.008712954 -0.0036866008 -0.0105975885 0.007855424 0.0044709453 -0.005106568 -0.016854193 -0.018168936 0.010084102 -0.0073032933 -0.0012883896 -0.010265646 0.015638033 -0.005317771 -0.0061837723 -0.0012978655 0.0034084937 0.010244873 0.008370935 -0.008768907 -0.009170968 -0.0067347237 0.0038092718 0.010214795 0.008241095 0.011013381 -0.021078449 0.001388378 0.010156918 0.0072058034 -0.0019884822 0.009776381 -0.0052029965 0.008321647 0.008382541 0.01660733 -0.019549938 0.03235984 -0.015637197 0.00035843227 0.013220898 0.0001930641 0.013669781 0.0122533515 0.0001556411 -0.003123391 -0.022150677 -0.0019287616 0.002646298 -0.0030548982 -0.016093979 0.029155143 -0.017571418 0.0023321132 0.016736127 0.009619015 0.015546531 -0.0028145758 0.024551068 0.0041338424 -0.011280519 0.017038586 0.021494158 0.013283829 -1.7450839e-05 -5.0915827e-05 0.004195683 -0.011368256
who -0.021973433 0.020916486 0.0027968378 -0.00092740037 -0.002071466 -0.045062076 0.012511077 0.05880339 -0.001607313 -0.017435562 -0.019127537 -0.025465192 -0.01998369 -0.0013574852 0.016158411 -0.016318686 0.010771438 -0.032894354 -0.01803198 -0.040459476 0.018014435 0.012419915 0.023434518 -0.026787598 -0.014331776 -0.0032712833 -0.03392317 -0.013356357 -0.0073936363 0.004713108 0.015183548 0.00844247 0.00013112497 -0.012453531 -0.009309754 0.0184984 -0.0044987956 -0.02439576 -0.025844425 -0.023810348 0.008801919 -0.023190344 0.008801159 -0.010177093 0.037800442 -0.0028849575 -0.018129561 -0.010754229 0.020714391 0.012288377 0.025473468 -0.012176484 -0.00093268446 -0.004578453 -0.009427266 0.004288454 0.023273716 0.0040211338 -0.020676225 0.017922038 0.013486215 0.004433794 0.0004992282 -0.0070745517 -0.00797281 0.021749048 0.011311369 0.027972385 -0.03451648 0.040046893 -0.012345952 -0.0052451245 0.01628399 -0.012176262 0.013112857 0.010424678 0.011634126 0.0073540793 -0.016462507 0.0021067844 -0.011384989 0.009482543 -0.02650578 0.026158512 -0.008164587 -0.0063998294 0.025588317 0.032368794 0.017097544 0.008326006 0.035917014 0.007999452 -0.015350097 0.0019662634 0.04455579 0.015520252 0.0118699875 -0.010771404 0.0036785644 -0.010538677
months -0.014779597 0.0143489605 -0.008363413 -0.0002544528 -0.006600031 -0.055885784 0.020637814 0.068377644 -0.015351533 -0.009880802 -0.0033398867 -0.032786783 -0.013908217 0.011679017 0.00433525 -0.019386094 0.018808538 -0.035372637 -0.023267535 -0.053492576 0.027381774 0.0056385016 0.009317468 -0.0112938 -0.018443957 -0.01315569 -0.01844673 -0.011265168 -0.015008444 0.014294651 0.03547827 0.008488168 0.019504078 -0.025434462 -0.0102629885 0.027089214 0.006675397 -0.011327153 -0.018385984 -0.039078526 0.02437771 -0.02662134 0.002959831 -0.0034377114 0.028420992 -0.017340085 -0.019545054 -0.00421143 0.028605135 0.0041962164 0.0052808444 -0.018762976 0.008795406 -0.013069697 0.0027433273 0.012777187 0.025495488 0.022265382 -0.011793889 0.02620067 0.021303283 -0.0037912251 0.0039305887 -0.009957095 -0.035656556 0.014999672 0.00985054 0.034439936 -0.044257395 0.041777052 -0.012919901 0.00031933506 0.020903291 -0.0027463404 0.030213103 0.006134957 0.0072375126 0.0058342814 -0.031777274 0.0096245725 -0.001955612 0.012445617 -0.028586328 0.02924103 -0.028197596 -0.0067789378 0.021987054 0.025347583 0.032644704 0.012530673 0.035578854 0.019229079 0.004877103 0.02052746 0.043023683 0.0045850454 0.012281277 -0.00723215 0.020971922 -0.010585303
pm -0.015149109 0.03227437 0.012351194 -0.0054865857 0.010195086 -0.05426472 0.008330106 0.07215119 -0.0219941 -0.029656619 -0.016078057 -0.03241186 -0.015960043 0.005066498 0.024237728 -0.01493152 0.009547282 -0.029338572 -0.023786524 -0.06797165 0.026042951 0.008753771 0.02417168 -0.026756706 -0.017147684 -0.010279224 -0.041596092 -0.009618385 -0.011818872 0.019247161 0.019396698 -0.0053656613 0.011869399 -0.022907011 -0.00812286 0.038876653 -0.00918865 -0.01563026 -0.015257328 -0.03406627 0.021367285 -0.03863206 0.015615947 -0.0013035539 0.040295884 -0.022970831 -0.017840689 -0.01723367 0.021329751 0.015666619 0.026336618 -0.008522947 -0.0069068135 0.0004446864 -0.014620617 0.012862273 0.03996768 0.020572316 -0.020763999 0.017338151 0.015690902 0.018721348 -0.013090909 0.0062822024 -0.036967162 0.03982289 0.015032472 0.038839016 -0.039944325 0.05784619 -0.021597603 -0.0027454724 0.023121694 -0.012976141 0.027019205 -0.004604629 0.00039087757 0.020668183 -0.018845068 0.009244836 -0.018441204 0.0052780374 -0.037860293 0.0523552 -0.018678991 0.010665954 0.0140591385 0.033042926 0.038089924 0.0026035416 0.03558155 0.007883316 -0.0045388355 0.006149412 0.054080583 0.019433925 0.0106139 -0.022857327 0.0059948605 -0.011022115
no.: -0.004633691 0.012057055 -0.007276705 0.00965473 -0.0067885946 -0.017201858 0.015518463 0.03064688 -0.014309862 -0.0027756137 -0.0167126 -0.024047682 0.005184757 -0.009737504 -0.0030372713 -0.01417881 0.012903804 -0.01091584 -0.010895913 -0.031732272 0.018172545 0.01741826 0.019368106 -0.0095566455 -0.0032759814 -3.3921046e-06 -0.012750942 0.0035377166 -0.00520659 0.006053971 0.0099233575 -0.0077450434 0.014715562 -0.01188835 -0.0026319935 0.01077983 -0.0031971189 -0.016956046 -0.0062390273 -0.020100879 -0.0007426535 -0.016969219 0.010077042 0.0012064452 0.014742048 0.0019180437 -0.018310344 -0.012664316 0.0025839424 -0.0030369852 0.01767677 -0.016509399 -0.009719771 -0.01173532 0.007016349 0.002957993 0.015909392 0.0009507349 -0.015950814 0.010101704 0.0016053361 -0.004492284 -0.009662214 0.0036462466 -0.023018355 0.01301324 0.003770882 0.022247061 -0.021376405 0.03137424 -0.0149865225 -0.0073388563 0.018975915 -0.004721135 0.0064398632 0.00084942597 0.015730618 -0.004645379 -0.017380709 0.0030704741 -0.0064156135 0.011730867 -0.012218599 0.010157692 -0.017830355 -0.011162895 0.00021027829 0.008338559 0.0074236416 -0.0012137877 0.015876511 0.0022347914 -0.0009357977 0.011553734 0.03280984 0.00064950314 0.013559619 0.0017236916 0.0027302555 -0.012418567
offenses -0.011105976 0.0013456572 0.008406058 0.009025372 0.010159941 -0.02358917 0.010964209 0.023558438 0.003129126 -0.014917858 -0.0051055807 -0.017554993 -0.012886045 0.0016234438 0.014012235 0.0015558825 -0.00081594416 -0.006413341 -0.0072675757 -0.006901338 -0.0037193072 0.013948584 -0.0016778726 -0.013786099 -0.003748766 -0.001957493 -0.018080816 -0.002400804 -0.005470944 -0.0032597852 0.014465913 0.0038419953 0.010562669 0.0043094284 -0.011027197 0.011847276 0.007080079 -0.0017072959 -0.0010198184 -0.013753339 0.009030113 -0.00689471 0.0028364419 -0.009800762 0.01175152 0.0010187153 -0.0155891385 0.004700504 0.009984421 0.0019932094 0.0030545334 -0.0025455484 0.006264874 0.0041466774 -0.009411563 0.011862547 0.008696357 -0.0035775348 0.0012914235 0.011301638 0.0069793146 0.010915544 -0.009390803 -0.005332087 -0.008614244 0.0037202951 0.0017542563 0.0068424568 -0.020652251 0.015312712 -0.0023977102 0.000484873 0.011682326 -0.001929232 0.014263805 0.00018306417 0.011810842 0.002124346 -0.0049745515 -0.0024771253 0.00219431 0.00434636 -0.0059382347 0.020630438 -0.013309106 0.009905479 0.006960043 0.007513554 0.004443882 -0.00967523 0.00915706 0.0077648982 0.004417159 0.012960154 0.005207009 0.012057077 -0.003623233 2.296114e-05 0.012589342 -0.004185273
on -0.031325977 0.017833939 0.0066504455 -0.001086042 -0.004446597 -0.04340685 0.019409882 0.06189712 -0.0041475743 -0.015374884 -0.025893219 -0.028339155 -0.008102798 -0.011379072 0.011715296 -0.015306281 0.01677275 -0.028282994 -0.016919382 -0.05418614 0.020166116 0.013857605 0.016253402 -0.018611316 -0.021257417 -0.010729717 -0.020394368 -0.014573798 -0.018930612 0.009085737 0.018041106 0.0021449246 0.01533159 -0.012371776 -0.0042578336 0.025045637 -0.0025797852 -0.025270272 -0.01956002 -0.0212741 0.022498133 -0.019830713 0.0011307541 -0.016036192 0.038033772 -0.008631092 -0.014714407 -0.011934731 0.02979214 -0.00292041 0.029056763 -0.020076009 -0.0022286735 0.004370774 -0.019506749 0.017154036 0.021484584 0.0077721654 -0.02203335 0.020643821 0.007409075 0.01704238 -0.012925466 0.0014638938 -0.012150028 0.026583107 0.0032959674 0.029406613 -0.044268012 0.04333611 -0.012642861 0.012437752 0.029402994 -0.016067013 0.03457654 0.0013420372 0.015348856 0.0025093097 -0.03448644 0.0026353959 -0.020658774 0.00047205787 -0.020798108 0.036853958 -0.027672367 -0.0062351003 0.010467665 0.030142937 0.033606153 -0.0007302685 0.04367014 0.011771456 0.0012958946 0.018518414 0.053242605 0.009845881 0.014973576 -0.01153982 0.003659589 0.0029637075
open -0.015748087 0.022789292 0.0046910834 0.0027942637 0.001701162 -0.03650311 0.011480668 0.035342615 -0.015390989 -0.015458597 -0.011794671 -0.023981893 -0.002443592 0.00038297215 0.011750311 -0.015656598 0.0042784363 -0.010615857 0.00096678856 -0.025268737 0.013933811 0.0005119361 0.01709652 -0.018893959 -0.0178645 0.0067679966 -0.019120032 -0.012768369 -0.01293122 0.012274846 0.012234309 0.0057458845 0.0049713748 -0.0015992596 -0.0058792164 0.004320385 -0.0019698234 -0.004107917 -0.00958299 -0.021846019 0.015154993 -0.006737446 0.012099013 -0.0053758295 0.008755354 -0.010633031 -0.0056073815 -0.014058441 0.02289262 -0.0066319983 0.0024074025 -0.01189415 0.0062736715 -0.009428959 0.0028310576 -0.0028901468 0.019677479 0.0118009485 -0.013765686 0.020259202 0.011305584 0.0057727257 0.0015126094 0.0071327076 -0.009560765 0.023927512 0.004355176 0.0057520587 -0.027167685 0.022913577 -0.01592184 0.0010461822 0.020461064 -0.011380193 0.020002553 0.008543687 0.0046011815 0.0076340814 -0.008147396 -0.0045199785 -0.0026817757 0.011359959 -0.015428286 0.013360651 -0.019369353 -0.009649857 0.014849125 0.022937179 0.023046518 -0.0017407074 0.020431962 0.012552705 -0.013945168 -0.0028024844 0.029946188 -0.0036607604 0.005762407 -0.012042203 0.014430909 -0.0068261162
subject -0.007146391 0.019845998 -0.001681165 -0.0037521184 0.0047627143 -0.039927185 0.020565188 0.051817518 -0.002020632 -0.021294914 -0.017963536 -0.025569461 -0.009905021 -0.007716672 0.017800897 -0.005587831 0.008864877 -0.017968848 -0.0032503337 -0.03724879 0.020507386 0.009004609 0.00463572 -0.015597998 -0.021306062 0.0074880687 -0.029983295 -0.005486718 -0.0154393315 0.010691979 0.024676692 -0.008085444 0.0009984411 -0.0076399054 -0.0048968554 0.023530412 0.0016888418 -0.017635772 -0.022063266 -0.016229535 0.0028176885 -0.015843168 0.0016205484 -0.015014792 0.030858954 -0.009592547 -0.024596117 -0.018090678 0.017209653 -0.0040706163 0.017576644 -0.0049505327 0.0033965253 -0.007325058 0.00057825935 0.00037468228 0.028480645 0.010181526 -0.019219492 0.017907953 0.005664912 0.0017721468 -0.006435923 -0.006183282 -0.016234888 0.012265978 0.011897914 0.009432116 -0.03349633 0.022015268 -0.020621954 0.0027071394 0.007825242 -0.013656793 0.021469377 0.004192175 0.009490853 0.016305117 -0.02979856 0.009358426 -0.017254574 0.009385075 -0.007191085 0.035892352 -0.021137174 0.0031767483 0.006318778 0.020925963 0.015356361 -0.00898839 0.029880341 0.016501334 -0.009409156 0.0012533586 0.037175026 0.0034295137 0.0025175062 -0.014223704 0.007826541 0.0044101286
other -0.028177943 0.03131596 0.010575067 -0.004682076 0.002638321 -0.045055196 0.019737767 0.052355595 -0.010491105 -0.026213352 -0.0075280718 -0.041570343 -0.019737566 -0.0018590875 0.01506398 -0.014433316 0.016971393 -0.022110779 -0.008299481 -0.041235365 0.010830977 0.005379827 0.006466044 -0.010673608 -0.0140001075 -0.008550599 -0.020176621 0.0042502433 -0.0067110574 0.002352962 0.019248601 -0.0018082971 0.00014450721 -0.0048779654 -0.0055981628 0.01614854 0.010997072 -0.029591689 -0.011142893 -0.030082867 0.015425658 -0.027062755 0.009768598 -0.0009295824 0.027979437 -0.01591308 -0.02700898 -0.007130944 0.024807857 0.011891629 0.0130953975 -0.020011675 0.00678414 -0.006265193 -0.0049794326 0.019607106 0.022123529 0.014716657 -0.02607377 0.010403374 0.0038759892 0.0078580985 -0.012852547 -0.0016689213 -0.021676436 0.02821453 0.010784869 0.030210836 -0.03222619 0.035162233 -0.01891751 0.013792662 0.027358564 -0.018837996 0.027791608 0.015671514 0.016567646 0.0016363198 -0.027029835 0.004535034 -0.00821268 0.0015034367 -0.022665776 0.04002644 -0.00896031 -0.00039594487 0.011078481 0.023109104 0.02100191 0.004178688 0.030508645 0.012629841 -0.015713299 0.010167419 0.048391547 0.015648285 0.018307362 -0.0148825515 0.02182639 -0.0051745954
admission -0.009465681 0.017630316 -0.0044795177 0.0068478626 0.012101274 -0.016540978 0.0114079425 0.029732386 -0.0055783703 -0.016707556 -0.005237915 -0.0140053965 -0.012420329 0.000732929 0.010859778 -0.014232409 0.0109471325 -0.004114648 -0.0136202 -0.019774612 -0.0017351847 -0.0020969112 0.014127331 -0.016854603 -0.008991283 -0.010026508 -0.020692978 -0.009254278 -0.0065704663 0.005963263 0.003735745 -0.0077941637 1.4667732e-05 -0.0067668185 -0.011596273 0.006093598 0.0057164263 -0.0075074444 -0.0018285824 -0.0080240695 0.005759525 -0.008804627 0.0127570825 -0.0023972206 0.016107667 -0.004631685 -0.018354258 2.915262e-05 0.014781671 0.00265283 0.017809743 -0.010518667 0.0034443256 -0.008347632 -0.013682767 0.0075652837 0.01744725 0.012158252 -0.01977098 0.01243055 0.0074828537 0.008076606 -0.0031927256 0.0056862975 -0.0016114404 0.0015383714 -0.0051525636 0.018458337 -0.018051052 0.009043501 -0.010644567 0.0034106972 0.018395344 -0.0063439026 0.009884248 -0.0040855696 -0.0040237233 0.0063214917 -0.0122357495 -0.0060964935 -0.004675719 -0.007582412 -0.011192324 0.020477021 -0.00663167 0.007833525 0.01506301 0.012140477 0.017331729 0.0059585217 0.023492195 0.016153516 0.0016512848 0.010247474 0.027172511 0.0028973783 0.0011624617 0.0032329387 0.0073537095 -0.007651857
(no -0.022775253 0.020141654 0.015473633 0.003633447 0.008841752 -0.039537877 0.023861725 0.052064795 -0.01690068 -0.02371022 -0.020120742 -0.04560964 -0.012258703 -0.010337448 0.026176807 -0.020041067 0.007166218 -0.03840527 -0.017115671 -0.06406164 0.018299475 0.020649035 0.012431681 -0.011668208 -0.016465303 -0.009882706 -0.033430856 -0.009633809 -0.02511116 0.0019317237 0.020409264 -0.00016669462 0.012036601 -0.0202929 -0.0182861 0.028605256 -0.0021399902 -0.016934412 -0.022132857 -0.02215662 0.024805462 -0.037075795 0.011587873 -0.0025155218 0.030079328 -0.004988007 -0.025058055 -0.016445773 0.011638628 0.018094707 0.011042298 -0.014469067 -0.00024213828 -0.009817503 0.000991911 0.0034496475 0.019726632 0.023805212 -0.033098087 0.028728742 0.0058490043 0.015100824 -0.008586766 -0.003947431 -0.031571936 0.018926885 0.0161074 0.034245644 -0.038882997 0.05308543 -0.011351996 0.00751636 0.024442382 -0.023342473 0.035843313 -0.0053792973 0.0031685482 0.0111580705 -0.018771151 -0.0073524583 -0.009711877 0.010147649 -0.03414014 0.04856651 -0.022024168 0.012230457 0.0091761 0.037836656 0.03939003 -0.010781376 0.03667245 0.0036613364 0.0031759879 0.023484576 0.033641014 0.012616256 0.0104311425 -0.022785496 0.013402143 -0.017930122
noon -0.017056962 0.01529235 0.011930792 0.008186044 0.0014820495 -0.046840437 0.0034024017 0.057370283 -0.0066033322 -0.008942497 -0.010608001 -0.034689806 -0.0072112735 0.007394672 0.024448548 -0.0063667237 0.0033207333 -0.034916684 -0.0043674097 -0.05749951 0.019185068 0.021799756 0.01109101 -0.010518529 -0.022411969 0.0052137333 -0.021412095 -0.001753694 -0.024181534 0.020745467 0.031145507 -0.001359891 0.011042446 -0.004376907 -0.013383204 0.030989015 -0.003787979 -0.020074505 -0.019125205 -0.028941717 0.014663974 -0.03429072 0.010604527 0.0021200513 0.0337537 -0.003692443 -0.022724407 -0.005713054 0.012013452 0.0020100262 0.029599443 -0.0030085705 -0.005625888 -0.009927418 -0.0006977964 0.012938116 0.033395622 0.00575527 -0.022701956 0.015874846 0.008618288 0.010969502 -0.014469667 0.005762382 -0.024388585 0.03202306 0.007278888 0.035019103 -0.036209892 0.04739809 -0.022477522 -0.0072744098 0.01973592 -0.014223897 0.034247942 0.008043754 -0.0008510382 0.016732385 -0.02176453 -0.007580822 -0.004744344 0.001206345 -0.032869585 0.044506665 -0.0070561618 0.011357453 0.015124669 0.03644173 0.03258153 -0.007911196 0.04300174 0.007503305 -0.014972821 0.021196052 0.031299427 0.019333543 0.0027208624 -0.0032641063 0.004842942 -0.002352657
8:00 -0.007293913 0.025047407 0.0022915434 -0.005065539 -0.0057117655 -0.03265467 0.019894842 0.040133342 -0.0022453193 -0.008684157 -0.022396792 -0.025820317 -0.016116068 -0.006302759 0.0135863805 -0.020648604 0.0069050235 -0.03088041 -0.017624471 -0.05001542 0.023658184 0.020566912 0.012059379 -0.019171035 -0.005178551 1.6079883e-05 -0.033329822 -0.011659019 -0.012248094 0.017895695 0.022596627 0.011673007 0.012571612 -0.008845202 -0.0013332375 0.031522237 0.008855952 -0.006762123 -0.025457155 -0.017959788 0.0052199685 -0.030181434 -0.0026400755 -0.0035382973 0.024946982 -0.015688846 -0.009841746 -0.001384976 0.020809293 0.014223381 0.01196824 -0.015598008 0.0038573048 -0.0055502756 -0.015371959 0.013294706 0.018625999 0.0058975704 -0.016841706 0.022242367 0.014685463 0.0075829243 0.0029807917 0.003704158 -0.011315778 0.019110378 0.009511396 0.02767813 -0.04123817 0.042423956 -0.010821065 0.009121184 0.01604912 -0.013134067 0.014789864 -0.0005043818 0.0019724802 0.002300266 -0.018918948 0.0102224955 -0.004006793 -0.0047951695 -0.027308155 0.027642282 -0.009248839 -0.007655512 0.019312495 0.02757319 0.020465257 0.008706159 0.036918305 0.011233377 0.0006349585 0.00102888 0.023107912 0.0055926754 0.019904008 -0.008197738 0.016010042 -0.012954919
activities -0.0127023375 0.020118635 0.00218841 -0.0032362898 0.008706086 -0.044208895 0.018997932 0.04811957 -0.009321765 -0.018114453 -0.01915835 -0.031797957 -0.014114082 0.00018861928 0.005533142 -0.013549359 0.004122082 -0.024345923 -0.00909673 -0.04784669 0.015366047 0.020368967 0.016362485 -0.012316029 -0.017729267 -0.00367767 -0.018896405 -0.0027272145 -0.0037581346 0.0065529193 0.026842814 0.0064177425 0.00868825 -0.0010026565 -0.014177811 0.014882289 0.009951822 -0.0081323525 -0.010406504 -0.025986617 0.018505253 -0.016650239 0.003960804 0.003266434 0.027562732 -0.0055788695 -0.014799416 -0.01726128 0.013401618 0.0071049747 0.008243727 -0.0015076234 0.008148932 -0.010658342 -0.013733591 0.0032874784 0.020457832 0.008266807 -0.02015776 0.011689564 0.011984437 0.016025638 -0.008705265 -0.008316628 -0.012402353 0.011865138 0.0139209945 0.022301361 -0.0377032 0.023472955 -0.020485159 0.006413581 0.019107552 -0.005213803 0.019044504 0.007329375 0.008731273 0.007467946 -0.027893363 0.0023937076 -0.0054587326 -0.00011738728 -0.017126331 0.025594505 -0.0054471586 -0.003344956 0.023541939 0.019187951 0.011183176 -0.006729751 0.020701164 0.013621875 0.0008659322 0.011212599 0.043325778 0.008500604 0.016981492 -0.010595775 0.008329182 0.0017263629
that -0.020009553 0.033285294 -0.0038625665 -0.009186552 0.0040289885 -0.04593024 0.014228116 0.053448893 -0.01337478 -0.025081746 -0.0062982654 -0.035945818 -0.0144007495 -0.0049501513 0.011931653 -0.02459287 0.014691462 -0.027252195 -0.0019376284 -0.058903873 0.010343908 0.011410734 0.017929586 -0.025193395 -0.022545403 -0.010329706 -0.021966925 -0.01309543 -0.018640362 0.009158314 0.02646922 -0.0102054905 0.015485325 -0.012723514 -0.0111357225 0.014441182 -0.0035071287 -0.018007958 -0.013475583 -0.023215383 0.019426461 -0.031156546 0.00492525 -0.011097865 0.02921145 -0.0063833967 -0.017042369 -0.018196026 0.023986634 0.011628812 0.012263122 -0.007382302 -0.0045937677 0.006891302 -0.0063165473 0.013955213 0.025781242 0.0046908627 -0.014400459 0.015748942 0.017683925 0.012052493 -0.013261644 -0.00016785653 -0.016976729 0.020315012 0.019210555 0.019986711 -0.044497818 0.04364704 -0.017969454 -0.0020043794 0.022492966 -0.0048368126 0.017946057 0.002742867 -0.00031552845 0.011986893 -0.030272085 0.012158477 -0.010807171 0.0044269003 -0.022308385 0.042182952 -0.016491152 -0.008399545 0.010256261 0.028492134 0.0348285 0.0030842137 0.026067248 0.008118981 -0.016282067 0.015633147 0.033831164 0.012467075 0.016135538 -0.013917036 0.002574268 0.00035838905
break) -0.019168794 0.012148945 -0.0023681184 0.00917674 0.0058552227 -0.04954723 0.012748083 0.05649048 -0.019104155 -0.0251911 -0.015310899 -0.041557875 -0.010278992 0.000417741 0.02320183 -0.013457466 0.013220169 -0.021197887 -0.016121794 -0.040471315 0.015839914 0.011967981 0.0039676568 -0.017087368 -0.006034424 -0.00014329713 -0.035293147 -0.008600624 -0.021789392 0.016564388 0.014899608 0.0061918 0.00089476234 -0.018117623 -0.019680196 0.028094996 -0.009246268 -0.02373313 -0.024877425 -0.028440176 0.010880456 -0.023592845 0.013738903 -0.008464077 0.021845601 -0.008835002 -0.011616369 -0.01641168 0.012123872 0.013041187 0.02464988 -0.018216457 0.0086043645 -0.014314283 -0.015743418 0.003214462 0.026627975 0.013095518 -0.018270347 0.023547908 0.013469049 0.0052034087 -0.013707628 -0.0077383127 -0.021468556 0.032774955 0.00054478657 0.028367573 -0.029580748 0.036323134 -0.020798609 -0.0029925888 0.013754403 -0.01873669 0.029054318 -0.005430228 0.0023723503 0.013478069 -0.021093907 -0.006104931 -0.015588577 0.0071654553 -0.019629054 0.032017957 -0.01554174 0.0047839456 0.015773652 0.024394747 0.031599086 -0.008977836 0.038723655 0.00013165548 -0.0068212408 0.018765818 0.03255433 0.01711004 0.017032987 -0.020612579 0.010635797 -0.011355401
requirements -0.018642493 0.010090724 0.008755146 0.008596276 -0.0032460175 -0.02255751 0.0015228954 0.025849126 -0.00081692054 -0.018249385 -0.0040086713 -0.02388454 -0.005058769 0.0032412596 0.00046061046 -0.00629624 0.005457464 -0.020540897 -0.0071114707 -0.018414112 -0.0019656215 -0.00016524424 0.0061872816 -0.00091868674 -0.0060268687 0.008733495 -0.020434627 0.00699687 -0.011904387 -0.0022440867 0.0035503726 0.0021730808 0.0001201784 0.0027734379 -0.005768623 0.012823808 0.00764119 -0.018694537 -0.010382279 -0.016703228 -0.002588581 -0.007921944 0.00580642 -0.0066300607 0.0120681925 -0.012319826 -0.0120370835 -0.0040722964 0.017393008 0.009558207 0.004869824 -0.0010244783 -0.0025862188 -0.005338865 -0.008426996 -0.0010786295 0.015683655 -0.0017244797 -0.018043896 0.0033612966 0.012048025 0.0056257714 0.0031905954 0.0086803995 -0.015209948 0.0055195848 0.0122833485 0.016008941 -0.011823537 0.027035674 0.002312981 -0.00045997815 0.010478893 0.0008620656 0.019647188 0.01327816 -0.0049768207 -0.00043026998 -0.006453498 0.002506491 -0.0054819146 0.0090470305 -0.0018441477 0.008172999 -0.00989454 -0.008392115 0.015161569 0.016013693 0.009656689 0.0016370028 0.022048164 0.0151589895 0.0032614397 0.0085227005 0.020932818 0.012278755 0.0081797065 -0.00523716 -0.0041886736 0.00031765486
must -0.028326733 0.028771931 -0.0019249975 -0.0017405606 0.005115531 -0.041207366 0.005436262 0.05218098 -0.014407811 -0.024354875 -0.009405206 -0.029572435 -0.0034308757 -0.009817452 0.0127431555 -0.014348744 0.020591814 -0.03274792 -0.0035939892 -0.054740064 0.005238075 0.012170041 0.010168063 -0.021177778 -0.02042724 0.0014547306 -0.0340582 -0.0033789692 -0.009656876 0.008172152 0.021516575 0.0072107255 -0.003433266 -0.018513327 -0.00556684 0.029765371 -0.0046719518 -0.027769117 -0.01658805 -0.033027753 0.014339442 -0.012396166 -0.00039493767 -0.013905231 0.03596764 -0.010930685 -0.02013308 -0.01264091 0.010197686 0.00047934934 0.0115447575 -0.009383098 0.00065396115 0.00624383 -0.0021113418 0.009423449 0.013555318 0.01451681 -0.026765423 0.02486723 0.01289064 0.006454863 0.0018563031 -0.0031408975 -0.020978082 0.020115415 0.016993772 0.02819243 -0.031503536 0.03907928 -0.01579799 0.013633569 0.011222009 -0.012295504 0.01607065 0.015311255 0.0034277518 0.006584328 -0.015599436 -0.0067568803 -0.0134130195 0.005947987 -0.023395918 0.039685614 -0.01328815 -0.005055324 0.020380884 0.033493187 0.025395084 0.006861741 0.020905532 0.010129871 0.003872361 0.016184816 0.040181972 0.0047908416 0.01744008 -0.009199762 0.020068076 -0.004785322
required -0.008347569 0.013121077 -0.0038700774 -0.0011594028 0.0067601176 -0.035799965 0.018975774 0.032853268 -0.015087402 -0.005694815 -0.0049624643 -0.029145278 -0.012961956 -0.0065866243 0.009586695 -0.0023980315 0.013782153 -0.02239342 -0.011192268 -0.04097553 0.002165539 0.017098485 0.0022082888 -0.018156333 -0.019680899 0.006897234 -0.015328403 -0.0039659115 -0.0076376568 0.004853077 0.028970106 -0.0032790583 0.010410735 -0.011246205 0.0006066502 0.02721056 0.008794784 -0.017268384 -0.015058695 -0.029116485 0.02036906 -0.026847597 -0.0015856292 -0.0009795335 0.020689702 -0.00047272674 -0.022484161 0.00076352875 0.018447425 -0.004419505 0.018041646 -0.012995306 0.006401184 0.0051507507 -0.016776063 0.015630271 0.02562699 0.017311228 -0.025322434 0.0068548056 -0.0010966886 0.011732479 -0.00834342 0.004692938 -0.010739107 0.025317358 0.009683679 0.01793822 -0.027237214 0.033404443 -0.019786688 -0.0023615262 0.015125032 -0.0030474102 0.018011888 -0.0039497786 0.0052114553 0.01529306 -0.013139941 0.006463275 -0.01378233 -0.0010399391 -0.01608987 0.02058895 -0.021621386 -0.00082813145 0.015640095 0.026483098 0.023816837 0.008263743 0.016996957 0.0214889 -0.008353641 0.009877199 0.028943075 0.0029079139 0.009652224 -0.016919216 0.019208642 0.00046635774
your -0.02062842 0.0228435 0.012256282 -0.005409266 0.00778159 -0.035380173 0.016819242 0.042684764 -0.016635576 -0.008718808 -0.013842857 -0.03511285 -0.008910947 -0.009189773 0.018291952 -0.018984776 0.012094366 -0.021543026 -0.013136189 -0.04546878 0.019209163 0.013186852 0.002570335 -0.016714996 -0.023312826 -0.005674909 -0.01804021 1.196795e-05 -0.01871231 0.009116482 0.026192999 -0.007238531 0.0019101464 -0.010170733 -0.018974198 0.02139038 0.009114994 -0.016039388 -0.012316363 -0.022983398 0.010855698 -0.026439624 0.005012721 -0.0005493528 0.02799561 -0.008580954 -0.007522669 -0.0064244573 0.009600756 0.012021703 0.024559824 -0.017780703 0.00719599 -0.009063638 -0.008852928 0.014468676 0.015965346 0.0031160736 -0.02640793 0.004274256 0.0016854673 0.016498912 -0.0020529302 -0.008984243 -0.0068208124 0.026020532 0.016031481 0.029770192 -0.039814215 0.030821102 -0.0102284 0.006610225 0.021863213 -0.01652669 0.024207473 0.016227733 -0.0029098399 0.016585309 -0.017849997 -0.0011983218 -0.01063842 -0.0054234467 -0.023053447 0.034101017 -0.016585983 0.010067635 0.0067373295 0.016517669 0.028494477 0.007564842 0.029355325 0.020266283 0.00029657438 0.0037657993 0.04518541 0.0013352204 0.009330902 -0.016188648 0.016890686 -0.009035366
no -0.009692427 0.0130650615 0.0015082222 -0.0061983066 -0.0029114808 -0.02862 0.00953636 0.033164643 -0.008028471 -0.007864985 -0.014255957 -0.008874636 -0.006986546 -0.008403662 0.0051882938 -0.00038689998 0.008711039 -0.020098357 -0.0139406035 -0.034917243 0.0055741672 0.015496308 0.0012342792 -0.0088634575 -0.009579472 0.0024250043 -0.023762025 0.0054517183 -0.011573354 0.010514281 0.0047461228 0.0051673586 -0.0044950317 -0.009543294 -0.007917397 0.009757413 0.0019493389 -0.013086676 -0.0057466547 -0.017518528 0.004052197 -0.020264408 0.012318225 0.00017917574 0.02681948 -0.00091885496 -0.015484796 0.0022869513 0.0050027426 0.005947779 0.006447676 -0.0056981407 0.00341437 -0.0036593692 -0.010090455 0.004511309 0.015685616 0.013776413 -0.019360373 0.01513986 0.0019420567 -0.0032086775 -0.008573421 0.0026524109 -0.0023536023 0.021084076 0.014553618 0.021089157 -0.024656978 0.020499496 0.0005723403 0.009820949 0.017908549 0.0011139212 0.0153428065 0.0066960338 -0.0037379328 0.013270149 -0.004622014 -0.0052018096 -0.0059235133 0.0103024 -0.007045613 0.026778046 -0.0020507623 -0.0017954065 0.019324888 0.02250634 0.013847216 0.0002720787 0.0279333 0.014657461 -0.01096659 0.0029821403 0.021721024 0.009188967 0.009011838 -0.016201226 0.009488371 0.0062458147
can -0.013004084 0.022026476 0.0055779186 0.008539587 0.013087081 -0.027299536 0.009004306 0.04149907 -0.013758348 -0.0040630614 -0.014657603 -0.0120097725 -0.017939106 -0.0046121352 0.01853978 -0.014735225 0.009470431 -0.012755593 0.0019977186 -0.035825454 0.0030269225 0.018842136 0.00034034165 -0.012001813 -0.0058368184 -0.010152538 -0.025108052 -0.013156711 -0.010422113 0.011561127 0.008021889 -0.0021203181 0.013209049 -0.010508917 -0.0050362367 0.019757349 -0.0016955134 -0.02100153 -0.0038339659 -0.02135601 0.018982591 -0.019668432 0.0077174925 4.5959794e-05 0.021663716 -0.003138969 -0.019012071 0.00074063585 0.012509459 -3.9067145e-05 0.017909233 0.0029161146 -0.0056544053 0.00011062891 -0.00237283 0.0058991197 0.01898113 0.018179964 -0.008549011 0.005472141 0.004066896 0.014515069 -0.0047071427 -0.009945248 -0.013781199 0.008440115 0.007953772 0.017304672 -0.03079791 0.023394233 -0.00087543816 0.007834788 0.017349955 -0.0052212887 0.025235727 -0.00023125234 0.01137027 0.005961153 -0.025496585 -0.0074645323 -0.009731556 0.011450179 -0.011653544 0.014674002 -0.010039671 -0.0034090807 0.008027579 0.028859263 0.024863128 -0.0007542401 0.024946695 0.0118680885 -0.015122266 0.01129876 0.03761707 0.010245419 0.012434364 -0.012537846 0.011663127 -0.012490948
any -0.015709605 0.024803285 0.0037379614 -0.0010718568 0.0066330745 -0.037736367 0.016581792 0.058813043 -0.0034277912 -0.014391337 -0.016390935 -0.036035597 -0.019786367 -0.005900919 0.015546781 -0.00547258 0.016106991 -0.028383393 -0.0058929925 -0.04970233 0.013119675 0.020952476 0.02117435 -0.018183766 -0.020899143 0.0014312138 -0.014803434 0.004838393 -0.01580253 0.015537694 0.032132007 -0.009433217 0.0152898915 -0.009805989 -0.016030693 0.024471136 0.012711748 -0.02722561 -0.009563449 -0.030051963 0.004859365 -0.0165699 0.0017254457 -0.0037499112 0.035374917 -0.0005111912 -0.01144326 -0.019035205 0.022254866 -0.004594105 0.015963385 0.00030183548 -0.005611217 0.002163405 -0.014575804 0.0025515207 0.032638483 0.01573856 -0.013336873 0.019011233 0.010200393 0.011197293 -0.013154258 0.007391734 -0.022626076 0.025234297 0.0027014825 0.023470031 -0.029459653 0.03438535 -0.020482274 -0.0022325083 0.008433166 0.0005870064 0.017088573 0.005049732 -0.0021595093 0.0048228526 -0.028364899 0.006720154 -0.004777503 0.0062221475 -0.007173435 0.033427857 -0.0053400425 0.007404205 0.018975267 0.028203215 0.016724296 -0.0022732723 0.03425569 0.0054124463 -0.0039278422 0.003036421 0.048529595 0.008384275 0.014165758 -0.01597536 0.01747596 -0.012118445
their -0.028855093 0.030547628 0.0004538282 -0.00084617356 0.00958782 -0.036978245 0.022543617 0.058659878 -0.0025295154 -0.02567103 -0.00907557 -0.022402655 -0.015004437 -0.0023115177 0.009563751 -0.018674593 0.024330921 -0.02506327 -0.0073697185 -0.05437495 0.020441003 0.00955522 0.009346284 -0.0155807175 -0.0059456243 -0.008748661 -0.022343788 -0.006234361 -0.022413692 0.0045961337 0.015381512 0.0055013266 0.003988825 -0.015489776 -0.009748795 0.028448775 0.013275241 -0.03076997 -0.017583843 -0.026969226 0.010720124 -0.024407936 0.013759944 -0.009122296 0.03868367 -0.01071635 -0.019086549 -0.003446776 0.027121395 0.005979146 0.017121624 -0.0040060165 -0.0039771567 0.0026221997 -0.010291436 0.005307157 0.031792838 0.008509634 -0.019627757 0.009484285 0.012656411 0.013402066 -0.00026674304 -0.008106895 -0.024836821 0.02888402 0.011678513 0.02569695 -0.042314563 0.036677815 -0.023137176 0.006280584 0.015012276 -0.008715184 0.027345821 0.00981425 -0.00050761655 0.010791497 -0.03130358 -0.00037538717 -0.008966475 0.011117126 -0.025128594 0.035629094 -0.0071421727 0.009808584 0.023216097 0.020045793 0.029944332 0.008889309 0.03436803 0.01760769 -0.007870578 0.014631687 0.045707833 0.018490518 0.009894893 -0.021497238 0.019296955 -0.011567517
which -0.020961307 0.02366498 0.003140344 -0.004015679 0.004813637 -0.049644433 0.016778868 0.044809267 -0.013314529 -0.012167328 -0.011800864 -0.025500104 -0.0099905925 -0.012898168 0.022182476 -0.017105134 0.012869676 -0.016373934 -0.009137081 -0.04265243 0.015576484 0.014481274 0.0200821 -0.00800294 -0.015358112 -0.00574929 -0.020079225 -0.013081777 -0.005337624 0.010670487 0.028619312 0.0030232777 0.0048455633 -0.008254958 -0.01565207 0.030281613 0.008808662 -0.01581648 -0.020785138 -0.03268738 0.020722583 -0.019349555 0.0010743873 -0.015859183 0.023143962 -0.009044404 -0.026097907 -0.009884829 0.021769362 -0.004874022 0.016194379 -0.016149106 -0.0030648187 -0.0029178888 -0.019726856 0.0073939934 0.017663488 0.0047194962 -0.018886857 0.018375574 0.0187468 0.016528236 -0.011065067 -0.0091459565 -0.009846763 0.026273362 0.0153082935 0.019470047 -0.038653452 0.031275313 -0.021180937 0.010468727 0.015407018 -0.00030946004 0.015434529 0.016844247 0.0018888987 0.017927272 -0.028568843 -0.0040045385 -0.0026854537 -0.0072415485 -0.02581986 0.036236655 -0.024434177 0.0052180304 0.019354222 0.019084046 0.02762755 0.0016517198 0.0372201 0.016828915 -0.010561584 0.008411092 0.04617881 0.0018580055 0.022401262 -0.014908598 0.0072769066 -0.009058497
course -0.0122112585 0.0072891163 0.006334377 -0.004643814 0.012790905 -0.03585089 0.003631278 0.041446265 0.0034723708 -0.009136533 -0.012253666 -0.01919123 -0.016869962 -0.006335322 0.0044523184 -0.008341809 0.0053664907 -0.025904512 -0.013981394 -0.02991848 0.013284689 0.018436568 0.012839453 -0.0074684327 -0.007534024 0.0028227975 -0.024009606 -0.0015582127 -0.010532987 0.011799011 0.0110848015 -0.0012014828 0.009108735 -0.012916902 -0.016544167 0.022130525 0.0022428255 -0.014650948 -0.018776963 -0.00961078 0.010257689 -0.014984826 0.003820923 -0.0050811693 0.026951296 -0.01752904 -0.010802983 -0.013150376 0.024163706 0.007806718 0.0070150313 -0.0086834105 -0.0060354965 0.007233356 0.002270046 0.010545465 0.028724251 0.004436168 -0.012970841 0.007476216 -0.0017494977 0.0016778071 -0.0046806172 -0.0052475976 -0.018578935 0.0165337 0.0062135933 0.008957228 -0.018626757 0.029392308 -0.01946378 0.0019757822 0.0062244846 0.00074407074 0.015593464 0.0134204235 0.010054089 0.0032412596 -0.026992273 -0.0033605099 0.00084776344 0.00017365805 -0.013225119 0.024360333 -0.019630937 0.00425465 0.0038660963 0.02960809 0.010878538 0.008207283 0.020244561 0.008415186 -0.0065115094 0.009409145 0.032665957 0.007969327 0.009356144 -0.0013470956 0.0021665709 -0.011383669
than -0.027196959 0.02936806 0.0017665044 -0.004971972 0.00885344 -0.04811346 0.017707491 0.0597583 -0.0006842759 -0.018865151 -0.010968305 -0.024926594 -0.00031368996 -0.005800471 0.013238753 -0.017496718 0.012167423 -0.02269213 -0.007094451 -0.051879596 0.018024899 0.0067222076 0.008080026 -0.026386986 -0.007568807 0.002289966 -0.027377402 0.004580287 -0.012081288 -0.0020820263 0.015404066 -0.004571139 -0.0013291315 -0.0018992845 -0.0052998755 0.023629814 0.0035925529 -0.027690072 -0.009734874 -0.029352022 0.009623595 -0.028043961 0.002920102 -0.016779048 0.031182162 -0.01768322 -0.010643985 -0.017405944 0.013241922 0.005158279 0.007866979 -0.0043467046 -0.0045315097 -0.0012048273 -0.0011352312 0.014182127 0.02397609 0.020007662 -0.020448102 0.021700291 0.014912372 -0.0005916039 -0.0026706683 -0.009130088 -0.019870635 0.029618926 0.0059009534 0.017318739 -0.030974932 0.043635465 -0.0064783487 -0.0021976274 0.025851853 -0.00136447 0.015822785 0.005748351 0.006334544 -0.00029654807 -0.02563782 0.013275749 -0.01327903 -0.004835307 -0.020809958 0.021812214 -0.012675624 0.0062689367 0.016424231 0.022048276 0.034345597 -0.009094929 0.024051847 0.004017687 0.0038081992 0.008876612 0.034210745 0.00053788937 0.021075368 -0.014428537 0.005670247 -0.0011685474
have -0.026884787 0.03121202 0.01020046 -0.004680842 0.0011321275 -0.037600525 0.004793403 0.052733406 -0.0033236344 -0.009436156 -0.021948757 -0.029595567 -0.016431225 0.003480886 0.021397425 -0.014403852 0.006908111 -0.017803831 -0.009441268 -0.043212887 0.007071176 0.010729501 0.010150466 -0.009563568 -0.023008784 -0.0064508147 -0.025774239 -0.0070289997 -0.007715822 0.007826858 0.01945873 -0.008917955 -0.0034467375 -0.007433817 -0.011029417 0.011230935 0.011135337 -0.012380824 -0.009674348 -0.027136246 0.011926773 -0.013508518 -0.0012241919 -0.014089414 0.019215308 -0.0055484204 -0.026208593 -0.008253885 0.02702307 0.0063263327 0.005914039 -0.0013130471 0.00570014 -0.009308826 -0.0026718043 0.019467445 0.029947476 0.007458971 -0.013893119 0.010783075 0.0019413346 0.01046126 -0.009784534 -0.0014122787 -0.023264548 0.012902761 0.006654231 0.023070749 -0.032226153 0.043250892 -0.008962968 -0.0054539833 0.009806636 -0.010658378 0.018540403 0.00032402563 0.01586945 0.013076057 -0.030757258 0.008743668 -0.0120529 -0.004357193 -0.016570201 0.037685532 -0.019899543 -0.0036351797 0.013266455 0.030170104 0.029286006 -0.007342369 0.019001363 0.013462296 -0.0030218856 0.01369013 0.042279545 0.008180883 0.011604706 -0.007744108 0.01133737 0.0006553334
i -0.010152081 0.022249209 -0.0012920297 0.0034891414 0.00566325 -0.029762007 0.018512057 0.034350082 0.0005734814 -0.010749788 0.0015511554 -0.012200388 -0.0071838377 0.002185435 0.012399001 9.639189e-06 0.010412617 -0.011617031 -0.008609253 -0.032452732 -0.001257395 0.0047745383 0.004230134 -0.0072890995 -0.008307598 1.6277749e-05 -0.0094591025 -0.009470306 -0.000929057 0.011807308 0.018486425 0.0025844024 0.004125716 -0.0030480886 -0.013814701 0.0064952513 0.0032280635 -0.012263773 -0.0049103843 -0.018906796 0.012880625 -0.016569853 0.009962248 -0.007241262 0.0111940475 -0.0038130775 -0.011064489 -0.0086737815 0.0067865946 0.012032676 0.00044255817 -0.00019731784 -0.003603432 0.008909461 -0.001022906 0.0088350335 0.010600264 0.005367245 -0.017336702 0.0069678216 0.011229283 -0.0055122734 -0.0003548843 0.0042292657 -0.003017599 0.0077750115 0.010527381 0.0022516635 -0.019096207 0.02978953 -0.00302886 -0.0028091995 0.007897637 -0.0137324175 0.013358712 0.008716222 -0.0031367054 0.010981458 -0.017609345 0.0077432054 -0.00010283365 0.0045841513 -0.0117605245 0.00846582 -0.014464261 0.0011048925 -0.0013866145 0.024961099 0.017360797 -0.0013647733 0.02601266 0.00367417 -0.002212196 0.0074554044 0.029316768 0.0072554685 0.0045072883 -0.010816131 -0.0010145219 0.0016078693
registration -0.004996185 0.01892294 0.008731301 -0.009750727 0.012126336 -0.029402882 0.009241677 0.026599308 0.0033536456 -0.01799052 -0.0038950108 -0.022101935 -0.005463486 0.006449706 -0.003715697 0.002730488 -0.00056469796 -0.005471637 -0.013355323 -0.03150373 -0.0008974755 0.0126517955 0.005070988 -0.007893113 -0.017416885 0.008705963 -0.010305786 -0.0070984196 -0.010657511 0.013143168 0.015126626 -0.009452768 0.007317945 -0.01079849 -0.0034003046 0.019505233 0.00026975392 -0.010286606 -0.003210277 -0.019163456 0.010266234 -0.007844773 -0.005981647 -0.008304595 0.022720756 -0.00395007 0.00044604568 -0.007476225 0.01886308 -0.0057824296 0.013705538 -0.013766466 0.002681981 0.007263903 -0.0071671433 0.013220988 0.0033420774 0.005526716 -0.0072635547 0.0031420002 0.012729633 -0.0033566058 -0.0037261308 0.00940342 -0.0015428665 0.011879185 0.014646649 0.0017065469 -0.021658268 0.021969048 -0.009281483 0.00747908 0.018090872 -0.009065365 0.009573305 0.013185807 -0.002539127 -0.003664539 -0.013075725 -0.005676744 -0.00472703 0.0040691444 -0.01712636 0.016203864 -0.0129071195 -0.0026553208 0.011567543 0.018250607 0.01032084 0.008543313 0.01599841 0.014646976 -0.00040165047 0.01037086 0.030792894 4.9072776e-05 0.0071259486 -0.009741665 0.010711995 -0.00925782
